{"learner":{"attributes":{"best_iteration":"588","best_score":"0.6231735624135297"},"feature_names":[],"feature_types":[],"gradient_booster":{"model":{"gbtree_model_param":{"num_parallel_tree":"1","num_trees":"1278"},"iteration_indptr":[0,2,4,6,8,10,12,14,16,18,20,22,24,26,28,30,32,34,36,38,40,42,44,46,48,50,52,54,56,58,60,62,64,66,68,70,72,74,76,78,80,82,84,86,88,90,92,94,96,98,100,102,104,106,108,110,112,114,116,118,120,122,124,126,128,130,132,134,136,138,140,142,144,146,148,150,152,154,156,158,160,162,164,166,168,170,172,174,176,178,180,182,184,186,188,190,192,194,196,198,200,202,204,206,208,210,212,214,216,218,220,222,224,226,228,230,232,234,236,238,240,242,244,246,248,250,252,254,256,258,260,262,264,266,268,270,272,274,276,278,280,282,284,286,288,290,292,294,296,298,300,302,304,306,308,310,312,314,316,318,320,322,324,326,328,330,332,334,336,338,340,342,344,346,348,350,352,354,356,358,360,362,364,366,368,370,372,374,376,378,380,382,384,386,388,390,392,394,396,398,400,402,404,406,408,410,412,414,416,418,420,422,424,426,428,430,432,434,436,438,440,442,444,446,448,450,452,454,456,458,460,462,464,466,468,470,472,474,476,478,480,482,484,486,488,490,492,494,496,498,500,502,504,506,508,510,512,514,516,518,520,522,524,526,528,530,532,534,536,538,540,542,544,546,548,550,552,554,556,558,560,562,564,566,568,570,572,574,576,578,580,582,584,586,588,590,592,594,596,598,600,602,604,606,608,610,612,614,616,618,620,622,624,626,628,630,632,634,636,638,640,642,644,646,648,650,652,654,656,658,660,662,664,666,668,670,672,674,676,678,680,682,684,686,688,690,692,694,696,698,700,702,704,706,708,710,712,714,716,718,720,722,724,726,728,730,732,734,736,738,740,742,744,746,748,750,752,754,756,758,760,762,764,766,768,770,772,774,776,778,780,782,784,786,788,790,792,794,796,798,800,802,804,806,808,810,812,814,816,818,820,822,824,826,828,830,832,834,836,838,840,842,844,846,848,850,852,854,856,858,860,862,864,866,868,870,872,874,876,878,880,882,884,886,888,890,892,894,896,898,900,902,904,906,908,910,912,914,916,918,920,922,924,926,928,930,932,934,936,938,940,942,944,946,948,950,952,954,956,958,960,962,964,966,968,970,972,974,976,978,980,982,984,986,988,990,992,994,996,998,1000,1002,1004,1006,1008,1010,1012,1014,1016,1018,1020,1022,1024,1026,1028,1030,1032,1034,1036,1038,1040,1042,1044,1046,1048,1050,1052,1054,1056,1058,1060,1062,1064,1066,1068,1070,1072,1074,1076,1078,1080,1082,1084,1086,1088,1090,1092,1094,1096,1098,1100,1102,1104,1106,1108,1110,1112,1114,1116,1118,1120,1122,1124,1126,1128,1130,1132,1134,1136,1138,1140,1142,1144,1146,1148,1150,1152,1154,1156,1158,1160,1162,1164,1166,1168,1170,1172,1174,1176,1178,1180,1182,1184,1186,1188,1190,1192,1194,1196,1198,1200,1202,1204,1206,1208,1210,1212,1214,1216,1218,1220,1222,1224,1226,1228,1230,1232,1234,1236,1238,1240,1242,1244,1246,1248,1250,1252,1254,1256,1258,1260,1262,1264,1266,1268,1270,1272,1274,1276,1278],"tree_info":[0,1,0,1,0,1,0,1,0,1,0,1,0,1,0,1,0,1,0,1,0,1,0,1,0,1,0,1,0,1,0,1,0,1,0,1,0,1,0,1,0,1,0,1,0,1,0,1,0,1,0,1,0,1,0,1,0,1,0,1,0,1,0,1,0,1,0,1,0,1,0,1,0,1,0,1,0,1,0,1,0,1,0,1,0,1,0,1,0,1,0,1,0,1,0,1,0,1,0,1,0,1,0,1,0,1,0,1,0,1,0,1,0,1,0,1,0,1,0,1,0,1,0,1,0,1,0,1,0,1,0,1,0,1,0,1,0,1,0,1,0,1,0,1,0,1,0,1,0,1,0,1,0,1,0,1,0,1,0,1,0,1,0,1,0,1,0,1,0,1,0,1,0,1,0,1,0,1,0,1,0,1,0,1,0,1,0,1,0,1,0,1,0,1,0,1,0,1,0,1,0,1,0,1,0,1,0,1,0,1,0,1,0,1,0,1,0,1,0,1,0,1,0,1,0,1,0,1,0,1,0,1,0,1,0,1,0,1,0,1,0,1,0,1,0,1,0,1,0,1,0,1,0,1,0,1,0,1,0,1,0,1,0,1,0,1,0,1,0,1,0,1,0,1,0,1,0,1,0,1,0,1,0,1,0,1,0,1,0,1,0,1,0,1,0,1,0,1,0,1,0,1,0,1,0,1,0,1,0,1,0,1,0,1,0,1,0,1,0,1,0,1,0,1,0,1,0,1,0,1,0,1,0,1,0,1,0,1,0,1,0,1,0,1,0,1,0,1,0,1,0,1,0,1,0,1,0,1,0,1,0,1,0,1,0,1,0,1,0,1,0,1,0,1,0,1,0,1,0,1,0,1,0,1,0,1,0,1,0,1,0,1,0,1,0,1,0,1,0,1,0,1,0,1,0,1,0,1,0,1,0,1,0,1,0,1,0,1,0,1,0,1,0,1,0,1,0,1,0,1,0,1,0,1,0,1,0,1,0,1,0,1,0,1,0,1,0,1,0,1,0,1,0,1,0,1,0,1,0,1,0,1,0,1,0,1,0,1,0,1,0,1,0,1,0,1,0,1,0,1,0,1,0,1,0,1,0,1,0,1,0,1,0,1,0,1,0,1,0,1,0,1,0,1,0,1,0,1,0,1,0,1,0,1,0,1,0,1,0,1,0,1,0,1,0,1,0,1,0,1,0,1,0,1,0,1,0,1,0,1,0,1,0,1,0,1,0,1,0,1,0,1,0,1,0,1,0,1,0,1,0,1,0,1,0,1,0,1,0,1,0,1,0,1,0,1,0,1,0,1,0,1,0,1,0,1,0,1,0,1,0,1,0,1,0,1,0,1,0,1,0,1,0,1,0,1,0,1,0,1,0,1,0,1,0,1,0,1,0,1,0,1,0,1,0,1,0,1,0,1,0,1,0,1,0,1,0,1,0,1,0,1,0,1,0,1,0,1,0,1,0,1,0,1,0,1,0,1,0,1,0,1,0,1,0,1,0,1,0,1,0,1,0,1,0,1,0,1,0,1,0,1,0,1,0,1,0,1,0,1,0,1,0,1,0,1,0,1,0,1,0,1,0,1,0,1,0,1,0,1,0,1,0,1,0,1,0,1,0,1,0,1,0,1,0,1,0,1,0,1,0,1,0,1,0,1,0,1,0,1,0,1,0,1,0,1,0,1,0,1,0,1,0,1,0,1,0,1,0,1,0,1,0,1,0,1,0,1,0,1,0,1,0,1,0,1,0,1,0,1,0,1,0,1,0,1,0,1,0,1,0,1,0,1,0,1,0,1,0,1,0,1,0,1,0,1,0,1,0,1,0,1,0,1,0,1,0,1,0,1,0,1,0,1,0,1,0,1,0,1,0,1,0,1,0,1,0,1,0,1,0,1,0,1,0,1,0,1,0,1,0,1,0,1,0,1,0,1,0,1,0,1,0,1,0,1,0,1,0,1,0,1,0,1,0,1,0,1,0,1,0,1,0,1,0,1,0,1,0,1,0,1,0,1,0,1,0,1,0,1,0,1,0,1,0,1,0,1,0,1,0,1,0,1,0,1,0,1,0,1,0,1,0,1,0,1,0,1,0,1,0,1,0,1,0,1,0,1,0,1,0,1,0,1,0,1,0,1,0,1,0,1,0,1,0,1,0,1,0,1,0,1,0,1,0,1,0,1,0,1,0,1,0,1,0,1,0,1,0,1,0,1,0,1,0,1,0,1,0,1,0,1,0,1,0,1,0,1,0,1,0,1,0,1,0,1,0,1,0,1,0,1,0,1,0,1,0,1,0,1,0,1,0,1,0,1,0,1,0,1,0,1,0,1,0,1,0,1,0,1,0,1,0,1,0,1,0,1,0,1,0,1,0,1,0,1,0,1,0,1,0,1,0,1,0,1,0,1,0,1,0,1,0,1,0,1,0,1,0,1,0,1,0,1,0,1,0,1,0,1,0,1,0,1,0,1,0,1,0,1,0,1,0,1,0,1,0,1,0,1,0,1,0,1,0,1,0,1,0,1,0,1,0,1,0,1,0,1,0,1,0,1,0,1,0,1,0,1,0,1,0,1,0,1,0,1,0,1,0,1,0,1,0,1,0,1,0,1,0,1,0,1,0,1,0,1,0,1,0,1,0,1,0,1,0,1,0,1,0,1,0,1,0,1,0,1,0,1,0,1,0,1,0,1,0,1,0,1,0,1,0,1,0,1,0,1,0,1,0,1,0,1,0,1,0,1,0,1,0,1,0,1,0,1,0,1,0,1,0,1,0,1,0,1,0,1,0,1,0,1,0,1,0,1,0,1,0,1,0,1,0,1,0,1,0,1,0,1,0,1,0,1,0,1,0,1,0,1,0,1,0,1,0,1,0,1,0,1],"trees":[{"base_weights":[-1.5084441E-1,1.8505247E-1,-2.9893574E-1,-7.050224E-2,3.300361E-1,-5.8188933E-1,-1.9469027E-1,1.5525671E-3,-2.1258635E-3,4.867321E-3,2.3863874E-3,-4.7481074E-3,-7.0475047E-3,1.2908444E-3,-2.5596474E-3],"categories":[],"categories_nodes":[],"categories_segments":[],"categories_sizes":[],"default_left":[0,0,0,0,0,0,0,0,0,0,0,0,0,0,0],"id":0,"left_children":[1,3,5,7,9,11,13,-1,-1,-1,-1,-1,-1,-1,-1],"loss_changes":[1.905889E2,4.345605E1,7.834552E1,1.3612786E1,1.0629829E1,9.262863E0,3.8575325E1,0E0,0E0,0E0,0E0,0E0,0E0,0E0,0E0],"parents":[2147483647,0,0,1,1,2,2,3,3,4,4,5,5,6,6],"right_children":[2,4,6,8,10,12,14,-1,-1,-1,-1,-1,-1,-1,-1],"split_conditions":[-2E0,-1.4E0,-2.5E0,-6.6E0,8E0,2.3E1,4E0,1.5525671E-3,-2.1258635E-3,4.867321E-3,2.3863874E-3,-4.7481074E-3,-7.0475047E-3,1.2908444E-3,-2.5596474E-3],"split_indices":[25,77,77,25,103,1,103,0,0,0,0,0,0,0,0],"split_type":[0,0,0,0,0,0,0,0,0,0,0,0,0,0,0],"sum_hessian":[3.831E3,1.172E3,2.659E3,4.24E2,7.48E2,7.155E2,1.9435E3,1.635E2,2.605E2,2.75E2,4.73E2,3.83E2,3.325E2,3.09E2,1.6345E3],"tree_param":{"num_deleted":"0","num_feature":"106","num_nodes":"15","size_leaf_vector":"1"}},{"base_weights":[1.503411E-1,-1.5298982E-1,2.9805273E-1,5.794221E-2,-3.8170975E-1,5.6040907E-1,1.8195522E-1,-1.6337673E-3,1.8481134E-3,-3.9841244E-3,4.6551726E-3,4.462912E-3,6.782318E-3,7.634543E-4,3.5741897E-3],"categories":[],"categories_nodes":[],"categories_segments":[],"categories_sizes":[],"default_left":[0,0,0,0,0,0,0,0,0,0,0,0,0,0,0],"id":1,"left_children":[1,3,5,7,9,11,13,-1,-1,-1,-1,-1,-1,-1,-1],"loss_changes":[1.7209909E2,6.0706696E1,7.859398E1,1.8371336E1,8.55336E0,1.0507629E1,3.314421E1,0E0,0E0,0E0,0E0,0E0,0E0,0E0,0E0],"parents":[2147483647,0,0,1,1,2,2,3,3,4,4,5,5,6,6],"right_children":[2,4,6,8,10,12,14,-1,-1,-1,-1,-1,-1,-1,-1],"split_conditions":[-1.6E0,4E-1,-1.9E0,-6.4E0,4.78E-1,2.3E1,6.25E-1,-1.6337673E-3,1.8481134E-3,-3.9841244E-3,4.6551726E-3,4.462912E-3,6.782318E-3,7.634543E-4,3.5741897E-3],"split_indices":[25,77,77,25,7,1,3,0,0,0,0,0,0,0,0],"split_type":[0,0,0,0,0,0,0,0,0,0,0,0,0,0,0],"sum_hessian":[3.8405E3,1.2575E3,2.583E3,6.54E2,6.035E2,7.92E2,1.791E3,2.38E2,4.16E2,5.92E2,1.15E1,4.03E2,3.89E2,1.1185E3,6.725E2],"tree_param":{"num_deleted":"0","num_feature":"106","num_nodes":"15","size_leaf_vector":"1"}},{"base_weights":[-1.5226473E-1,1.3516964E-1,-2.946114E-1,-5.153987E-2,3.1364852E-1,-8.924083E-2,-4.4144765E-1,1.4389064E-3,-1.6955795E-3,-9.868237E-4,3.5592115E-3,-2.5228146E-3,6.874816E-4,-3.6803314E-3,-6.4728116E-3],"categories":[],"categories_nodes":[],"categories_segments":[],"categories_sizes":[],"default_left":[0,0,0,0,0,0,0,0,0,0,0,0,0,0,0],"id":2,"left_children":[1,3,5,7,9,11,13,-1,-1,-1,-1,-1,-1,-1,-1],"loss_changes":[1.5910098E2,4.293506E1,7.8365295E1,1.4514702E1,1.1508705E1,2.7957756E1,2.2784271E1,0E0,0E0,0E0,0E0,0E0,0E0,0E0,0E0],"parents":[2147483647,0,0,1,1,2,2,3,3,4,4,5,5,6,6],"right_children":[2,4,6,8,10,12,14,-1,-1,-1,-1,-1,-1,-1,-1],"split_conditions":[4.41E-1,0E0,1.1E1,-6.2E0,5E0,1E1,2.6E1,1.4389064E-3,-1.6955795E-3,-9.868237E-4,3.5592115E-3,-2.5228146E-3,6.874816E-4,-3.6803314E-3,-6.4728116E-3],"split_indices":[3,77,80,25,53,51,103,0,0,0,0,0,0,0,0],"split_type":[0,0,0,0,0,0,0,0,0,0,0,0,0,0,0],"sum_hessian":[3.887956E3,1.2874889E3,2.600467E3,6.2899664E2,6.5849225E2,1.0844948E3,1.5159723E3,2.3649934E2,3.9249728E2,6.099942E1,5.974928E2,5.339968E2,5.50498E2,1.1179857E3,3.979866E2],"tree_param":{"num_deleted":"0","num_feature":"106","num_nodes":"15","size_leaf_vector":"1"}},{"base_weights":[1.4870374E-1,-1.680234E-1,2.9065427E-1,1.01921216E-1,-2.9883403E-1,8.830198E-2,4.5646536E-1,-1.7487918E-3,2.192018E-3,-1.988439E-3,-4.3133358E-3,3.4171955E-3,7.315362E-5,3.7963435E-3,6.496939E-3],"categories":[],"categories_nodes":[],"categories_segments":[],"categories_sizes":[],"default_left":[0,0,0,0,0,0,0,0,0,0,0,0,0,0,0],"id":3,"left_children":[1,3,5,7,9,11,13,-1,-1,-1,-1,-1,-1,-1,-1],"loss_changes":[1.7329391E2,4.213503E1,8.9243E1,1.2639699E1,1.0574905E1,2.4574389E1,2.1585693E1,0E0,0E0,0E0,0E0,0E0,0E0,0E0,0E0],"parents":[2147483647,0,0,1,1,2,2,3,3,4,4,5,5,6,6],"right_children":[2,4,6,8,10,12,14,-1,-1,-1,-1,-1,-1,-1,-1],"split_conditions":[-2E0,-2E0,1.2E1,-7.3E0,2.7E1,5E0,2.6E1,-1.7487918E-3,2.192018E-3,-1.988439E-3,-4.3133358E-3,3.4171955E-3,7.315362E-5,3.7963435E-3,6.496939E-3],"split_indices":[25,77,80,25,51,29,103,0,0,0,0,0,0,0,0],"split_type":[0,0,0,0,0,0,0,0,0,0,0,0,0,0,0],"sum_hessian":[3.8539563E3,1.19249E3,2.6614663E3,3.889987E2,8.034913E2,1.1989949E3,1.4624714E3,1.154997E2,2.73499E2,4.584951E2,3.449962E2,2.8999774E2,9.0899713E2,1.0469858E3,4.1548557E2],"tree_param":{"num_deleted":"0","num_feature":"106","num_nodes":"15","size_leaf_vector":"1"}},{"base_weights":[-1.5300809E-1,1.6368786E-1,-2.9520148E-1,-7.1880616E-2,3.135066E-1,-4.5767567E-1,-1.2419327E-1,5.2880385E-4,-2.500115E-3,2.0187253E-3,4.627504E-3,-5.7467544E-3,-3.3979758E-3,-3.2964575E-3,2.8526582E-4],"categories":[],"categories_nodes":[],"categories_segments":[],"categories_sizes":[],"default_left":[0,0,0,0,0,0,0,0,0,0,0,0,0,0,0],"id":4,"left_children":[1,3,5,7,9,11,13,-1,-1,-1,-1,-1,-1,-1,-1],"loss_changes":[1.7640579E2,4.285625E1,7.505054E1,1.0501633E1,1.2287621E1,1.900418E1,4.1372368E1,0E0,0E0,0E0,0E0,0E0,0E0,0E0,0E0],"parents":[2147483647,0,0,1,1,2,2,3,3,4,4,5,5,6,6],"right_children":[2,4,6,8,10,12,14,-1,-1,-1,-1,-1,-1,-1,-1],"split_conditions":[-2E0,-1.2E0,5.25E-1,-4.6E0,2.7E1,-2.6E0,8E0,5.2880385E-4,-2.500115E-3,2.0187253E-3,4.627504E-3,-5.7467544E-3,-3.3979758E-3,-3.2964575E-3,2.8526582E-4],"split_indices":[25,77,55,25,51,77,27,0,0,0,0,0,0,0,0],"split_type":[0,0,0,0,0,0,0,0,0,0,0,0,0,0,0],"sum_hessian":[3.9168372E3,1.2134652E3,2.703372E3,4.7149365E2,7.4197156E2,1.3858907E3,1.3174813E3,2.769969E2,1.9449677E2,4.2498724E2,3.169843E2,6.949163E2,6.909744E2,5.61986E2,7.5549524E2],"tree_param":{"num_deleted":"0","num_feature":"106","num_nodes":"15","size_leaf_vector":"1"}},{"base_weights":[1.4373326E-1,-1.5059285E-1,2.9276547E-1,4.1874815E-2,-3.2721102E-1,1.1447021E-1,4.671403E-1,-1.5273134E-3,1.5574225E-3,-4.47991E-3,-2.051522E-3,-1.5097797E-3,1.971923E-3,5.8303494E-3,3.450943E-3],"categories":[],"categories_nodes":[],"categories_segments":[],"categories_sizes":[],"default_left":[0,0,0,0,0,0,0,0,0,0,0,0,0,0,0],"id":5,"left_children":[1,3,5,7,9,11,13,-1,-1,-1,-1,-1,-1,-1,-1],"loss_changes":[1.7027428E2,4.437626E1,8.0055176E1,1.3832038E1,9.958702E0,2.799538E1,1.831018E1,0E0,0E0,0E0,0E0,0E0,0E0,0E0,0E0],"parents":[2147483647,0,0,1,1,2,2,3,3,4,4,5,5,6,6],"right_children":[2,4,6,8,10,12,14,-1,-1,-1,-1,-1,-1,-1,-1],"split_conditions":[4.41E-1,-2E-1,1.3E1,-6.4E0,-5.1E0,4E0,-2.4E0,-1.5273134E-3,1.5574225E-3,-4.47991E-3,-2.051522E-3,-1.5097797E-3,1.971923E-3,5.8303494E-3,3.450943E-3],"split_indices":[3,77,80,25,25,103,77,0,0,0,0,0,0,0,0],"split_type":[0,0,0,0,0,0,0,0,0,0,0,0,0,0,0],"sum_hessian":[3.8813374E3,1.3044622E3,2.5768752E3,6.239882E2,6.8047394E2,1.2744802E3,1.302395E3,2.2999715E2,3.9399106E2,3.4148276E2,3.3899118E2,3.024981E2,9.719821E2,6.674186E2,6.349764E2],"tree_param":{"num_deleted":"0","num_feature":"106","num_nodes":"15","size_leaf_vector":"1"}},{"base_weights":[-1.4131169E-1,1.6338739E-1,-2.9124388E-1,-2.64151E-2,3.6370966E-1,-4.6385896E-1,-1.0955655E-1,1.3607846E-3,-1.6963994E-3,3.8466793E-3,-6.0583293E-3,-3.8664527E-3,-6.4181443E-3,-1.6802212E-5,-3.1718211E-3],"categories":[],"categories_nodes":[],"categories_segments":[],"categories_sizes":[],"default_left":[0,0,0,0,0,0,0,0,0,0,0,0,0,0,0],"id":6,"left_children":[1,3,5,7,9,11,13,-1,-1,-1,-1,-1,-1,-1,-1],"loss_changes":[1.7707755E2,4.8627064E1,8.1410324E1,1.5274618E1,1.2641037E1,1.8172852E1,2.8325203E1,0E0,0E0,0E0,0E0,0E0,0E0,0E0,0E0],"parents":[2147483647,0,0,1,1,2,2,3,3,4,4,5,5,6,6],"right_children":[2,4,6,8,10,12,14,-1,-1,-1,-1,-1,-1,-1,-1],"split_conditions":[-1.6E0,4E-1,5.25E-1,-5.4E0,4.78E-1,2.6E1,6.39E-1,1.3607846E-3,-1.6963994E-3,3.8466793E-3,-6.0583293E-3,-3.8664527E-3,-6.4181443E-3,-1.6802212E-5,-3.1718211E-3],"split_indices":[25,77,55,25,7,103,3,0,0,0,0,0,0,0,0],"split_type":[0,0,0,0,0,0,0,0,0,0,0,0,0,0,0],"sum_hessian":[3.875638E3,1.2779182E3,2.59772E3,6.559769E2,6.219412E2,1.3317566E3,1.2659633E3,3.0699136E2,3.489856E2,6.089414E2,1.299982E1,9.29383E2,4.0237366E2,8.334887E2,4.3247452E2],"tree_param":{"num_deleted":"0","num_feature":"106","num_nodes":"15","size_leaf_vector":"1"}},{"base_weights":[1.4561073E-1,-1.446729E-1,2.926331E-1,7.455751E-2,-2.8267238E-1,1.24748975E-1,4.7381938E-1,-1.4098696E-3,2.0047273E-3,1.1657473E-3,-3.211585E-3,3.205533E-3,2.7217184E-5,3.8717338E-3,6.545514E-3],"categories":[],"categories_nodes":[],"categories_segments":[],"categories_sizes":[],"default_left":[0,0,0,0,0,0,0,0,0,0,0,0,0,0,0],"id":7,"left_children":[1,3,5,7,9,11,13,-1,-1,-1,-1,-1,-1,-1,-1],"loss_changes":[1.6525772E2,3.9398598E1,7.811897E1,1.3648985E1,1.2301777E1,3.185476E1,1.9223755E1,0E0,0E0,0E0,0E0,0E0,0E0,0E0,0E0],"parents":[2147483647,0,0,1,1,2,2,3,3,4,4,5,5,6,6],"right_children":[2,4,6,8,10,12,14,-1,-1,-1,-1,-1,-1,-1,-1],"split_conditions":[-1.6E0,4.55E-1,1.4E1,-6.4E0,1.1E1,7E0,2.6E1,-1.4098696E-3,2.0047273E-3,1.1657473E-3,-3.211585E-3,3.205533E-3,2.7217184E-5,3.8717338E-3,6.545514E-3],"split_indices":[25,55,80,25,33,27,103,0,0,0,0,0,0,0,0],"split_type":[0,0,0,0,0,0,0,0,0,0,0,0,0,0,0],"sum_hessian":[3.871637E3,1.3014169E3,2.5702202E3,5.024809E2,7.98936E2,1.3344565E3,1.2357635E3,1.8499544E2,3.1748547E2,6.999734E1,7.2893866E2,5.1196997E2,8.224866E2,8.358908E2,3.998728E2],"tree_param":{"num_deleted":"0","num_feature":"106","num_nodes":"15","size_leaf_vector":"1"}},{"base_weights":[-1.4069793E-1,-2.6202223E-1,1.953181E-1,-5.003459E-1,-1.4930566E-1,-1.2606715E-2,3.493586E-1,-3.8412823E-3,-6.449826E-3,-2.620747E-3,4.7362017E-4,1.5470986E-3,-1.4036117E-3,2.5812527E-3,5.211324E-3],"categories":[],"categories_nodes":[],"categories_segments":[],"categories_sizes":[],"default_left":[0,0,0,0,0,0,0,0,0,0,0,0,0,0,0],"id":8,"left_children":[1,3,5,7,9,11,13,-1,-1,-1,-1,-1,-1,-1,-1],"loss_changes":[1.5847084E2,7.665039E1,3.305516E1,1.5282059E1,4.3035587E1,9.375378E0,9.194115E0,0E0,0E0,0E0,0E0,0E0,0E0,0E0,0E0],"parents":[2147483647,0,0,1,1,2,2,3,3,4,4,5,5,6,6],"right_children":[2,4,6,8,10,12,14,-1,-1,-1,-1,-1,-1,-1,-1],"split_conditions":[2.1E1,-1.7E0,-7E-1,2.3E1,1.4E1,-6.2E0,2.8E1,-3.8412823E-3,-6.449826E-3,-2.620747E-3,4.7362017E-4,1.5470986E-3,-1.4036117E-3,2.5812527E-3,5.211324E-3],"split_indices":[28,77,77,1,51,25,51,0,0,0,0,0,0,0,0],"split_type":[0,0,0,0,0,0,0,0,0,0,0,0,0,0,0],"sum_hessian":[3.886853E3,2.8559744E3,1.0308785E3,9.166381E2,1.9393363E3,4.3847073E2,5.9240784E2,5.088372E2,4.0780093E2,1.2328796E3,7.064567E2,1.89493E2,2.4897774E2,3.874539E2,2.0495393E2],"tree_param":{"num_deleted":"0","num_feature":"106","num_nodes":"15","size_leaf_vector":"1"}},{"base_weights":[1.3596469E-1,-1.7189068E-1,2.8741786E-1,5.5585685E-3,-3.6637312E-1,1.3472176E-1,4.8330337E-1,-1.4954034E-3,1.6118623E-3,-3.8284059E-3,6.6568223E-3,2.9255035E-3,-3.5736026E-5,5.9737377E-3,3.6811084E-3],"categories":[],"categories_nodes":[],"categories_segments":[],"categories_sizes":[],"default_left":[0,0,0,0,0,0,0,0,0,0,0,0,0,0,0],"id":9,"left_children":[1,3,5,7,9,11,13,-1,-1,-1,-1,-1,-1,-1,-1],"loss_changes":[1.8222754E2,4.4502056E1,7.82863E1,1.6261833E1,1.0449272E1,3.2169376E1,1.4955536E1,0E0,0E0,0E0,0E0,0E0,0E0,0E0,0E0],"parents":[2147483647,0,0,1,1,2,2,3,3,4,4,5,5,6,6],"right_children":[2,4,6,8,10,12,14,-1,-1,-1,-1,-1,-1,-1,-1],"split_conditions":[-1.6E0,4E-1,1.5E1,-5.1E0,4.8E-1,9E0,-3.2E0,-1.4954034E-3,1.6118623E-3,-3.8284059E-3,6.6568223E-3,2.9255035E-3,-3.5736026E-5,5.9737377E-3,3.6811084E-3],"split_indices":[25,77,80,25,7,29,77,0,0,0,0,0,0,0,0],"split_type":[0,0,0,0,0,0,0,0,0,0,0,0,0,0,0],"sum_hessian":[3.9078557E3,1.2883606E3,2.619495E3,6.734635E2,6.1489716E2,1.4724076E3,1.1470875E3,3.369849E2,3.364786E2,6.053972E2,9.499918E0,6.879271E2,7.844804E2,5.757043E2,5.713832E2],"tree_param":{"num_deleted":"0","num_feature":"106","num_nodes":"15","size_leaf_vector":"1"}},{"base_weights":[-1.3096435E-1,1.5755145E-1,-2.8381822E-1,-5.8876738E-2,3.2276663E-1,-5.587427E-1,-1.8106027E-1,1.5809292E-3,-1.7338445E-3,2.5045252E-3,5.391389E-3,-1.399894E-3,-5.8419327E-3,-3.7332645E-3,-6.2450644E-4],"categories":[],"categories_nodes":[],"categories_segments":[],"categories_sizes":[],"default_left":[0,0,0,0,0,0,0,0,0,0,0,0,0,0,0],"id":10,"left_children":[1,3,5,7,9,11,13,-1,-1,-1,-1,-1,-1,-1,-1],"loss_changes":[1.6983197E2,4.7705902E1,7.103247E1,1.4340774E1,1.1743156E1,7.2154694E0,4.175149E1,0E0,0E0,0E0,0E0,0E0,0E0,0E0,0E0],"parents":[2147483647,0,0,1,1,2,2,3,3,4,4,5,5,6,6],"right_children":[2,4,6,8,10,12,14,-1,-1,-1,-1,-1,-1,-1,-1],"split_conditions":[-1.4E0,-7E-1,-2.4E0,-6.6E0,3.8E1,4E0,7E0,1.5809292E-3,-1.7338445E-3,2.5045252E-3,5.391389E-3,-1.399894E-3,-5.8419327E-3,-3.7332645E-3,-6.2450644E-4],"split_indices":[25,77,77,25,2,54,27,0,0,0,0,0,0,0,0],"split_type":[0,0,0,0,0,0,0,0,0,0,0,0,0,0,0],"sum_hessian":[3.8505112E3,1.3332703E3,2.517241E3,5.769447E2,7.563255E2,6.8449274E2,1.8327482E3,1.9898874E2,3.77956E2,5.6737885E2,1.8894669E2,3.948025E1,6.450125E2,6.9885175E2,1.1338964E3],"tree_param":{"num_deleted":"0","num_feature":"106","num_nodes":"15","size_leaf_vector":"1"}},{"base_weights":[1.3750707E-1,-1.8158835E-1,2.7778554E-1,4.849576E-2,-3.2589045E-1,4.381144E-1,1.0752741E-1,-1.0073807E-3,2.5860162E-3,-1.616918E-5,-3.620399E-3,3.5681943E-3,6.2902356E-3,2.7201262E-3,-2.9710223E-4],"categories":[],"categories_nodes":[],"categories_segments":[],"categories_sizes":[],"default_left":[0,0,0,0,0,0,0,0,0,0,0,0,0,0,0],"id":11,"left_children":[1,3,5,7,9,11,13,-1,-1,-1,-1,-1,-1,-1,-1],"loss_changes":[1.7526343E2,3.971833E1,7.4184235E1,1.4459466E1,8.578598E0,2.1613312E1,2.981076E1,0E0,0E0,0E0,0E0,0E0,0E0,0E0,0E0],"parents":[2147483647,0,0,1,1,2,2,3,3,4,4,5,5,6,6],"right_children":[2,4,6,8,10,12,14,-1,-1,-1,-1,-1,-1,-1,-1],"split_conditions":[-2E0,-1.2E0,5.25E-1,-4.6E0,5E0,2.6E1,9E0,-1.0073807E-3,2.5860162E-3,-1.616918E-5,-3.620399E-3,3.5681943E-3,6.2902356E-3,2.7201262E-3,-2.9710223E-4],"split_indices":[25,77,55,25,53,103,29,0,0,0,0,0,0,0,0],"split_type":[0,0,0,0,0,0,0,0,0,0,0,0,0,0,0],"sum_hessian":[3.9150051E3,1.1952938E3,2.7197112E3,4.6046832E2,7.348255E2,1.4003156E3,1.3193956E3,2.689879E2,1.9148041E2,7.398895E1,6.6083655E2,9.826737E2,4.176418E2,6.0040955E2,7.1898615E2],"tree_param":{"num_deleted":"0","num_feature":"106","num_nodes":"15","size_leaf_vector":"1"}},{"base_weights":[-1.3153379E-1,1.6021508E-1,-2.7558643E-1,-7.3795766E-2,3.146017E-1,-4.2843178E-1,-4.131655E-2,6.4251E-4,-2.4142743E-3,2.3490768E-3,4.774016E-3,-5.6793857E-3,-3.113594E-3,-1.5788749E-3,1.5825728E-3],"categories":[],"categories_nodes":[],"categories_segments":[],"categories_sizes":[],"default_left":[0,0,0,0,0,0,0,0,0,0,0,0,0,0,0],"id":12,"left_children":[1,3,5,7,9,11,13,-1,-1,-1,-1,-1,-1,-1,-1],"loss_changes":[1.6243765E2,4.6172523E1,9.260167E1,1.17643E1,9.905708E0,2.5464355E1,2.3778606E1,0E0,0E0,0E0,0E0,0E0,0E0,0E0,0E0],"parents":[2147483647,0,0,1,1,2,2,3,3,4,4,5,5,6,6],"right_children":[2,4,6,8,10,12,14,-1,-1,-1,-1,-1,-1,-1,-1],"split_conditions":[-1.6E0,-1.2E0,5.67E-1,-4.6E0,3.5E1,-2.4E0,6E0,6.4251E-4,-2.4142743E-3,2.3490768E-3,4.774016E-3,-5.6793857E-3,-3.113594E-3,-1.5788749E-3,1.5825728E-3],"split_indices":[25,77,55,25,2,77,77,0,0,0,0,0,0,0,0],"split_type":[0,0,0,0,0,0,0,0,0,0,0,0,0,0,0],"sum_hessian":[3.8645808E3,1.2771903E3,2.5873904E3,5.074419E2,7.697484E2,1.5654983E3,1.02189215E3,2.7798386E2,2.2945805E2,5.173521E2,2.5239627E2,7.137428E2,8.5175555E2,6.45423E2,3.7646915E2],"tree_param":{"num_deleted":"0","num_feature":"106","num_nodes":"15","size_leaf_vector":"1"}},{"base_weights":[1.3647233E-1,2.615129E-1,-2.088853E-1,1.2534584E-1,4.905555E-1,-2.1845723E-2,-4.0818527E-1,3.2250043E-3,1.7535762E-4,5.0390903E-3,-3.4149913E-3,-2.3285518E-3,8.3264365E-4,-2.2900123E-3,-4.8086513E-3],"categories":[],"categories_nodes":[],"categories_segments":[],"categories_sizes":[],"default_left":[0,0,0,0,0,0,0,0,0,0,0,0,0,0,0],"id":13,"left_children":[1,3,5,7,9,11,13,-1,-1,-1,-1,-1,-1,-1,-1],"loss_changes":[1.6636258E2,8.814656E1,3.812126E1,3.7678387E1,1.1747345E1,1.1739131E1,6.3696747E0,0E0,0E0,0E0,0E0,0E0,0E0,0E0,0E0],"parents":[2147483647,0,0,1,1,2,2,3,3,4,4,5,5,6,6],"right_children":[2,4,6,8,10,12,14,-1,-1,-1,-1,-1,-1,-1,-1],"split_conditions":[2.1E1,1.7E1,4E-1,7E0,4.87E-1,-7.3E0,5.69E-1,3.2250043E-3,1.7535762E-4,5.0390903E-3,-3.4149913E-3,-2.3285518E-3,8.3264365E-4,-2.2900123E-3,-4.8086513E-3],"split_indices":[28,80,77,27,59,25,55,0,0,0,0,0,0,0,0],"split_type":[0,0,0,0,0,0,0,0,0,0,0,0,0,0,0],"sum_hessian":[3.852089E3,2.8283628E3,1.0237264E3,1.774189E3,1.0541738E3,5.2842316E2,4.9530325E2,6.2680695E2,1.1473821E3,1.0376798E3,1.6493975E1,1.7597719E2,3.5244595E2,1.4344545E2,3.518578E2],"tree_param":{"num_deleted":"0","num_feature":"106","num_nodes":"15","size_leaf_vector":"1"}},{"base_weights":[-1.3262744E-1,1.5682937E-1,-2.668199E-1,-1.3515577E-1,2.55838E-1,-4.3204388E-1,-9.283705E-2,7.102298E-4,-2.7725413E-3,9.634663E-4,3.2395336E-3,-3.4130989E-3,-5.6727794E-3,-2.9276558E-3,2.0074726E-4],"categories":[],"categories_nodes":[],"categories_segments":[],"categories_sizes":[],"default_left":[0,0,0,0,0,0,0,0,0,0,0,0,0,0,0],"id":14,"left_children":[1,3,5,7,9,11,13,-1,-1,-1,-1,-1,-1,-1,-1],"loss_changes":[1.5003503E2,3.537703E1,7.5808014E1,9.091736E0,9.881626E0,1.649533E1,2.9056332E1,0E0,0E0,0E0,0E0,0E0,0E0,0E0,0E0],"parents":[2147483647,0,0,1,1,2,2,3,3,4,4,5,5,6,6],"right_children":[2,4,6,8,10,12,14,-1,-1,-1,-1,-1,-1,-1,-1],"split_conditions":[-1.8E0,-3.4E0,5.25E-1,-6.2E0,2.2E1,2.3E1,7E0,7.102298E-4,-2.7725413E-3,9.634663E-4,3.2395336E-3,-3.4130989E-3,-5.6727794E-3,-2.9276558E-3,2.0074726E-4],"split_indices":[25,77,55,25,28,80,27,0,0,0,0,0,0,0,0],"split_type":[0,0,0,0,0,0,0,0,0,0,0,0,0,0,0],"sum_hessian":[3.8621184E3,1.2230988E3,2.6390195E3,3.0945172E2,9.13647E2,1.3532108E3,1.2858088E3,1.25990746E2,1.8346098E2,2.7393677E2,6.397102E2,8.105034E2,5.427074E2,4.6434225E2,8.2146655E2],"tree_param":{"num_deleted":"0","num_feature":"106","num_nodes":"15","size_leaf_vector":"1"}},{"base_weights":[1.3773382E-1,2.563277E-1,-1.8983647E-1,5.2642685E-1,1.572041E-1,-2.894666E-1,1.6296186E-1,3.801963E-3,5.8856765E-3,3.1951873E-3,3.5067907E-4,-1.7059115E-3,-4.633927E-3,-8.464691E-4,3.4325318E-3],"categories":[],"categories_nodes":[],"categories_segments":[],"categories_sizes":[],"default_left":[0,0,0,0,0,0,0,0,0,0,0,0,0,0,0],"id":15,"left_children":[1,3,5,7,9,11,13,-1,-1,-1,-1,-1,-1,-1,-1],"loss_changes":[1.5016653E2,7.590767E1,3.6124035E1,6.8014526E0,4.1130226E1,1.6495659E1,1.0120138E1,0E0,0E0,0E0,0E0,0E0,0E0,0E0,0E0],"parents":[2147483647,0,0,1,1,2,2,3,3,4,4,5,5,6,6],"right_children":[2,4,6,8,10,12,14,-1,-1,-1,-1,-1,-1,-1,-1],"split_conditions":[2.2E1,-2.5E0,2.4E1,-1E-1,9E0,2.3E0,-6.4E0,3.801963E-3,5.8856765E-3,3.1951873E-3,3.5067907E-4,-1.7059115E-3,-4.633927E-3,-8.464691E-4,3.4325318E-3],"split_indices":[29,77,81,25,29,77,25,0,0,0,0,0,0,0,0],"split_type":[0,0,0,0,0,0,0,0,0,0,0,0,0,0,0],"sum_hessian":[3.8651106E3,2.8379746E3,1.027136E3,7.615117E2,2.076463E3,8.011835E2,2.259525E2,2.2779129E2,5.3372046E2,8.911612E2,1.1853018E3,4.7636765E2,3.2481583E2,9.499144E1,1.3096106E2],"tree_param":{"num_deleted":"0","num_feature":"106","num_nodes":"15","size_leaf_vector":"1"}},{"base_weights":[-1.322984E-1,-2.7359444E-1,1.7532091E-1,-3.8926038E-1,-3.1358067E-2,4.6396703E-3,3.581689E-1,-5.4806005E-3,-2.8509928E-3,-1.7922107E-3,8.3168846E-4,1.8520332E-3,-1.1470775E-3,2.207253E-3,4.49442E-3],"categories":[],"categories_nodes":[],"categories_segments":[],"categories_sizes":[],"default_left":[0,0,0,0,0,0,0,0,0,0,0,0,0,0,0],"id":16,"left_children":[1,3,5,7,9,11,13,-1,-1,-1,-1,-1,-1,-1,-1],"loss_changes":[1.6879869E2,7.45199E1,3.8102768E1,2.9688965E1,1.4581904E1,1.36383E1,7.32106E0,0E0,0E0,0E0,0E0,0E0,0E0,0E0,0E0],"parents":[2147483647,0,0,1,1,2,2,3,3,4,4,5,5,6,6],"right_children":[2,4,6,8,10,12,14,-1,-1,-1,-1,-1,-1,-1,-1],"split_conditions":[2.1E1,2.9E0,4E-1,-2.5E0,9E0,-6.4E0,1.8E1,-5.4806005E-3,-2.8509928E-3,-1.7922107E-3,8.3168846E-4,1.8520332E-3,-1.1470775E-3,2.207253E-3,4.49442E-3],"split_indices":[51,77,77,77,51,25,47,0,0,0,0,0,0,0,0],"split_type":[0,0,0,0,0,0,0,0,0,0,0,0,0,0,0],"sum_hessian":[3.883082E3,2.6611128E3,1.2219692E3,1.8007808E3,8.60332E2,6.3234766E2,5.896216E2,7.127561E2,1.0880247E3,3.7587073E2,4.844612E2,2.5194962E2,3.8039804E2,2.358716E2,3.5375E2],"tree_param":{"num_deleted":"0","num_feature":"106","num_nodes":"15","size_leaf_vector":"1"}},{"base_weights":[1.3394265E-1,2.5277466E-1,-2.2056529E-1,4.134391E-1,7.9318404E-2,-3.144781E-1,1.2776895E-1,3.5271263E-3,5.8907643E-3,2.041217E-3,-1.3480075E-3,-1.7737438E-3,-4.07829E-3,7.3288092E-3,6.10938E-4],"categories":[],"categories_nodes":[],"categories_segments":[],"categories_sizes":[],"default_left":[0,0,0,0,0,0,0,0,0,0,0,0,0,0,0],"id":17,"left_children":[1,3,5,7,9,11,13,-1,-1,-1,-1,-1,-1,-1,-1],"loss_changes":[1.6140521E2,7.991908E1,3.1481655E1,1.5770996E1,3.689533E1,9.631943E0,8.149034E0,0E0,0E0,0E0,0E0,0E0,0E0,0E0,0E0],"parents":[2147483647,0,0,1,1,2,2,3,3,4,4,5,5,6,6],"right_children":[2,4,6,8,10,12,14,-1,-1,-1,-1,-1,-1,-1,-1],"split_conditions":[2.3E1,5.25E-1,2.4E1,3.3E1,1.4E1,6E-1,8.2E1,3.5271263E-3,5.8907643E-3,2.041217E-3,-1.3480075E-3,-1.7737438E-3,-4.07829E-3,7.3288092E-3,6.10938E-4],"split_indices":[51,55,81,1,51,77,6,0,0,0,0,0,0,0,0],"split_type":[0,0,0,0,0,0,0,0,0,0,0,0,0,0,0],"sum_hessian":[3.8310967E3,2.8695327E3,9.615642E2,1.4893253E3,1.3802073E3,7.576062E2,2.0395798E2,1.1073353E3,3.8198996E2,8.7226385E2,5.0794342E2,3.0743704E2,4.5016916E2,1.9994884E1,1.8396309E2],"tree_param":{"num_deleted":"0","num_feature":"106","num_nodes":"15","size_leaf_vector":"1"}},{"base_weights":[-1.3109764E-1,-2.6383537E-1,2.2763816E-1,-1.5527205E-1,-5.322054E-1,5.9564903E-2,4.106192E-1,-3.465544E-3,-5.311649E-4,-6.181662E-3,-4.0358067E-3,1.8587401E-3,-1.1212257E-3,5.4586073E-3,3.312393E-3],"categories":[],"categories_nodes":[],"categories_segments":[],"categories_sizes":[],"default_left":[0,0,0,0,0,0,0,0,0,0,0,0,0,0,0],"id":18,"left_children":[1,3,5,7,9,11,13,-1,-1,-1,-1,-1,-1,-1,-1],"loss_changes":[1.82865E2,8.159419E1,3.184203E1,3.8965557E1,8.79628E0,1.173946E1,5.220825E0,0E0,0E0,0E0,0E0,0E0,0E0,0E0,0E0],"parents":[2147483647,0,0,1,1,2,2,3,3,4,4,5,5,6,6],"right_children":[2,4,6,8,10,12,14,-1,-1,-1,-1,-1,-1,-1,-1],"split_conditions":[2.1E1,2E1,5.14E-1,7E0,4.39E1,-4.9E0,-7.1E0,-3.465544E-3,-5.311649E-4,-6.181662E-3,-4.0358067E-3,1.8587401E-3,-1.1212257E-3,5.4586073E-3,3.312393E-3],"split_indices":[28,80,55,27,68,25,25,0,0,0,0,0,0,0,0],"split_type":[0,0,0,0,0,0,0,0,0,0,0,0,0,0,0],"sum_hessian":[3.8399653E3,2.803086E3,1.0368794E3,1.9961262E3,8.069596E2,5.4080963E2,4.9606982E2,6.9449426E2,1.301632E3,4.8300558E2,3.2395398E2,3.1191235E2,2.2889726E2,1.8279309E2,3.1327673E2],"tree_param":{"num_deleted":"0","num_feature":"106","num_nodes":"15","size_leaf_vector":"1"}},{"base_weights":[1.3419178E-1,2.552973E-1,-1.9857727E-1,8.694335E-2,4.3425792E-1,1.3563041E-2,-3.3404177E-1,2.5914635E-3,-4.62144E-4,3.4138071E-3,5.590265E-3,9.206476E-4,-1.7435972E-3,-4.7662165E-3,-2.475113E-3],"categories":[],"categories_nodes":[],"categories_segments":[],"categories_sizes":[],"default_left":[0,0,0,0,0,0,0,0,0,0,0,0,0,0,0],"id":19,"left_children":[1,3,5,7,9,11,13,-1,-1,-1,-1,-1,-1,-1,-1],"loss_changes":[1.5454462E2,8.4656204E1,2.9430916E1,3.3252472E1,1.5680786E1,5.8718524E0,7.62204E0,0E0,0E0,0E0,0E0,0E0,0E0,0E0,0E0],"parents":[2147483647,0,0,1,1,2,2,3,3,4,4,5,5,6,6],"right_children":[2,4,6,8,10,12,14,-1,-1,-1,-1,-1,-1,-1,-1],"split_conditions":[2.2E1,1.4E1,4.62E-1,9E0,2.3E1,2.7E1,8E0,2.5914635E-3,-4.62144E-4,3.4138071E-3,5.590265E-3,9.206476E-4,-1.7435972E-3,-4.7662165E-3,-2.475113E-3],"split_indices":[29,80,55,29,80,47,103,0,0,0,0,0,0,0,0],"split_type":[0,0,0,0,0,0,0,0,0,0,0,0,0,0,0],"sum_hessian":[3.8344707E3,2.8115718E3,1.022899E3,1.4490817E3,1.3624901E3,3.983797E2,6.245193E2,6.321829E2,8.168988E2,7.8174084E2,5.8074927E2,2.814088E2,1.1697089E2,2.3526193E2,3.8925735E2],"tree_param":{"num_deleted":"0","num_feature":"106","num_nodes":"15","size_leaf_vector":"1"}},{"base_weights":[-1.2449295E-1,1.5920484E-1,-2.6430374E-1,2.5237522E-1,-1.953346E-1,-2.181462E-2,-3.7017924E-1,-1.5281264E-3,2.895864E-3,-6.305221E-5,-3.3347846E-3,-1.460046E-3,1.197142E-3,-5.2955667E-3,-2.7097447E-3],"categories":[],"categories_nodes":[],"categories_segments":[],"categories_sizes":[],"default_left":[0,0,0,0,0,0,0,0,0,0,0,0,0,0,0],"id":20,"left_children":[1,3,5,7,9,11,13,-1,-1,-1,-1,-1,-1,-1,-1],"loss_changes":[1.5283707E2,4.2020554E1,6.623012E1,1.5206863E1,6.8726215E0,1.3799974E1,2.8309433E1,0E0,0E0,0E0,0E0,0E0,0E0,0E0,0E0],"parents":[2147483647,0,0,1,1,2,2,3,3,4,4,5,5,6,6],"right_children":[2,4,6,8,10,12,14,-1,-1,-1,-1,-1,-1,-1,-1],"split_conditions":[-1.6E0,2.4E1,9E0,1.1E1,-5.6E0,6E0,-2.4E0,-1.5281264E-3,2.895864E-3,-6.305221E-5,-3.3347846E-3,-1.460046E-3,1.197142E-3,-5.2955667E-3,-2.7097447E-3],"split_indices":[25,81,103,33,25,77,77,0,0,0,0,0,0,0,0],"split_type":[0,0,0,0,0,0,0,0,0,0,0,0,0,0,0],"sum_hessian":[3.8528223E3,1.2716725E3,2.58115E3,1.007278E3,2.6439447E2,7.8479065E2,1.7963593E3,8.447222E1,9.228058E2,1.119863E2,1.5240816E2,4.183748E2,3.6641583E2,6.8861786E2,1.1077415E3],"tree_param":{"num_deleted":"0","num_feature":"106","num_nodes":"15","size_leaf_vector":"1"}},{"base_weights":[1.2575436E-1,2.6311946E-1,-1.722859E-1,3.929295E-1,7.347315E-2,1.0855618E-1,-3.0067375E-1,3.0222286E-3,5.33399E-3,1.482806E-3,-1.9323471E-3,1.6325068E-5,3.9114235E-3,-2.0020592E-3,-4.4522164E-3],"categories":[],"categories_nodes":[],"categories_segments":[],"categories_sizes":[],"default_left":[0,0,0,0,0,0,0,0,0,0,0,0,0,0,0],"id":21,"left_children":[1,3,5,7,9,11,13,-1,-1,-1,-1,-1,-1,-1,-1],"loss_changes":[1.5871391E2,6.5279205E1,4.4111958E1,1.9968735E1,2.1521465E1,1.1546744E1,1.2117081E1,0E0,0E0,0E0,0E0,0E0,0E0,0E0,0E0],"parents":[2147483647,0,0,1,1,2,2,3,3,4,4,5,5,6,6],"right_children":[2,4,6,8,10,12,14,-1,-1,-1,-1,-1,-1,-1,-1],"split_conditions":[2.1E1,1.7E0,-2E0,2.2E1,7.5E0,3.95E-1,3.1E0,3.0222286E-3,5.33399E-3,1.482806E-3,-1.9323471E-3,1.6325068E-5,3.9114235E-3,-2.0020592E-3,-4.4522164E-3],"split_indices":[51,77,77,80,77,3,77,0,0,0,0,0,0,0,0],"split_type":[0,0,0,0,0,0,0,0,0,0,0,0,0,0,0],"sum_hessian":[3.8762808E3,2.6535989E3,1.2226818E3,1.5749409E3,1.078658E3,3.8335284E2,8.393289E2,9.576051E2,6.173359E2,8.4271E2,2.3594789E2,2.7844904E2,1.04903824E2,4.95714E2,3.4361493E2],"tree_param":{"num_deleted":"0","num_feature":"106","num_nodes":"15","size_leaf_vector":"1"}},{"base_weights":[-1.3161299E-1,-2.551722E-1,2.0195003E-1,-6.701132E-2,-3.916697E-1,2.905873E-1,-1.3062565E-1,-2.8651922E-3,4.8635426E-4,-3.2200275E-3,-5.814269E-3,1.8439057E-3,4.2215437E-3,4.105519E-4,-3.3008147E-3],"categories":[],"categories_nodes":[],"categories_segments":[],"categories_sizes":[],"default_left":[0,0,0,0,0,0,0,0,0,0,0,0,0,0,0],"id":22,"left_children":[1,3,5,7,9,11,13,-1,-1,-1,-1,-1,-1,-1,-1],"loss_changes":[1.5955989E2,7.250897E1,3.0860504E1,3.0187628E1,2.1531494E1,1.1476875E1,7.563263E0,0E0,0E0,0E0,0E0,0E0,0E0,0E0,0E0],"parents":[2147483647,0,0,1,1,2,2,3,3,4,4,5,5,6,6],"right_children":[2,4,6,8,10,12,14,-1,-1,-1,-1,-1,-1,-1,-1],"split_conditions":[2.1E1,1.1E1,2.4E1,7E0,2.6E1,1.9E0,1.9E1,-2.8651922E-3,4.8635426E-4,-3.2200275E-3,-5.814269E-3,1.8439057E-3,4.2215437E-3,4.105519E-4,-3.3008147E-3],"split_indices":[28,80,81,27,103,77,35,0,0,0,0,0,0,0,0],"split_type":[0,0,0,0,0,0,0,0,0,0,0,0,0,0,0],"sum_hessian":[3.8710698E3,2.8249634E3,1.0461063E3,1.1880819E3,1.6368813E3,8.26218E2,2.1988837E2,4.1020087E2,7.778811E2,1.1978885E3,4.3899277E2,4.577428E2,3.6847522E2,1.1794537E2,1.0194299E2],"tree_param":{"num_deleted":"0","num_feature":"106","num_nodes":"15","size_leaf_vector":"1"}},{"base_weights":[1.292972E-1,2.592779E-1,-1.5905154E-1,3.6386758E-1,-2.6726447E-2,7.586496E-2,-2.8824824E-1,3.0312792E-3,5.883423E-3,8.2152366E-4,-2.492127E-3,3.3667828E-3,-3.5892788E-4,-1.9623323E-3,-4.215316E-3],"categories":[],"categories_nodes":[],"categories_segments":[],"categories_sizes":[],"default_left":[0,0,0,0,0,0,0,0,0,0,0,0,0,0,0],"id":23,"left_children":[1,3,5,7,9,11,13,-1,-1,-1,-1,-1,-1,-1,-1],"loss_changes":[1.4540518E2,8.002669E1,3.6599937E1,2.6594208E1,1.7360634E1,1.2489655E1,9.4691925E0,0E0,0E0,0E0,0E0,0E0,0E0,0E0,0E0],"parents":[2147483647,0,0,1,1,2,2,3,3,4,4,5,5,6,6],"right_children":[2,4,6,8,10,12,14,-1,-1,-1,-1,-1,-1,-1,-1],"split_conditions":[2.1E1,3.8E0,-1.4E0,2.6E1,7.5E0,2.2E1,2.7E1,3.0312792E-3,5.883423E-3,8.2152366E-4,-2.492127E-3,3.3667828E-3,-3.5892788E-4,-1.9623323E-3,-4.215316E-3],"split_indices":[51,77,77,103,77,28,51,0,0,0,0,0,0,0,0],"split_type":[0,0,0,0,0,0,0,0,0,0,0,0,0,0,0],"sum_hessian":[3.8790862E3,2.6740466E3,1.2050394E3,1.9582511E3,7.1579553E2,4.2731894E2,7.777205E2,1.5417546E3,4.1649646E2,4.803424E2,2.3545311E2,1.2838815E2,2.989308E2,4.6067865E2,3.1704187E2],"tree_param":{"num_deleted":"0","num_feature":"106","num_nodes":"15","size_leaf_vector":"1"}},{"base_weights":[-1.3652611E-1,1.4608516E-1,-2.7650115E-1,-6.370085E-2,2.8172266E-1,-8.221173E-2,-4.184114E-1,1.3073025E-3,-1.6437238E-3,-1.0641883E-3,3.233899E-3,1.0641573E-3,-1.939239E-3,-3.3501505E-3,-5.71001E-3],"categories":[],"categories_nodes":[],"categories_segments":[],"categories_sizes":[],"default_left":[0,0,0,0,0,0,0,0,0,0,0,0,0,0,0],"id":24,"left_children":[1,3,5,7,9,11,13,-1,-1,-1,-1,-1,-1,-1,-1],"loss_changes":[1.5152486E2,3.611698E1,7.057463E1,9.750705E0,1.2489044E1,2.2804062E1,1.8724335E1,0E0,0E0,0E0,0E0,0E0,0E0,0E0,0E0],"parents":[2147483647,0,0,1,1,2,2,3,3,4,4,5,5,6,6],"right_children":[2,4,6,8,10,12,14,-1,-1,-1,-1,-1,-1,-1,-1],"split_conditions":[-1.6E0,-1.2E0,1.1E1,-6.6E0,5E0,1.4E0,2.3E1,1.3073025E-3,-1.6437238E-3,-1.0641883E-3,3.233899E-3,1.0641573E-3,-1.939239E-3,-3.3501505E-3,-5.71001E-3],"split_indices":[25,77,80,25,53,25,80,0,0,0,0,0,0,0,0],"split_type":[0,0,0,0,0,0,0,0,0,0,0,0,0,0,0],"sum_hessian":[3.8298652E3,1.2683442E3,2.5615208E3,4.9777225E2,7.70572E2,1.081585E3,1.4799359E3,1.6946136E2,3.2831088E2,7.4454346E1,6.961177E2,4.0196735E2,6.7961755E2,9.5756366E2,5.2237225E2],"tree_param":{"num_deleted":"0","num_feature":"106","num_nodes":"15","size_leaf_vector":"1"}},{"base_weights":[1.3089041E-1,-1.467807E-1,2.663901E-1,2.0101601E-2,-3.3581746E-1,4.343099E-3,3.616605E-1,-1.4435347E-3,1.5879818E-3,-3.5129797E-3,6.544009E-3,8.852279E-4,-2.1118782E-3,2.8751772E-3,5.538653E-3],"categories":[],"categories_nodes":[],"categories_segments":[],"categories_sizes":[],"default_left":[0,0,0,0,0,0,0,0,0,0,0,0,0,0,0],"id":25,"left_children":[1,3,5,7,9,11,13,-1,-1,-1,-1,-1,-1,-1,-1],"loss_changes":[1.4561821E2,4.0063934E1,6.489905E1,1.5372365E1,9.117653E0,1.25790415E1,2.7079422E1,0E0,0E0,0E0,0E0,0E0,0E0,0E0,0E0],"parents":[2147483647,0,0,1,1,2,2,3,3,4,4,5,5,6,6],"right_children":[2,4,6,8,10,12,14,-1,-1,-1,-1,-1,-1,-1,-1],"split_conditions":[-1.6E0,4E-1,8E0,-5.6E0,4.8E-1,1.4E1,2.3E1,-1.4435347E-3,1.5879818E-3,-3.5129797E-3,6.544009E-3,8.852279E-4,-2.1118782E-3,2.8751772E-3,5.538653E-3],"split_indices":[25,77,103,25,7,51,80,0,0,0,0,0,0,0,0],"split_type":[0,0,0,0,0,0,0,0,0,0,0,0,0,0,0],"sum_hessian":[3.8697976E3,1.2688582E3,2.6009392E3,6.736861E2,5.9517206E2,6.937881E2,1.9071512E3,3.078901E2,3.6579602E2,5.8617365E2,8.9984E0,4.9929993E2,1.9448816E2,1.3768159E3,5.303353E2],"tree_param":{"num_deleted":"0","num_feature":"106","num_nodes":"15","size_leaf_vector":"1"}},{"base_weights":[-1.2479306E-1,-2.5549945E-1,1.5642454E-1,-1.0195147E-1,-4.2077196E-1,2.655295E-1,-1.16896756E-1,-2.778593E-3,3.2847127E-4,-3.4763862E-3,-5.724058E-3,4.4093933E-3,1.7804777E-3,1.0158474E-3,-2.7985277E-3],"categories":[],"categories_nodes":[],"categories_segments":[],"categories_sizes":[],"default_left":[0,0,0,0,0,0,0,0,0,0,0,0,0,0,0],"id":26,"left_children":[1,3,5,7,9,11,13,-1,-1,-1,-1,-1,-1,-1,-1],"loss_changes":[1.4197021E2,6.685971E1,3.655634E1,3.2448444E1,1.3967316E1,1.337252E1,1.2459348E1,0E0,0E0,0E0,0E0,0E0,0E0,0E0,0E0],"parents":[2147483647,0,0,1,1,2,2,3,3,4,4,5,5,6,6],"right_children":[2,4,6,8,10,12,14,-1,-1,-1,-1,-1,-1,-1,-1],"split_conditions":[2.1E1,1.4E1,2.2E1,9E0,2.6E1,8E0,-6.2E0,-2.778593E-3,3.2847127E-4,-3.4763862E-3,-5.724058E-3,4.4093933E-3,1.7804777E-3,1.0158474E-3,-2.7985277E-3],"split_indices":[51,80,103,51,103,103,25,0,0,0,0,0,0,0,0],"split_type":[0,0,0,0,0,0,0,0,0,0,0,0,0,0,0],"sum_hessian":[3.8619277E3,2.63676E3,1.225168E3,1.3672606E3,1.2694994E3,8.75895E2,3.492729E2,5.934557E2,7.738049E2,8.571047E2,4.1239465E2,2.9095444E2,5.849406E2,1.4896872E2,2.0030418E2],"tree_param":{"num_deleted":"0","num_feature":"106","num_nodes":"15","size_leaf_vector":"1"}},{"base_weights":[1.4110914E-1,-4.808437E-2,3.3672854E-1,1.0676803E-1,-2.6706362E-1,4.4476852E-1,1.1920986E-1,-1.2630951E-3,2.2018193E-3,-1.1900354E-3,-3.6908458E-3,3.7482642E-3,6.4219222E-3,2.2671428E-3,-5.9868078E-5],"categories":[],"categories_nodes":[],"categories_segments":[],"categories_sizes":[],"default_left":[0,0,0,0,0,0,0,0,0,0,0,0,0,0,0],"id":27,"left_children":[1,3,5,7,9,11,13,-1,-1,-1,-1,-1,-1,-1,-1],"loss_changes":[1.4344662E2,6.6810974E1,4.471785E1,3.0506845E1,1.2275887E1,1.7448853E1,8.539028E0,0E0,0E0,0E0,0E0,0E0,0E0,0E0,0E0],"parents":[2147483647,0,0,1,1,2,2,3,3,4,4,5,5,6,6],"right_children":[2,4,6,8,10,12,14,-1,-1,-1,-1,-1,-1,-1,-1],"split_conditions":[5E-1,5.45E-1,2.9E0,-5.1E0,2E1,2.4E1,6E0,-1.2630951E-3,2.2018193E-3,-1.1900354E-3,-3.6908458E-3,3.7482642E-3,6.4219222E-3,2.2671428E-3,-5.9868078E-5],"split_indices":[25,55,77,25,27,79,77,0,0,0,0,0,0,0,0],"split_type":[0,0,0,0,0,0,0,0,0,0,0,0,0,0,0],"sum_hessian":[3.8749731E3,1.9696185E3,1.9053545E3,1.1535054E3,8.1611316E2,1.2726661E3,6.326883E2,3.7727417E2,7.762312E2,3.3342294E2,4.8269025E2,9.403286E2,3.3233752E2,3.407819E2,2.919064E2],"tree_param":{"num_deleted":"0","num_feature":"106","num_nodes":"15","size_leaf_vector":"1"}},{"base_weights":[-1.27594E-1,-2.4351649E-1,1.8496841E-1,-1.1927905E-1,-4.463268E-1,4.87211E-2,4.3329883E-1,4.1399704E-4,-2.4916353E-3,-3.3398499E-3,-5.425177E-3,2.3444367E-3,-8.563458E-4,4.620766E-3,-3.9406298E-4],"categories":[],"categories_nodes":[],"categories_segments":[],"categories_sizes":[],"default_left":[0,0,0,0,0,0,0,0,0,0,0,0,0,0,0],"id":28,"left_children":[1,3,5,7,9,11,13,-1,-1,-1,-1,-1,-1,-1,-1],"loss_changes":[1.3954811E2,7.072841E1,3.519519E1,3.639119E1,1.1423691E1,1.681084E1,5.0607758E0,0E0,0E0,0E0,0E0,0E0,0E0,0E0,0E0],"parents":[2147483647,0,0,1,1,2,2,3,3,4,4,5,5,6,6],"right_children":[2,4,6,8,10,12,14,-1,-1,-1,-1,-1,-1,-1,-1],"split_conditions":[2.1E1,1.7E1,5.69E-1,5.63E-1,2.3E1,-6.4E0,2.8E1,4.1399704E-4,-2.4916353E-3,-3.3398499E-3,-5.425177E-3,2.3444367E-3,-8.563458E-4,4.620766E-3,-3.9406298E-4],"split_indices":[28,80,55,3,80,25,32,0,0,0,0,0,0,0,0],"split_type":[0,0,0,0,0,0,0,0,0,0,0,0,0,0,0],"sum_hessian":[3.8510215E3,2.8094138E3,1.0416075E3,1.7425903E3,1.0668235E3,6.729265E2,3.686811E2,7.786405E2,9.639498E2,4.927848E2,5.740387E2,2.8274802E2,3.901785E2,3.477257E2,2.0955381E1],"tree_param":{"num_deleted":"0","num_feature":"106","num_nodes":"15","size_leaf_vector":"1"}},{"base_weights":[1.3108309E-1,-1.43734E-1,2.636207E-1,-2.4956521E-1,1.2206293E-1,4.5686716E-1,1.4215732E-1,-7.6305E-4,-3.341606E-3,-9.1587164E-4,2.479731E-3,3.7460763E-3,5.5822143E-3,3.0788332E-3,1.699016E-4],"categories":[],"categories_nodes":[],"categories_segments":[],"categories_sizes":[],"default_left":[0,0,0,0,0,0,0,0,0,0,0,0,0,0,0],"id":29,"left_children":[1,3,5,7,9,11,13,-1,-1,-1,-1,-1,-1,-1,-1],"loss_changes":[1.4036224E2,3.5276115E1,6.0956573E1,1.310125E1,9.615138E0,8.248444E0,3.309113E1,0E0,0E0,0E0,0E0,0E0,0E0,0E0,0E0],"parents":[2147483647,0,0,1,1,2,2,3,3,4,4,5,5,6,6],"right_children":[2,4,6,8,10,12,14,-1,-1,-1,-1,-1,-1,-1,-1],"split_conditions":[4.38E-1,2.2E1,4.78E-1,1.7E1,-6.2E0,2.6E1,9E0,-7.6305E-4,-3.341606E-3,-9.1587164E-4,2.479731E-3,3.7460763E-3,5.5822143E-3,3.0788332E-3,1.699016E-4],"split_indices":[3,103,55,47,25,1,51,0,0,0,0,0,0,0,0],"split_type":[0,0,0,0,0,0,0,0,0,0,0,0,0,0,0],"sum_hessian":[3.8530735E3,1.2533943E3,2.5996792E3,8.967297E2,3.5666467E2,1.0029312E3,1.5967479E3,2.9464273E2,6.020869E2,1.3196817E2,2.2469652E2,5.54419E2,4.485122E2,6.866511E2,9.100968E2],"tree_param":{"num_deleted":"0","num_feature":"106","num_nodes":"15","size_leaf_vector":"1"}},{"base_weights":[-1.2872402E-1,1.42329E-1,-2.618255E-1,-2.2905372E-2,3.2495815E-1,-6.6879354E-2,-4.012203E-1,1.0872225E-3,-1.6214981E-3,3.4334038E-3,-7.0209694E-3,-2.3627803E-3,6.988895E-4,-3.2955667E-3,-5.9643215E-3],"categories":[],"categories_nodes":[],"categories_segments":[],"categories_sizes":[],"default_left":[0,0,0,0,0,0,0,0,0,0,0,0,0,0,0],"id":30,"left_children":[1,3,5,7,9,11,13,-1,-1,-1,-1,-1,-1,-1,-1],"loss_changes":[1.398023E2,3.8531967E1,7.057312E1,1.2280426E1,1.1435356E1,2.5131546E1,2.1082123E1,0E0,0E0,0E0,0E0,0E0,0E0,0E0,0E0],"parents":[2147483647,0,0,1,1,2,2,3,3,4,4,5,5,6,6],"right_children":[2,4,6,8,10,12,14,-1,-1,-1,-1,-1,-1,-1,-1],"split_conditions":[-1.6E0,4E-1,1.1E1,-5E0,4.8E-1,9E0,2.6E1,1.0872225E-3,-1.6214981E-3,3.4334038E-3,-7.0209694E-3,-2.3627803E-3,6.988895E-4,-3.2955667E-3,-5.9643215E-3],"split_indices":[25,77,80,25,7,51,103,0,0,0,0,0,0,0,0],"split_type":[0,0,0,0,0,0,0,0,0,0,0,0,0,0,0],"sum_hessian":[3.8745146E3,1.2757563E3,2.5987583E3,6.6953345E2,6.062229E2,1.0838457E3,1.5149125E3,3.4382233E2,3.2571112E2,5.9572455E2,1.0498345E1,4.8446042E2,5.993853E2,1.108687E3,4.062255E2],"tree_param":{"num_deleted":"0","num_feature":"106","num_nodes":"15","size_leaf_vector":"1"}},{"base_weights":[1.3436554E-1,2.4864596E-1,-1.7639543E-1,3.179758E-1,-1.0482639E-1,-3.573848E-2,-4.1421402E-1,2.3794551E-3,5.2661025E-3,-1.4197307E-3,3.128514E-3,1.6566658E-3,-1.1657694E-3,-4.3559955E-3,4.6489537E-3],"categories":[],"categories_nodes":[],"categories_segments":[],"categories_sizes":[],"default_left":[0,0,0,0,0,0,0,0,0,0,0,0,0,0,0],"id":31,"left_children":[1,3,5,7,9,11,13,-1,-1,-1,-1,-1,-1,-1,-1],"loss_changes":[1.3701596E2,6.915193E1,3.4643936E1,3.9291428E1,7.1614437E0,1.0612704E1,7.258026E0,0E0,0E0,0E0,0E0,0E0,0E0,0E0,0E0],"parents":[2147483647,0,0,1,1,2,2,3,3,4,4,5,5,6,6],"right_children":[2,4,6,8,10,12,14,-1,-1,-1,-1,-1,-1,-1,-1],"split_conditions":[2.1E1,5.5E0,1.6E0,2.2E1,3.92E-1,-4.6E0,3.83E-1,2.3794551E-3,5.2661025E-3,-1.4197307E-3,3.128514E-3,1.6566658E-3,-1.1657694E-3,-4.3559955E-3,4.6489537E-3],"split_indices":[28,77,77,80,10,77,10,0,0,0,0,0,0,0,0],"split_type":[0,0,0,0,0,0,0,0,0,0,0,0,0,0,0],"sum_hessian":[3.8576672E3,2.8207104E3,1.0369569E3,2.3584238E3,4.6228665E2,6.5191785E2,3.85039E2,1.7050684E3,6.5335535E2,4.2481097E2,3.747566E1,1.8633397E2,4.655839E2,3.7605515E2,8.983852E0],"tree_param":{"num_deleted":"0","num_feature":"106","num_nodes":"15","size_leaf_vector":"1"}},{"base_weights":[-1.1819421E-1,-2.4764839E-1,1.5475613E-1,-3.4059095E-1,7.5661913E-3,-1.1083396E-2,3.263788E-1,-4.970222E-3,-2.4976374E-3,1.6420995E-3,-1.1425697E-3,1.2052701E-3,-1.8791266E-3,3.3644703E-3,-6.6919806E-3],"categories":[],"categories_nodes":[],"categories_segments":[],"categories_sizes":[],"default_left":[0,0,0,0,0,0,0,0,0,0,0,0,0,0,0],"id":32,"left_children":[1,3,5,7,9,11,13,-1,-1,-1,-1,-1,-1,-1,-1],"loss_changes":[1.374536E2,6.2623306E1,3.5641407E1,2.7399277E1,1.34453E1,1.4812387E1,6.155281E0,0E0,0E0,0E0,0E0,0E0,0E0,0E0,0E0],"parents":[2147483647,0,0,1,1,2,2,3,3,4,4,5,5,6,6],"right_children":[2,4,6,8,10,12,14,-1,-1,-1,-1,-1,-1,-1,-1],"split_conditions":[2.1E1,3.8E0,3E-1,-2.5E0,4E0,3.53E-1,7E0,-4.970222E-3,-2.4976374E-3,1.6420995E-3,-1.1425697E-3,1.2052701E-3,-1.8791266E-3,3.3644703E-3,-6.6919806E-3],"split_indices":[51,77,77,77,103,3,73,0,0,0,0,0,0,0,0],"split_type":[0,0,0,0,0,0,0,0,0,0,0,0,0,0,0],"sum_hessian":[3.88959E3,2.6385576E3,1.2510326E3,1.934442E3,7.041155E2,6.359871E2,6.150455E2,7.1002344E2,1.2244186E3,3.0837894E2,3.9573654E2,3.6430713E2,2.7168E2,6.090528E2,5.992681E0],"tree_param":{"num_deleted":"0","num_feature":"106","num_nodes":"15","size_leaf_vector":"1"}},{"base_weights":[1.3026042E-1,-1.1542644E-1,2.7364624E-1,2.2228302E-2,-3.1719208E-1,5.326601E-2,3.711028E-1,-1.6327784E-3,1.7974888E-3,-3.295497E-3,8.487394E-3,2.1960957E-3,-8.8188634E-4,2.9836223E-3,5.4205987E-3],"categories":[],"categories_nodes":[],"categories_segments":[],"categories_sizes":[],"default_left":[0,0,0,0,0,0,0,0,0,0,0,0,0,0,0],"id":33,"left_children":[1,3,5,7,9,11,13,-1,-1,-1,-1,-1,-1,-1,-1],"loss_changes":[1.3804541E2,4.0129036E1,5.3100204E1,2.5077019E1,8.416733E0,1.7878006E1,2.123143E1,0E0,0E0,0E0,0E0,0E0,0E0,0E0,0E0],"parents":[2147483647,0,0,1,1,2,2,3,3,4,4,5,5,6,6],"right_children":[2,4,6,8,10,12,14,-1,-1,-1,-1,-1,-1,-1,-1],"split_conditions":[4.6E-1,5.45E-1,9E0,-5E0,3E1,9E0,2.3E1,-1.6327784E-3,1.7974888E-3,-3.295497E-3,8.487394E-3,2.1960957E-3,-8.8188634E-4,2.9836223E-3,5.4205987E-3],"split_indices":[3,55,103,25,100,51,80,0,0,0,0,0,0,0,0],"split_type":[0,0,0,0,0,0,0,0,0,0,0,0,0,0,0],"sum_hessian":[3.9179873E3,1.4436548E3,2.4743325E3,8.579269E2,5.8572784E2,7.590531E2,1.7152795E3,3.9367358E2,4.642533E2,5.797407E2,5.987118E0,3.4913712E2,4.0991602E2,1.2038939E3,5.1138556E2],"tree_param":{"num_deleted":"0","num_feature":"106","num_nodes":"15","size_leaf_vector":"1"}},{"base_weights":[-1.2231983E-1,1.397704E-1,-2.6521352E-1,-2.7856559E-2,3.253037E-1,-3.7641168E-1,-5.289787E-2,1.456097E-3,-1.2628633E-3,-6.600401E-4,3.6671015E-3,-3.0088325E-3,-5.4824147E-3,-2.1558942E-3,8.315306E-4],"categories":[],"categories_nodes":[],"categories_segments":[],"categories_sizes":[],"default_left":[0,0,0,0,0,0,0,0,0,0,0,0,0,0,0],"id":34,"left_children":[1,3,5,7,9,11,13,-1,-1,-1,-1,-1,-1,-1,-1],"loss_changes":[1.4531378E2,4.259812E1,5.923883E1,1.2273965E1,1.0563377E1,2.1281555E1,1.9128588E1,0E0,0E0,0E0,0E0,0E0,0E0,0E0,0E0],"parents":[2147483647,0,0,1,1,2,2,3,3,4,4,5,5,6,6],"right_children":[2,4,6,8,10,12,14,-1,-1,-1,-1,-1,-1,-1,-1],"split_conditions":[-1.3E0,4E-1,2.6E0,-6.3E0,1.1E1,2.3E1,9E0,1.456097E-3,-1.2628633E-3,-6.600401E-4,3.6671015E-3,-3.0088325E-3,-5.4824147E-3,-2.1558942E-3,8.315306E-4],"split_indices":[25,77,77,25,33,80,51,0,0,0,0,0,0,0,0],"split_type":[0,0,0,0,0,0,0,0,0,0,0,0,0,0,0],"sum_hessian":[3.879566E3,1.3686118E3,2.510954E3,7.187639E2,6.4984796E2,1.6475292E3,8.6342487E2,2.598164E2,4.589475E2,6.1947197E1,5.8790076E2,1.1450676E3,5.0246155E2,3.9352222E2,4.6990265E2],"tree_param":{"num_deleted":"0","num_feature":"106","num_nodes":"15","size_leaf_vector":"1"}},{"base_weights":[1.285427E-1,2.3870978E-1,-1.7058727E-1,8.762677E-2,3.8848925E-1,-4.9396656E-2,-3.7926778E-1,2.5105597E-3,-2.4016199E-4,3.078863E-3,5.0962493E-3,-1.2636883E-3,1.8626576E-3,7.128382E-3,-3.8973063E-3],"categories":[],"categories_nodes":[],"categories_segments":[],"categories_sizes":[],"default_left":[0,0,0,0,0,0,0,0,0,0,0,0,0,0,0],"id":35,"left_children":[1,3,5,7,9,11,13,-1,-1,-1,-1,-1,-1,-1,-1],"loss_changes":[1.282409E2,6.430824E1,2.6438128E1,2.5865528E1,1.3843857E1,1.2020388E1,4.3877754E0,0E0,0E0,0E0,0E0,0E0,0E0,0E0,0E0],"parents":[2147483647,0,0,1,1,2,2,3,3,4,4,5,5,6,6],"right_children":[2,4,6,8,10,12,14,-1,-1,-1,-1,-1,-1,-1,-1],"split_conditions":[2.2E1,1.3E1,5.63E-1,9E0,2.3E1,2.6E1,2.67E-1,2.5105597E-3,-2.4016199E-4,3.078863E-3,5.0962493E-3,-1.2636883E-3,1.8626576E-3,7.128382E-3,-3.8973063E-3],"split_indices":[29,80,55,51,80,103,10,0,0,0,0,0,0,0,0],"split_type":[0,0,0,0,0,0,0,0,0,0,0,0,0,0,0],"sum_hessian":[3.8910505E3,2.843988E3,1.0470624E3,1.4162443E3,1.4277438E3,6.6276587E2,3.8429654E2,5.75121E2,8.411233E2,8.580095E2,5.697342E2,4.999445E2,1.6282141E2,3.4923792E0,3.8080414E2],"tree_param":{"num_deleted":"0","num_feature":"106","num_nodes":"15","size_leaf_vector":"1"}},{"base_weights":[-1.1581059E-1,1.5728056E-1,-2.425922E-1,-6.966017E-2,2.7018896E-1,-8.935472E-2,-4.0758306E-1,1.0343499E-3,-2.0537893E-3,1.1670337E-3,3.5387492E-3,-2.6623046E-3,1.7362137E-4,-3.1240752E-3,-5.3476654E-3],"categories":[],"categories_nodes":[],"categories_segments":[],"categories_sizes":[],"default_left":[0,0,0,0,0,0,0,0,0,0,0,0,0,0,0],"id":36,"left_children":[1,3,5,7,9,11,13,-1,-1,-1,-1,-1,-1,-1,-1],"loss_changes":[1.3344992E2,3.1327381E1,6.650041E1,9.542832E0,1.0432041E1,2.5795132E1,1.5238129E1,0E0,0E0,0E0,0E0,0E0,0E0,0E0,0E0],"parents":[2147483647,0,0,1,1,2,2,3,3,4,4,5,5,6,6],"right_children":[2,4,6,8,10,12,14,-1,-1,-1,-1,-1,-1,-1,-1],"split_conditions":[-1.8E0,-2E0,1.4E1,-5.7E0,1.7E1,7E0,2.3E1,1.0343499E-3,-2.0537893E-3,1.1670337E-3,3.5387492E-3,-2.6623046E-3,1.7362137E-4,-3.1240752E-3,-5.3476654E-3],"split_indices":[25,77,80,25,47,27,80,0,0,0,0,0,0,0,0],"split_type":[0,0,0,0,0,0,0,0,0,0,0,0,0,0,0],"sum_hessian":[3.8539216E3,1.221647E3,2.632275E3,4.0558734E2,8.1605963E2,1.3651415E3,1.2671333E3,1.7793576E2,2.2765158E2,2.8845273E2,5.276069E2,5.140038E2,8.5113776E2,7.2541425E2,5.4171906E2],"tree_param":{"num_deleted":"0","num_feature":"106","num_nodes":"15","size_leaf_vector":"1"}},{"base_weights":[1.2019731E-1,-5.378135E-2,3.0573556E-1,-1.6497783E-1,2.1688367E-1,3.7366453E-1,-5.165394E-2,-3.3243205E-3,-8.033921E-4,-4.9624534E-4,3.0546745E-3,3.181376E-3,5.9156297E-3,5.1978207E-3,-8.452366E-4],"categories":[],"categories_nodes":[],"categories_segments":[],"categories_sizes":[],"default_left":[0,0,0,0,0,0,0,0,0,0,0,0,0,0,0],"id":37,"left_children":[1,3,5,7,9,11,13,-1,-1,-1,-1,-1,-1,-1,-1],"loss_changes":[1.2471246E2,5.9988846E1,4.5420837E1,1.9984528E1,1.3724724E1,1.8900345E1,5.5664654E0,0E0,0E0,0E0,0E0,0E0,0E0,0E0,0E0],"parents":[2147483647,0,0,1,1,2,2,3,3,4,4,5,5,6,6],"right_children":[2,4,6,8,10,12,14,-1,-1,-1,-1,-1,-1,-1,-1],"split_conditions":[6E-1,2.2E1,6E0,8E0,-6.2E0,2.4E1,2E0,-3.3243205E-3,-8.033921E-4,-4.9624534E-4,3.0546745E-3,3.181376E-3,5.9156297E-3,5.1978207E-3,-8.452366E-4],"split_indices":[25,103,77,103,25,79,51,0,0,0,0,0,0,0,0],"split_type":[0,0,0,0,0,0,0,0,0,0,0,0,0,0,0],"sum_hessian":[3.8625642E3,1.9931373E3,1.869427E3,1.4130336E3,5.8010376E2,1.571086E3,2.9834088E2,4.7392233E2,9.3911127E2,1.4444617E2,4.3565756E2,1.2525934E3,3.184927E2,1.5981464E1,2.823594E2],"tree_param":{"num_deleted":"0","num_feature":"106","num_nodes":"15","size_leaf_vector":"1"}},{"base_weights":[-1.2861946E-1,1.4216083E-1,-2.636702E-1,-1.0888137E-4,3.024887E-1,-4.9263212E-1,-1.6189426E-1,1.237149E-3,-1.2237516E-3,4.7433195E-3,2.1942896E-3,-4.051748E-3,-5.816671E-3,-3.4283146E-3,-5.781456E-4],"categories":[],"categories_nodes":[],"categories_segments":[],"categories_sizes":[],"default_left":[0,0,0,0,0,0,0,0,0,0,0,0,0,0,0],"id":38,"left_children":[1,3,5,7,9,11,13,-1,-1,-1,-1,-1,-1,-1,-1],"loss_changes":[1.4106183E2,2.9302645E1,5.990213E1,1.0292057E1,8.536987E0,6.042145E0,3.352004E1,0E0,0E0,0E0,0E0,0E0,0E0,0E0,0E0],"parents":[2147483647,0,0,1,1,2,2,3,3,4,4,5,5,6,6],"right_children":[2,4,6,8,10,12,14,-1,-1,-1,-1,-1,-1,-1,-1],"split_conditions":[4.41E-1,4E-1,-1.7E0,-4.9E0,-7E0,2.3E1,7E0,1.237149E-3,-1.2237516E-3,4.7433195E-3,2.1942896E-3,-4.051748E-3,-5.816671E-3,-3.4283146E-3,-5.781456E-4],"split_indices":[3,77,77,25,25,1,27,0,0,0,0,0,0,0,0],"split_type":[0,0,0,0,0,0,0,0,0,0,0,0,0,0,0],"sum_hessian":[3.8568723E3,1.2832256E3,2.5736467E3,6.796249E2,6.036007E2,7.915522E2,1.7820945E3,3.3725482E2,3.423701E2,1.9613655E2,4.0746414E2,4.001607E2,3.9139148E2,6.503333E2,1.1317612E3],"tree_param":{"num_deleted":"0","num_feature":"106","num_nodes":"15","size_leaf_vector":"1"}},{"base_weights":[1.1852864E-1,-1.50096E-1,2.5067157E-1,1.0552696E-2,-3.3039612E-1,3.1308246E-1,-9.532848E-2,-1.750142E-3,1.2403652E-3,8.4965525E-4,-3.6890584E-3,4.9103033E-3,2.3125093E-3,-1.3387237E-3,4.989679E-3],"categories":[],"categories_nodes":[],"categories_segments":[],"categories_sizes":[],"default_left":[0,0,0,0,0,0,0,0,0,0,0,0,0,0,0],"id":39,"left_children":[1,3,5,7,9,11,13,-1,-1,-1,-1,-1,-1,-1,-1],"loss_changes":[1.3777182E2,3.709086E1,5.6202576E1,1.4241014E1,9.679001E0,3.2014053E1,9.072788E0,0E0,0E0,0E0,0E0,0E0,0E0,0E0,0E0],"parents":[2147483647,0,0,1,1,2,2,3,3,4,4,5,5,6,6],"right_children":[2,4,6,8,10,12,14,-1,-1,-1,-1,-1,-1,-1,-1],"split_conditions":[-1.6E0,4E-1,5.8E0,-6.3E0,1.1E1,-2.4E0,1.06E1,-1.750142E-3,1.2403652E-3,8.4965525E-4,-3.6890584E-3,4.9103033E-3,2.3125093E-3,-1.3387237E-3,4.989679E-3],"split_indices":[25,77,77,25,33,77,25,0,0,0,0,0,0,0,0],"split_type":[0,0,0,0,0,0,0,0,0,0,0,0,0,0,0],"sum_hessian":[3.880752E3,1.2793253E3,2.6014265E3,6.7628766E2,6.0303766E2,2.2041453E3,3.9728143E2,2.5628284E2,4.2000485E2,5.093552E1,5.521022E2,6.9377185E2,1.5103733E3,3.733153E2,2.3966131E1],"tree_param":{"num_deleted":"0","num_feature":"106","num_nodes":"15","size_leaf_vector":"1"}},{"base_weights":[-1.2601076E-1,-3.1174216E-1,5.3634275E-2,9.574892E-2,-3.6641884E-1,2.3479895E-1,-9.11094E-2,-2.959951E-3,1.7643231E-3,-3.0613851E-3,-5.7986774E-3,1.5220828E-3,3.7258898E-3,-2.329746E-3,9.3148224E-4],"categories":[],"categories_nodes":[],"categories_segments":[],"categories_sizes":[],"default_left":[0,0,0,0,0,0,0,0,0,0,0,0,0,0,0],"id":40,"left_children":[1,3,5,7,9,11,13,-1,-1,-1,-1,-1,-1,-1,-1],"loss_changes":[1.2856187E2,4.223712E1,5.136113E1,7.0724454E0,2.1387253E1,9.841999E0,2.8461258E1,0E0,0E0,0E0,0E0,0E0,0E0,0E0,0E0],"parents":[2147483647,0,0,1,1,2,2,3,3,4,4,5,5,6,6],"right_children":[2,4,6,8,10,12,14,-1,-1,-1,-1,-1,-1,-1,-1],"split_conditions":[1.5E1,4E0,1.4E1,3E0,2.3E1,5.5E0,2.4E1,-2.959951E-3,1.7643231E-3,-3.0613851E-3,-5.7986774E-3,1.5220828E-3,3.7258898E-3,-2.329746E-3,9.3148224E-4],"split_indices":[51,103,103,94,80,21,51,0,0,0,0,0,0,0,0],"split_type":[0,0,0,0,0,0,0,0,0,0,0,0,0,0,0],"sum_hessian":[3.8521882E3,1.8942472E3,1.9579412E3,2.2387335E2,1.6703738E3,8.6984753E2,1.0880936E3,3.7976902E1,1.8589645E2,1.3030812E3,3.672926E2,5.4444574E2,3.2540186E2,6.150586E2,4.7303497E2],"tree_param":{"num_deleted":"0","num_feature":"106","num_nodes":"15","size_leaf_vector":"1"}},{"base_weights":[1.17806554E-1,2.2553827E-1,-1.753212E-1,1.2533394E-1,4.5641488E-1,-2.4563499E-1,1.8224423E-1,-1.8323337E-3,1.867445E-3,3.1578643E-3,5.237577E-3,-3.9905114E-3,-1.582562E-3,-2.4576427E-4,4.553327E-3],"categories":[],"categories_nodes":[],"categories_segments":[],"categories_sizes":[],"default_left":[0,0,0,0,0,0,0,0,0,0,0,0,0,0,0],"id":41,"left_children":[1,3,5,7,9,11,13,-1,-1,-1,-1,-1,-1,-1,-1],"loss_changes":[1.2089264E2,6.470163E1,2.5871077E1,3.700483E1,7.920349E0,1.1464207E1,9.580942E0,0E0,0E0,0E0,0E0,0E0,0E0,0E0,0E0],"parents":[2147483647,0,0,1,1,2,2,3,3,4,4,5,5,6,6],"right_children":[2,4,6,8,10,12,14,-1,-1,-1,-1,-1,-1,-1,-1],"split_conditions":[2.1E1,2.1E1,2.6E1,4E0,8E0,-7.1E0,1.9E1,-1.8323337E-3,1.867445E-3,3.1578643E-3,5.237577E-3,-3.9905114E-3,-1.582562E-3,-2.4576427E-4,4.553327E-3],"split_indices":[28,103,103,103,30,25,35,0,0,0,0,0,0,0,0],"split_type":[0,0,0,0,0,0,0,0,0,0,0,0,0,0,0],"sum_hessian":[3.8278577E3,2.7993801E3,1.0284774E3,1.9525347E3,8.468456E2,8.597266E2,1.6875075E2,3.2378717E2,1.6287474E3,2.7488065E2,5.719649E2,3.1142972E2,5.4829694E2,9.586968E1,7.2881065E1],"tree_param":{"num_deleted":"0","num_feature":"106","num_nodes":"15","size_leaf_vector":"1"}},{"base_weights":[-1.20218E-1,1.2525219E-1,-2.6589626E-1,-1.2561993E-1,2.30744E-1,-3.6991084E-1,-3.2424234E-2,7.298977E-4,-2.7259495E-3,7.032196E-4,3.1685429E-3,-2.19953E-3,-4.2907773E-3,-1.8295785E-3,1.001299E-3],"categories":[],"categories_nodes":[],"categories_segments":[],"categories_sizes":[],"default_left":[0,0,0,0,0,0,0,0,0,0,0,0,0,0,0],"id":42,"left_children":[1,3,5,7,9,11,13,-1,-1,-1,-1,-1,-1,-1,-1],"loss_changes":[1.3717635E2,3.7813942E1,5.8419907E1,1.2357941E1,1.3853493E1,1.4699265E1,1.4823069E1,0E0,0E0,0E0,0E0,0E0,0E0,0E0,0E0],"parents":[2147483647,0,0,1,1,2,2,3,3,4,4,5,5,6,6],"right_children":[2,4,6,8,10,12,14,-1,-1,-1,-1,-1,-1,-1,-1],"split_conditions":[4.62E-1,-2.4E0,3.1E0,-5.1E0,1.7E1,5.33E-1,9E0,7.298977E-4,-2.7259495E-3,7.032196E-4,3.1685429E-3,-2.19953E-3,-4.2907773E-3,-1.8295785E-3,1.001299E-3],"split_indices":[3,77,77,25,47,3,51,0,0,0,0,0,0,0,0],"split_type":[0,0,0,0,0,0,0,0,0,0,0,0,0,0,0],"sum_hessian":[3.8354766E3,1.428224E3,2.4072524E3,4.225005E2,1.0057235E3,1.6649921E3,7.4226044E2,1.7941884E2,2.4308163E2,3.5175427E2,6.539693E2,4.7168185E2,1.1933102E3,3.478944E2,3.94366E2],"tree_param":{"num_deleted":"0","num_feature":"106","num_nodes":"15","size_leaf_vector":"1"}},{"base_weights":[1.2295401E-1,-1.6057958E-1,2.47952E-1,-2.659765E-1,1.0742573E-1,2.3238238E-2,3.46764E-1,-2.2138674E-3,-5.156183E-3,-1.2191222E-3,2.7523646E-3,1.8392907E-3,-1.2392624E-3,2.7727117E-3,5.0965673E-3],"categories":[],"categories_nodes":[],"categories_segments":[],"categories_sizes":[],"default_left":[0,0,0,0,0,0,0,0,0,0,0,0,0,0,0],"id":43,"left_children":[1,3,5,7,9,11,13,-1,-1,-1,-1,-1,-1,-1,-1],"loss_changes":[1.3725536E2,3.3481544E1,5.964453E1,9.382957E0,1.2879924E1,1.943151E1,2.1036957E1,0E0,0E0,0E0,0E0,0E0,0E0,0E0,0E0],"parents":[2147483647,0,0,1,1,2,2,3,3,4,4,5,5,6,6],"right_children":[2,4,6,8,10,12,14,-1,-1,-1,-1,-1,-1,-1,-1],"split_conditions":[-2E0,2.2E1,9E0,3.8E1,-6.2E0,1E1,2.3E1,-2.2138674E-3,-5.156183E-3,-1.2191222E-3,2.7523646E-3,1.8392907E-3,-1.2392624E-3,2.7727117E-3,5.0965673E-3],"split_indices":[25,103,103,53,25,51,80,0,0,0,0,0,0,0,0],"split_type":[0,0,0,0,0,0,0,0,0,0,0,0,0,0,0],"sum_hessian":[3.8723118E3,1.1845538E3,2.687758E3,8.5046875E2,3.3408508E2,8.212483E2,1.8665098E3,7.220832E2,1.2838556E2,1.4092368E2,1.9316139E2,3.928953E2,4.28353E2,1.3089664E3,5.5754333E2],"tree_param":{"num_deleted":"0","num_feature":"106","num_nodes":"15","size_leaf_vector":"1"}},{"base_weights":[-1.1432187E-1,-2.2256264E-1,1.7793751E-1,-1.09398104E-1,-4.1342282E-1,3.781368E-1,2.3668539E-2,-2.9725202E-3,-9.086502E-5,-3.3267757E-3,-5.3368635E-3,2.789832E-3,4.894452E-3,1.070654E-3,-2.117198E-3],"categories":[],"categories_nodes":[],"categories_segments":[],"categories_sizes":[],"default_left":[0,0,0,0,0,0,0,0,0,0,0,0,0,0,0],"id":44,"left_children":[1,3,5,7,9,11,13,-1,-1,-1,-1,-1,-1,-1,-1],"loss_changes":[1.2165529E2,6.055797E1,3.205041E1,3.31773E1,1.00359955E1,4.8973083E0,1.1519861E1,0E0,0E0,0E0,0E0,0E0,0E0,0E0,0E0],"parents":[2147483647,0,0,1,1,2,2,3,3,4,4,5,5,6,6],"right_children":[2,4,6,8,10,12,14,-1,-1,-1,-1,-1,-1,-1,-1],"split_conditions":[2.2E1,1.7E1,1.4E1,7E0,2.6E1,2.7E1,2.6E1,-2.9725202E-3,-9.086502E-5,-3.3267757E-3,-5.3368635E-3,2.789832E-3,4.894452E-3,1.070654E-3,-2.117198E-3],"split_indices":[29,80,103,27,103,51,103,0,0,0,0,0,0,0,0],"split_type":[0,0,0,0,0,0,0,0,0,0,0,0,0,0,0],"sum_hessian":[3.8453008E3,2.8063215E3,1.0389792E3,1.7621759E3,1.0441455E3,4.5183133E2,5.8714795E2,6.130053E2,1.1491707E3,6.2543506E2,4.1871048E2,2.3962349E2,2.1220784E2,4.3389908E2,1.5324884E2],"tree_param":{"num_deleted":"0","num_feature":"106","num_nodes":"15","size_leaf_vector":"1"}},{"base_weights":[1.1322558E-1,-6.1876178E-2,3.0049458E-1,-1.5654473E-1,2.2023974E-1,1.8724754E-1,4.8828766E-1,-4.2516596E-4,-3.0868335E-3,-3.4353556E-4,3.1968388E-3,3.0274347E-3,6.7390763E-4,1.4219465E-3,5.133719E-3],"categories":[],"categories_nodes":[],"categories_segments":[],"categories_sizes":[],"default_left":[0,0,0,0,0,0,0,0,0,0,0,0,0,0,0],"id":45,"left_children":[1,3,5,7,9,11,13,-1,-1,-1,-1,-1,-1,-1,-1],"loss_changes":[1.252626E2,5.2705433E1,3.917772E1,2.5604118E1,1.2578051E1,1.590699E1,5.951782E0,0E0,0E0,0E0,0E0,0E0,0E0,0E0,0E0],"parents":[2147483647,0,0,1,1,2,2,3,3,4,4,5,5,6,6],"right_children":[2,4,6,8,10,12,14,-1,-1,-1,-1,-1,-1,-1,-1],"split_conditions":[6E-1,2.2E1,1.7E1,2.3E1,-5.4E0,7E0,8E0,-4.2516596E-4,-3.0868335E-3,-3.4353556E-4,3.1968388E-3,3.0274347E-3,6.7390763E-4,1.4219465E-3,5.133719E-3],"split_indices":[25,80,80,27,25,27,85,0,0,0,0,0,0,0,0],"split_type":[0,0,0,0,0,0,0,0,0,0,0,0,0,0,0],"sum_hessian":[3.81913E3,1.9734407E3,1.8456893E3,1.4779048E3,4.9553586E2,1.1518239E3,6.938654E2,8.452065E2,6.3269836E2,1.3892499E2,3.5661087E2,5.860804E2,5.657434E2,4.7206066E1,6.4665936E2],"tree_param":{"num_deleted":"0","num_feature":"106","num_nodes":"15","size_leaf_vector":"1"}},{"base_weights":[-1.1548439E-1,1.5718532E-1,-2.2347884E-1,2.5570944E-1,-8.519045E-2,-3.4647027E-1,-3.3646718E-2,1.2231184E-3,3.498013E-3,2.2683048E-3,-1.6898398E-3,-2.7697652E-3,-5.4717558E-3,1.5117489E-3,-1.2987348E-3],"categories":[],"categories_nodes":[],"categories_segments":[],"categories_sizes":[],"default_left":[0,0,0,0,0,0,0,0,0,0,0,0,0,0,0],"id":46,"left_children":[1,3,5,7,9,11,13,-1,-1,-1,-1,-1,-1,-1,-1],"loss_changes":[1.1330728E2,2.6080208E1,6.431366E1,9.691654E0,8.238823E0,2.3226929E1,1.9280401E1,0E0,0E0,0E0,0E0,0E0,0E0,0E0,0E0],"parents":[2147483647,0,0,1,1,2,2,3,3,4,4,5,5,6,6],"right_children":[2,4,6,8,10,12,14,-1,-1,-1,-1,-1,-1,-1,-1],"split_conditions":[-2.4E0,2.2E1,5.67E-1,1.9E1,9E0,2.6E1,9E-1,1.2231184E-3,3.498013E-3,2.2683048E-3,-1.6898398E-3,-2.7697652E-3,-5.4717558E-3,1.5117489E-3,-1.2987348E-3],"split_indices":[25,103,55,47,35,103,25,0,0,0,0,0,0,0,0],"split_type":[0,0,0,0,0,0,0,0,0,0,0,0,0,0,0],"sum_hessian":[3.847417E3,1.0912368E3,2.7561802E3,7.761459E2,3.15091E2,1.6721754E3,1.0840046E3,3.2155615E2,4.545897E2,6.641567E1,2.4867534E2,1.242648E3,4.2952747E2,3.7077164E2,7.13233E2],"tree_param":{"num_deleted":"0","num_feature":"106","num_nodes":"15","size_leaf_vector":"1"}},{"base_weights":[1.1925138E-1,2.1890153E-1,-1.7681907E-1,4.2953864E-1,1.1393162E-1,-4.852392E-2,-3.577163E-1,3.3072187E-3,5.4971706E-3,2.8237714E-3,-7.336182E-5,-1.947061E-3,7.31379E-4,-4.999761E-3,-2.5911971E-3],"categories":[],"categories_nodes":[],"categories_segments":[],"categories_sizes":[],"default_left":[0,0,0,0,0,0,0,0,0,0,0,0,0,0,0],"id":47,"left_children":[1,3,5,7,9,11,13,-1,-1,-1,-1,-1,-1,-1,-1],"loss_changes":[1.12906265E2,6.324971E1,2.231685E1,1.119902E1,3.9072357E1,1.004597E1,5.513489E0,0E0,0E0,0E0,0E0,0E0,0E0,0E0,0E0],"parents":[2147483647,0,0,1,1,2,2,3,3,4,4,5,5,6,6],"right_children":[2,4,6,8,10,12,14,-1,-1,-1,-1,-1,-1,-1,-1],"split_conditions":[2.2E1,-1.4E0,5.45E-1,2.3E1,9E0,-6.4E0,-7E0,3.3072187E-3,5.4971706E-3,2.8237714E-3,-7.336182E-5,-1.947061E-3,7.31379E-4,-4.999761E-3,-2.5911971E-3],"split_indices":[27,77,55,1,29,25,25,0,0,0,0,0,0,0,0],"split_type":[0,0,0,0,0,0,0,0,0,0,0,0,0,0,0],"sum_hessian":[3.826507E3,2.8631902E3,9.6331683E2,9.518685E2,1.9113217E3,5.639993E2,3.993175E2,5.2302136E2,4.2884714E2,8.003279E2,1.1109938E3,2.5652948E2,3.0746985E2,1.6288213E2,2.3643538E2],"tree_param":{"num_deleted":"0","num_feature":"106","num_nodes":"15","size_leaf_vector":"1"}},{"base_weights":[-1.01664245E-1,1.526062E-1,-2.300957E-1,-5.0199046E-3,3.2771206E-1,-2.9391053E-1,1.225162E-1,1.57031E-3,-1.1029247E-3,3.4156623E-3,-6.3753817E-3,-4.6900585E-3,-2.129699E-3,2.6830095E-3,-5.425764E-4],"categories":[],"categories_nodes":[],"categories_segments":[],"categories_sizes":[],"default_left":[0,0,0,0,0,0,0,0,0,0,0,0,0,0,0],"id":48,"left_children":[1,3,5,7,9,11,13,-1,-1,-1,-1,-1,-1,-1,-1],"loss_changes":[1.25707184E2,3.5679672E1,5.7572556E1,1.1588589E1,8.178055E0,3.0618668E1,1.0119238E1,0E0,0E0,0E0,0E0,0E0,0E0,0E0,0E0],"parents":[2147483647,0,0,1,1,2,2,3,3,4,4,5,5,6,6],"right_children":[2,4,6,8,10,12,14,-1,-1,-1,-1,-1,-1,-1,-1],"split_conditions":[-1.6E0,4E-1,5.8E0,-6.2E0,4.8E-1,-2.5E0,3.3E0,1.57031E-3,-1.1029247E-3,3.4156623E-3,-6.3753817E-3,-4.6900585E-3,-2.129699E-3,2.6830095E-3,-5.425764E-4],"split_indices":[25,77,77,25,7,77,25,0,0,0,0,0,0,0,0],"split_type":[0,0,0,0,0,0,0,0,0,0,0,0,0,0,0],"sum_hessian":[3.8489534E3,1.2914078E3,2.5575454E3,6.793759E2,6.120319E2,2.1658716E3,3.9167386E2,2.6714627E2,4.1222964E2,6.035376E2,8.49432E0,6.8415454E2,1.481717E3,2.1493315E2,1.7674069E2],"tree_param":{"num_deleted":"0","num_feature":"106","num_nodes":"15","size_leaf_vector":"1"}},{"base_weights":[1.1175164E-1,-1.2557954E-1,2.2996522E-1,1.0687549E-1,-2.4421711E-1,1.1235729E-1,4.2746767E-1,-7.994476E-4,2.200365E-3,-3.8951E-3,-1.5140508E-3,2.7119638E-3,1.4059315E-4,4.9041086E-3,2.9912337E-3],"categories":[],"categories_nodes":[],"categories_segments":[],"categories_sizes":[],"default_left":[0,0,0,0,0,0,0,0,0,0,0,0,0,0,0],"id":49,"left_children":[1,3,5,7,9,11,13,-1,-1,-1,-1,-1,-1,-1,-1],"loss_changes":[1.0716357E2,3.5029495E1,5.916478E1,9.080888E0,1.1279636E1,2.4929695E1,7.5910187E0,0E0,0E0,0E0,0E0,0E0,0E0,0E0,0E0],"parents":[2147483647,0,0,1,1,2,2,3,3,4,4,5,5,6,6],"right_children":[2,4,6,8,10,12,14,-1,-1,-1,-1,-1,-1,-1,-1],"split_conditions":[-1.6E0,-1.9E0,1.7E1,-6.2E0,-6.2E0,7E0,-2.4E0,-7.994476E-4,2.200365E-3,-3.8951E-3,-1.5140508E-3,2.7119638E-3,1.4059315E-4,4.9041086E-3,2.9912337E-3],"split_indices":[25,77,80,25,25,27,77,0,0,0,0,0,0,0,0],"split_type":[0,0,0,0,0,0,0,0,0,0,0,0,0,0,0],"sum_hessian":[3.8190876E3,1.269509E3,2.5495786E3,4.2869785E2,8.4081116E2,1.5984208E3,9.511578E2,1.6139412E2,2.6730374E2,3.2719913E2,5.1361206E2,6.1058575E2,9.878351E2,6.37467E2,3.136908E2],"tree_param":{"num_deleted":"0","num_feature":"106","num_nodes":"15","size_leaf_vector":"1"}},{"base_weights":[-1.0675083E-1,1.6289353E-1,-2.2764684E-1,2.4251468E-1,-1.3112622E-1,-3.780649E-1,-6.82261E-2,1.9473451E-3,5.2954657E-3,-3.0039356E-3,5.62683E-4,-4.690727E-3,-2.7693394E-3,1.1841165E-3,-1.8247602E-3],"categories":[],"categories_nodes":[],"categories_segments":[],"categories_sizes":[],"default_left":[0,0,0,0,0,0,0,0,0,0,0,0,0,0,0],"id":50,"left_children":[1,3,5,7,9,11,13,-1,-1,-1,-1,-1,-1,-1,-1],"loss_changes":[1.2571661E2,2.7954754E1,6.380455E1,1.2801773E1,8.087048E0,1.2518799E1,2.7582394E1,0E0,0E0,0E0,0E0,0E0,0E0,0E0,0E0],"parents":[2147483647,0,0,1,1,2,2,3,3,4,4,5,5,6,6],"right_children":[2,4,6,8,10,12,14,-1,-1,-1,-1,-1,-1,-1,-1],"split_conditions":[-2E0,2.4E1,7E-1,3.8E1,8.69E1,-2.4E0,1.4E0,1.9473451E-3,5.2954657E-3,-3.0039356E-3,5.62683E-4,-4.690727E-3,-2.7693394E-3,1.1841165E-3,-1.8247602E-3],"split_indices":[25,81,77,53,6,77,25,0,0,0,0,0,0,0,0],"split_type":[0,0,0,0,0,0,0,0,0,0,0,0,0,0,0],"sum_hessian":[3.8560518E3,1.1934159E3,2.662636E3,9.3938586E2,2.5403003E2,1.3696074E3,1.2930284E3,8.0577106E2,1.3361482E2,1.337192E2,1.2031083E2,7.2017175E2,6.494356E2,4.9064154E2,8.023869E2],"tree_param":{"num_deleted":"0","num_feature":"106","num_nodes":"15","size_leaf_vector":"1"}},{"base_weights":[1.1932759E-1,-1.394939E-1,2.4016498E-1,7.723378E-2,-2.5852868E-1,3.8895458E-1,8.098992E-2,1.978319E-3,-5.792425E-4,-1.8638188E-3,-4.608326E-3,4.711757E-3,2.9970305E-3,2.3730055E-3,-5.6531176E-4],"categories":[],"categories_nodes":[],"categories_segments":[],"categories_sizes":[],"default_left":[0,0,0,0,0,0,0,0,0,0,0,0,0,0,0],"id":51,"left_children":[1,3,5,7,9,11,13,-1,-1,-1,-1,-1,-1,-1,-1],"loss_changes":[1.2034764E2,3.160743E1,6.207849E1,7.0868964E0,1.1466644E1,9.856064E0,2.7273285E1,0E0,0E0,0E0,0E0,0E0,0E0,0E0,0E0],"parents":[2147483647,0,0,1,1,2,2,3,3,4,4,5,5,6,6],"right_children":[2,4,6,8,10,12,14,-1,-1,-1,-1,-1,-1,-1,-1],"split_conditions":[-1.8E0,-1.5E0,5.25E-1,3.28E1,3.8E1,-2.4E0,9E0,1.978319E-3,-5.792425E-4,-1.8638188E-3,-4.608326E-3,4.711757E-3,2.9970305E-3,2.3730055E-3,-5.6531176E-4],"split_indices":[25,77,55,67,2,77,29,0,0,0,0,0,0,0,0],"split_type":[0,0,0,0,0,0,0,0,0,0,0,0,0,0,0],"sum_hessian":[3.847479E3,1.2243027E3,2.623176E3,4.3375546E2,7.905473E2,1.3554192E3,1.2677568E3,2.2959082E2,2.0416464E2,5.832365E2,2.0731078E2,7.046899E2,6.507294E2,5.9365045E2,6.7410645E2],"tree_param":{"num_deleted":"0","num_feature":"106","num_nodes":"15","size_leaf_vector":"1"}},{"base_weights":[-1.0968536E-1,1.4402595E-1,-2.3684777E-1,-1.2477243E-1,2.340146E-1,-3.3608478E-1,-4.730706E-2,1.1315466E-3,-2.5172033E-3,4.0121903E-3,1.5938841E-3,-4.6538813E-3,-2.5155458E-3,-1.9937165E-3,7.465518E-4],"categories":[],"categories_nodes":[],"categories_segments":[],"categories_sizes":[],"default_left":[0,0,0,0,0,0,0,0,0,0,0,0,0,0,0],"id":52,"left_children":[1,3,5,7,9,11,13,-1,-1,-1,-1,-1,-1,-1,-1],"loss_changes":[1.2441202E2,3.1148493E1,4.827765E1,9.761276E0,1.1974033E1,1.834111E1,1.639419E1,0E0,0E0,0E0,0E0,0E0,0E0,0E0,0E0],"parents":[2147483647,0,0,1,1,2,2,3,3,4,4,5,5,6,6],"right_children":[2,4,6,8,10,12,14,-1,-1,-1,-1,-1,-1,-1,-1],"split_conditions":[4.41E-1,-3.3E0,2.6E0,-6.2E0,8E0,-2.5E0,9E0,1.1315466E-3,-2.5172033E-3,4.0121903E-3,1.5938841E-3,-4.6538813E-3,-2.5155458E-3,-1.9937165E-3,7.465518E-4],"split_indices":[3,77,77,25,103,77,51,0,0,0,0,0,0,0,0],"split_type":[0,0,0,0,0,0,0,0,0,0,0,0,0,0,0],"sum_hessian":[3.8557437E3,1.2870513E3,2.5686924E3,3.2252148E2,9.645298E2,1.6855773E3,8.831151E2,1.1194192E2,2.1057956E2,2.970944E2,6.6743536E2,6.6567706E2,1.01990027E3,3.9338834E2,4.897268E2],"tree_param":{"num_deleted":"0","num_feature":"106","num_nodes":"15","size_leaf_vector":"1"}},{"base_weights":[1.072504E-1,2.2809637E-1,-1.5290788E-1,3.3135632E-1,5.9749894E-3,5.013406E-3,-3.2818943E-1,2.7101904E-3,5.3396435E-3,-9.005854E-4,1.8575572E-3,2.1915624E-3,-8.7932113E-4,-3.4428863E-3,3.3604922E-3],"categories":[],"categories_nodes":[],"categories_segments":[],"categories_sizes":[],"default_left":[0,0,0,0,0,0,0,0,0,0,0,0,0,0,0],"id":53,"left_children":[1,3,5,7,9,11,13,-1,-1,-1,-1,-1,-1,-1,-1],"loss_changes":[1.2091576E2,6.020172E1,3.3790794E1,2.1817749E1,1.4407509E1,1.2780224E1,6.1966896E0,0E0,0E0,0E0,0E0,0E0,0E0,0E0,0E0],"parents":[2147483647,0,0,1,1,2,2,3,3,4,4,5,5,6,6],"right_children":[2,4,6,8,10,12,14,-1,-1,-1,-1,-1,-1,-1,-1],"split_conditions":[2.1E1,2.9E0,4E-1,2.6E1,6.42E-1,2.4E1,4.81E-1,2.7101904E-3,5.3396435E-3,-9.005854E-4,1.8575572E-3,2.1915624E-3,-8.7932113E-4,-3.4428863E-3,3.3604922E-3],"split_indices":[51,77,77,103,3,51,7,0,0,0,0,0,0,0,0],"split_type":[0,0,0,0,0,0,0,0,0,0,0,0,0,0,0],"sum_hessian":[3.8455833E3,2.6261218E3,1.2194615E3,1.7923796E3,8.337421E2,6.4124945E2,5.782121E2,1.3816481E3,4.1073157E2,5.4311816E2,2.9062393E2,1.943696E2,4.4687985E2,5.647236E2,1.3488534E1],"tree_param":{"num_deleted":"0","num_feature":"106","num_nodes":"15","size_leaf_vector":"1"}},{"base_weights":[-1.0800721E-1,5.8998086E-2,-2.8399387E-1,-7.993548E-2,2.5615254E-1,8.810969E-2,-3.4107476E-1,1.332474E-3,-1.8563166E-3,1.7011062E-3,3.7479028E-3,-2.8617724E-3,1.5726873E-3,-2.8383753E-3,-5.378808E-3],"categories":[],"categories_nodes":[],"categories_segments":[],"categories_sizes":[],"default_left":[0,0,0,0,0,0,0,0,0,0,0,0,0,0,0],"id":54,"left_children":[1,3,5,7,9,11,13,-1,-1,-1,-1,-1,-1,-1,-1],"loss_changes":[1.127576E2,5.3921844E1,3.970317E1,2.601376E1,8.246269E0,6.4183803E0,1.8148468E1,0E0,0E0,0E0,0E0,0E0,0E0,0E0,0E0],"parents":[2147483647,0,0,1,1,2,2,3,3,4,4,5,5,6,6],"right_children":[2,4,6,8,10,12,14,-1,-1,-1,-1,-1,-1,-1,-1],"split_conditions":[6E-1,5.45E-1,4E0,-5E0,2.3E1,4E0,2.3E1,1.332474E-3,-1.8563166E-3,1.7011062E-3,3.7479028E-3,-2.8617724E-3,1.5726873E-3,-2.8383753E-3,-5.378808E-3],"split_indices":[25,55,81,25,27,39,80,0,0,0,0,0,0,0,0],"split_type":[0,0,0,0,0,0,0,0,0,0,0,0,0,0,0],"sum_hessian":[3.8355835E3,1.9677522E3,1.8678312E3,1.1540514E3,8.137009E2,2.4817853E2,1.6196526E3,3.822015E2,7.7184985E2,4.7227222E2,3.414287E2,3.8431038E1,2.097475E2,1.2553195E3,3.6433313E2],"tree_param":{"num_deleted":"0","num_feature":"106","num_nodes":"15","size_leaf_vector":"1"}},{"base_weights":[1.1331216E-1,2.174059E-1,-1.7489423E-1,3.1690404E-1,9.61408E-3,1.8665317E-3,-3.046543E-1,1.9454196E-3,4.17452E-3,2.2529382E-3,-5.675772E-4,1.2392717E-3,-1.046021E-3,-4.5184046E-3,-2.1013927E-3],"categories":[],"categories_nodes":[],"categories_segments":[],"categories_sizes":[],"default_left":[0,0,0,0,0,0,0,0,0,0,0,0,0,0,0],"id":55,"left_children":[1,3,5,7,9,11,13,-1,-1,-1,-1,-1,-1,-1,-1],"loss_changes":[1.1516019E2,5.8273758E1,2.3385977E1,2.3389206E1,1.3096045E1,5.6022825E0,8.097656E0,0E0,0E0,0E0,0E0,0E0,0E0,0E0,0E0],"parents":[2147483647,0,0,1,1,2,2,3,3,4,4,5,5,6,6],"right_children":[2,4,6,8,10,12,14,-1,-1,-1,-1,-1,-1,-1,-1],"split_conditions":[2.2E1,2.9E0,-7E-1,1.5E0,5E0,1.9E1,-7E0,1.9454196E-3,4.17452E-3,2.2529382E-3,-5.675772E-4,1.2392717E-3,-1.046021E-3,-4.5184046E-3,-2.1013927E-3],"split_indices":[29,77,77,25,27,44,25,0,0,0,0,0,0,0,0],"split_type":[0,0,0,0,0,0,0,0,0,0,0,0,0,0,0],"sum_hessian":[3.8382432E3,2.8200686E3,1.01817456E3,1.9065911E3,9.134776E2,4.307413E2,5.874333E2,8.605864E2,1.0460046E3,2.1525592E2,6.982217E2,2.0110635E2,2.2963493E2,2.2914879E2,3.582845E2],"tree_param":{"num_deleted":"0","num_feature":"106","num_nodes":"15","size_leaf_vector":"1"}},{"base_weights":[-1.13472626E-1,5.3602442E-2,-2.9235286E-1,-7.980227E-2,2.3839797E-1,-1.821811E-1,-4.6551406E-1,1.208639E-3,-1.8733103E-3,1.3836811E-3,3.3664773E-3,4.6846378E-4,-2.4840848E-3,-4.7711614E-3,3.1679918E-3],"categories":[],"categories_nodes":[],"categories_segments":[],"categories_sizes":[],"default_left":[0,0,0,0,0,0,0,0,0,0,0,0,0,0,0],"id":56,"left_children":[1,3,5,7,9,11,13,-1,-1,-1,-1,-1,-1,-1,-1],"loss_changes":[1.1530275E2,4.9179844E1,3.5469666E1,2.4993238E1,8.167912E0,1.7299911E1,6.602783E0,0E0,0E0,0E0,0E0,0E0,0E0,0E0,0E0],"parents":[2147483647,0,0,1,1,2,2,3,3,4,4,5,5,6,6],"right_children":[2,4,6,8,10,12,14,-1,-1,-1,-1,-1,-1,-1,-1],"split_conditions":[6E-1,5.45E-1,1.6E1,-4.6E0,2.1E1,4E0,4.87E-1,1.208639E-3,-1.8733103E-3,1.3836811E-3,3.3664773E-3,4.6846378E-4,-2.4840848E-3,-4.7711614E-3,3.1679918E-3],"split_indices":[25,55,80,25,28,81,59,0,0,0,0,0,0,0,0],"split_type":[0,0,0,0,0,0,0,0,0,0,0,0,0,0,0],"sum_hessian":[3.8570789E3,1.994095E3,1.862984E3,1.157794E3,8.363009E2,1.139056E3,7.2392804E2,4.0362387E2,7.541701E2,4.1502017E2,4.2128076E2,2.5516475E2,8.8389124E2,7.135131E2,1.0414939E1],"tree_param":{"num_deleted":"0","num_feature":"106","num_nodes":"15","size_leaf_vector":"1"}},{"base_weights":[1.12950645E-1,-1.1881088E-1,2.2905996E-1,2.7752688E-2,-2.799661E-1,4.4250628E-1,1.3496053E-1,-9.659058E-4,1.6158752E-3,-2.9371371E-3,5.719299E-3,3.312972E-3,5.5276495E-3,2.981741E-3,3.4619484E-4],"categories":[],"categories_nodes":[],"categories_segments":[],"categories_sizes":[],"default_left":[0,0,0,0,0,0,0,0,0,0,0,0,0,0,0],"id":57,"left_children":[1,3,5,7,9,11,13,-1,-1,-1,-1,-1,-1,-1,-1],"loss_changes":[1.0308889E2,3.0217848E1,5.119873E1,1.1144574E1,7.12315E0,9.464081E0,2.8982681E1,0E0,0E0,0E0,0E0,0E0,0E0,0E0,0E0],"parents":[2147483647,0,0,1,1,2,2,3,3,4,4,5,5,6,6],"right_children":[2,4,6,8,10,12,14,-1,-1,-1,-1,-1,-1,-1,-1],"split_conditions":[-1.6E0,4E-1,-1.7E0,-4.9E0,4.79E-1,2.3E1,8E0,-9.659058E-4,1.6158752E-3,-2.9371371E-3,5.719299E-3,3.312972E-3,5.5276495E-3,2.981741E-3,3.4619484E-4],"split_indices":[25,77,77,25,7,1,51,0,0,0,0,0,0,0,0],"split_type":[0,0,0,0,0,0,0,0,0,0,0,0,0,0,0],"sum_hessian":[3.8303125E3,1.2781603E3,2.552152E3,6.691029E2,6.090574E2,7.804407E2,1.7717114E3,3.464779E2,3.2262503E2,5.995647E2,9.492674E0,3.891966E2,3.912441E2,6.74075E2,1.0976364E3],"tree_param":{"num_deleted":"0","num_feature":"106","num_nodes":"15","size_leaf_vector":"1"}},{"base_weights":[-1.09638125E-1,1.3283011E-1,-2.3066616E-1,2.8834763E-1,-4.6504736E-3,-6.257463E-2,-3.548948E-1,4.3478715E-3,2.182498E-3,1.1344185E-3,-1.454413E-3,1.2216539E-3,-1.5892144E-3,-2.8418708E-3,-4.8157102E-3],"categories":[],"categories_nodes":[],"categories_segments":[],"categories_sizes":[],"default_left":[0,0,0,0,0,0,0,0,0,0,0,0,0,0,0],"id":58,"left_children":[1,3,5,7,9,11,13,-1,-1,-1,-1,-1,-1,-1,-1],"loss_changes":[1.1266336E2,2.7351425E1,5.3433105E1,6.0839767E0,1.1278419E1,1.9385286E1,1.3096634E1,0E0,0E0,0E0,0E0,0E0,0E0,0E0,0E0],"parents":[2147483647,0,0,1,1,2,2,3,3,4,4,5,5,6,6],"right_children":[2,4,6,8,10,12,14,-1,-1,-1,-1,-1,-1,-1,-1],"split_conditions":[-1.6E0,1.5E1,1.1E1,-7E0,3.44E-1,1.2E0,2.3E1,4.3478715E-3,2.182498E-3,1.1344185E-3,-1.454413E-3,1.2216539E-3,-1.5892144E-3,-2.8418708E-3,-4.8157102E-3],"split_indices":[25,103,80,25,3,25,80,0,0,0,0,0,0,0,0],"split_type":[0,0,0,0,0,0,0,0,0,0,0,0,0,0,0],"sum_hessian":[3.838672E3,1.2778281E3,2.5608438E3,5.9987244E2,6.7795575E2,1.0886995E3,1.4721444E3,1.935614E2,4.06311E2,3.6832324E2,3.0963248E2,3.7280347E2,7.1589606E2,9.4550134E2,5.26643E2],"tree_param":{"num_deleted":"0","num_feature":"106","num_nodes":"15","size_leaf_vector":"1"}},{"base_weights":[1.1463439E-1,-1.1119209E-1,2.436675E-1,3.9193433E-2,-2.853227E-1,3.9168254E-1,8.712915E-2,-1.6649517E-3,1.4704692E-3,-1.2728615E-3,-3.662644E-3,4.2490987E-3,-1.0589376E-5,1.728923E-3,-1.198662E-3],"categories":[],"categories_nodes":[],"categories_segments":[],"categories_sizes":[],"default_left":[0,0,0,0,0,0,0,0,0,0,0,0,0,0,0],"id":59,"left_children":[1,3,5,7,9,11,13,-1,-1,-1,-1,-1,-1,-1,-1],"loss_changes":[1.1202621E2,3.6622375E1,5.663553E1,1.6631405E1,8.234451E0,1.6448013E1,2.112408E1,0E0,0E0,0E0,0E0,0E0,0E0,0E0,0E0],"parents":[2147483647,0,0,1,1,2,2,3,3,4,4,5,5,6,6],"right_children":[2,4,6,8,10,12,14,-1,-1,-1,-1,-1,-1,-1,-1],"split_conditions":[4.62E-1,6E-1,8E-1,-6.2E0,1.7E1,4.77E-1,6E0,-1.6649517E-3,1.4704692E-3,-1.2728615E-3,-3.662644E-3,4.2490987E-3,-1.0589376E-5,1.728923E-3,-1.198662E-3],"split_indices":[3,77,77,25,47,59,77,0,0,0,0,0,0,0,0],"split_type":[0,0,0,0,0,0,0,0,0,0,0,0,0,0,0],"sum_hessian":[3.843885E3,1.3974266E3,2.4464585E3,7.495721E2,6.478545E2,1.2570574E3,1.1894011E3,2.5750323E2,4.9206885E2,2.1993323E2,4.2792126E2,1.1592288E3,9.782851E1,8.413211E2,3.4808002E2],"tree_param":{"num_deleted":"0","num_feature":"106","num_nodes":"15","size_leaf_vector":"1"}},{"base_weights":[-1.1889877E-1,-2.3513821E-1,1.3693137E-1,-7.3859416E-2,-3.5131463E-1,3.049673E-1,-1.9061366E-2,-2.909615E-3,-1.9018587E-5,-2.9268058E-3,-5.0947526E-3,-1.5483049E-3,3.3099432E-3,1.0512936E-3,-1.7815124E-3],"categories":[],"categories_nodes":[],"categories_segments":[],"categories_sizes":[],"default_left":[0,0,0,0,0,0,0,0,0,0,0,0,0,0,0],"id":60,"left_children":[1,3,5,7,9,11,13,-1,-1,-1,-1,-1,-1,-1,-1],"loss_changes":[1.1470837E2,4.9649963E1,3.1608456E1,1.7327633E1,1.4198471E1,6.9672737E0,1.2348659E1,0E0,0E0,0E0,0E0,0E0,0E0,0E0,0E0],"parents":[2147483647,0,0,1,1,2,2,3,3,4,4,5,5,6,6],"right_children":[2,4,6,8,10,12,14,-1,-1,-1,-1,-1,-1,-1,-1],"split_conditions":[2.1E1,1.2E1,1.5E1,5E0,2.6E1,7.06E-1,3.48E-1,-2.909615E-3,-1.9018587E-5,-2.9268058E-3,-5.0947526E-3,-1.5483049E-3,3.3099432E-3,1.0512936E-3,-1.7815124E-3],"split_indices":[51,81,103,29,103,65,3,0,0,0,0,0,0,0,0],"split_type":[0,0,0,0,0,0,0,0,0,0,0,0,0,0,0],"sum_hessian":[3.8568186E3,2.652172E3,1.2046465E3,1.1109501E3,1.5412219E3,5.8019934E2,6.244472E2,2.7613452E2,8.348155E2,1.1250542E3,4.1616782E2,3.0850588E1,5.4934875E2,3.5035446E2,2.7409274E2],"tree_param":{"num_deleted":"0","num_feature":"106","num_nodes":"15","size_leaf_vector":"1"}},{"base_weights":[1.0981779E-1,2.0897906E-1,-1.7074239E-1,4.04531E-1,1.1458087E-1,-7.693693E-2,-3.868389E-1,3.0559665E-3,5.2563823E-3,2.839406E-3,2.5660358E-4,8.4761516E-5,-2.876972E-3,3.9308863E-5,-4.249274E-3],"categories":[],"categories_nodes":[],"categories_segments":[],"categories_sizes":[],"default_left":[0,0,0,0,0,0,0,0,0,0,0,0,0,0,0],"id":61,"left_children":[1,3,5,7,9,11,13,-1,-1,-1,-1,-1,-1,-1,-1],"loss_changes":[1.0725465E2,5.2527237E1,2.0353039E1,1.100798E1,2.890751E1,1.2670249E1,4.571533E0,0E0,0E0,0E0,0E0,0E0,0E0,0E0,0E0],"parents":[2147483647,0,0,1,1,2,2,3,3,4,4,5,5,6,6],"right_children":[2,4,6,8,10,12,14,-1,-1,-1,-1,-1,-1,-1,-1],"split_conditions":[2.1E1,-1.5E0,2.6E0,2.3E1,7E0,2.7E1,8E0,3.0559665E-3,5.2563823E-3,2.839406E-3,2.5660358E-4,8.4761516E-5,-2.876972E-3,3.9308863E-5,-4.249274E-3],"split_indices":[28,77,77,1,27,47,53,0,0,0,0,0,0,0,0],"split_type":[0,0,0,0,0,0,0,0,0,0,0,0,0,0,0],"sum_hessian":[3.8548442E3,2.8484644E3,1.00638E3,9.2691406E2,1.9215502E3,7.021721E2,3.0420792E2,5.1080643E2,4.161076E2,6.6108704E2,1.2604631E3,4.994042E2,2.027679E2,2.6792599E1,2.7741534E2],"tree_param":{"num_deleted":"0","num_feature":"106","num_nodes":"15","size_leaf_vector":"1"}},{"base_weights":[-1.04498304E-1,1.3407794E-1,-2.2306684E-1,-5.680346E-2,2.6010272E-1,-2.83454E-1,1.2449707E-1,8.528611E-4,-1.6684375E-3,4.333396E-3,1.7637074E-3,-4.5240913E-3,-2.081034E-3,4.691592E-3,7.3841296E-4],"categories":[],"categories_nodes":[],"categories_segments":[],"categories_sizes":[],"default_left":[0,0,0,0,0,0,0,0,0,0,0,0,0,0,0],"id":62,"left_children":[1,3,5,7,9,11,13,-1,-1,-1,-1,-1,-1,-1,-1],"loss_changes":[1.07930084E2,3.0484495E1,5.3514587E1,7.8797903E0,1.1000252E1,2.7573242E1,6.5262685E0,0E0,0E0,0E0,0E0,0E0,0E0,0E0,0E0],"parents":[2147483647,0,0,1,1,2,2,3,3,4,4,5,5,6,6],"right_children":[2,4,6,8,10,12,14,-1,-1,-1,-1,-1,-1,-1,-1],"split_conditions":[-1.6E0,-1.2E0,6E0,-5.7E0,-7.1E0,-2.4E0,2E0,8.528611E-4,-1.6684375E-3,4.333396E-3,1.7637074E-3,-4.5240913E-3,-2.081034E-3,4.691592E-3,7.3841296E-4],"split_indices":[25,77,77,25,25,77,98,0,0,0,0,0,0,0,0],"split_type":[0,0,0,0,0,0,0,0,0,0,0,0,0,0,0],"sum_hessian":[3.814931E3,1.266235E3,2.5486958E3,5.0325278E2,7.629822E2,2.1716848E3,3.7701117E2,2.1925432E2,2.8399847E2,2.4808864E2,5.1489355E2,6.692436E2,1.5024412E3,4.7951138E1,3.2906003E2],"tree_param":{"num_deleted":"0","num_feature":"106","num_nodes":"15","size_leaf_vector":"1"}},{"base_weights":[1.1048799E-1,-1.393737E-1,2.3543781E-1,1.0930763E-2,-3.0848128E-1,7.534753E-2,3.5486552E-1,-1.4842227E-3,1.459289E-3,-3.194542E-3,8.550552E-3,1.7360342E-3,-9.753487E-4,2.8914514E-3,5.029474E-3],"categories":[],"categories_nodes":[],"categories_segments":[],"categories_sizes":[],"default_left":[0,0,0,0,0,0,0,0,0,0,0,0,0,0,0],"id":63,"left_children":[1,3,5,7,9,11,13,-1,-1,-1,-1,-1,-1,-1,-1],"loss_changes":[1.1990335E2,3.2564117E1,4.8904877E1,1.457542E1,7.667782E0,1.8599531E1,1.4173172E1,0E0,0E0,0E0,0E0,0E0,0E0,0E0,0E0],"parents":[2147483647,0,0,1,1,2,2,3,3,4,4,5,5,6,6],"right_children":[2,4,6,8,10,12,14,-1,-1,-1,-1,-1,-1,-1,-1],"split_conditions":[4.41E-1,5.14E-1,1.1E1,-5.4E0,2.45E1,1.3E1,2.4E1,-1.4842227E-3,1.459289E-3,-3.194542E-3,8.550552E-3,1.7360342E-3,-9.753487E-4,2.8914514E-3,5.029474E-3],"split_indices":[3,55,80,25,63,51,80,0,0,0,0,0,0,0,0],"split_type":[0,0,0,0,0,0,0,0,0,0,0,0,0,0,0],"sum_hessian":[3.84006E3,1.2798789E3,2.5601812E3,6.773478E2,6.025312E2,1.0942982E3,1.4658828E3,3.103074E2,3.6704034E2,5.97059E2,5.472172E0,6.981118E2,3.9618646E2,1.0159595E3,4.499234E2],"tree_param":{"num_deleted":"0","num_feature":"106","num_nodes":"15","size_leaf_vector":"1"}},{"base_weights":[-1.0441666E-1,1.3749626E-1,-2.1849293E-1,-5.973485E-2,2.3766945E-1,-6.0350444E-2,-3.3461785E-1,-4.0567684E-4,-8.542144E-3,3.794564E-3,1.682229E-3,-2.2058059E-3,5.9020217E-4,-2.761045E-3,-4.945559E-3],"categories":[],"categories_nodes":[],"categories_segments":[],"categories_sizes":[],"default_left":[0,0,0,0,0,0,0,0,0,0,0,0,0,0,0],"id":64,"left_children":[1,3,5,7,9,11,13,-1,-1,-1,-1,-1,-1,-1,-1],"loss_changes":[1.0544679E2,2.4203918E1,4.764363E1,6.181694E0,7.9357147E0,2.1054964E1,1.3917343E1,0E0,0E0,0E0,0E0,0E0,0E0,0E0,0E0],"parents":[2147483647,0,0,1,1,2,2,3,3,4,4,5,5,6,6],"right_children":[2,4,6,8,10,12,14,-1,-1,-1,-1,-1,-1,-1,-1],"split_conditions":[-1.8E0,-1.8E0,1.2E1,3.87E-1,-7.1E0,9E0,2.6E1,-4.0567684E-4,-8.542144E-3,3.794564E-3,1.682229E-3,-2.2058059E-3,5.9020217E-4,-2.761045E-3,-4.945559E-3],"split_indices":[25,77,81,10,25,51,103,0,0,0,0,0,0,0,0],"split_type":[0,0,0,0,0,0,0,0,0,0,0,0,0,0,0],"sum_hessian":[3.820515E3,1.2239916E3,2.5965234E3,4.1194824E2,8.120433E2,1.099798E3,1.4967256E3,4.0246948E2,9.478778E0,2.6635266E2,5.456906E2,4.6986087E2,6.29937E2,1.0964772E3,4.0024835E2],"tree_param":{"num_deleted":"0","num_feature":"106","num_nodes":"15","size_leaf_vector":"1"}},{"base_weights":[1.02482036E-1,2.0051338E-1,-1.6872714E-1,8.923728E-2,3.876963E-1,-9.0624474E-4,-3.3067563E-1,2.761627E-3,-1.1759542E-4,3.1076865E-3,5.0060973E-3,-8.4902294E-4,1.9192597E-3,-2.6899874E-3,-5.3241826E-3],"categories":[],"categories_nodes":[],"categories_segments":[],"categories_sizes":[],"default_left":[0,0,0,0,0,0,0,0,0,0,0,0,0,0,0],"id":65,"left_children":[1,3,5,7,9,11,13,-1,-1,-1,-1,-1,-1,-1,-1],"loss_changes":[1.0209624E2,5.8701073E1,2.7668024E1,3.3433033E1,9.034988E0,8.10485E0,6.355797E0,0E0,0E0,0E0,0E0,0E0,0E0,0E0,0E0],"parents":[2147483647,0,0,1,1,2,2,3,3,4,4,5,5,6,6],"right_children":[2,4,6,8,10,12,14,-1,-1,-1,-1,-1,-1,-1,-1],"split_conditions":[2.2E1,1.7E1,0E0,7E0,2.6E1,2.6E1,2.1E1,2.761627E-3,-1.1759542E-4,3.1076865E-3,5.0060973E-3,-8.4902294E-4,1.9192597E-3,-2.6899874E-3,-5.3241826E-3],"split_indices":[29,80,77,27,103,81,30,0,0,0,0,0,0,0,0],"split_type":[0,0,0,0,0,0,0,0,0,0,0,0,0,0,0],"sum_hessian":[3.8397344E3,2.8205957E3,1.0191386E3,1.7694054E3,1.0511904E3,5.0084772E2,5.182909E2,6.2095514E2,1.1484502E3,6.2597577E2,4.2521466E2,3.4927924E2,1.5156847E2,3.974969E2,1.20794E2],"tree_param":{"num_deleted":"0","num_feature":"106","num_nodes":"15","size_leaf_vector":"1"}},{"base_weights":[-1.0226264E-1,-2.610161E-1,4.999937E-2,-3.2548448E-1,8.63911E-2,1.5498677E-1,-1.6857313E-1,-2.6826977E-3,-5.4180324E-3,1.2393993E-3,-5.525272E-3,9.5325883E-4,3.2827335E-3,6.473494E-4,-2.7896604E-3],"categories":[],"categories_nodes":[],"categories_segments":[],"categories_sizes":[],"default_left":[0,0,0,0,0,0,0,0,0,0,0,0,0,0,0],"id":66,"left_children":[1,3,5,7,9,11,13,-1,-1,-1,-1,-1,-1,-1,-1],"loss_changes":[9.189928E1,4.1710327E1,4.4516846E1,1.9336914E1,6.9488554E0,1.3506235E1,1.6228361E1,0E0,0E0,0E0,0E0,0E0,0E0,0E0,0E0],"parents":[2147483647,0,0,1,1,2,2,3,3,4,4,5,5,6,6],"right_children":[2,4,6,8,10,12,14,-1,-1,-1,-1,-1,-1,-1,-1],"split_conditions":[1.5E1,6E0,2.1E1,2.4E1,1.1E1,2.7E1,-5.1E0,-2.6826977E-3,-5.4180324E-3,1.2393993E-3,-5.525272E-3,9.5325883E-4,3.2827335E-3,6.473494E-4,-2.7896604E-3],"split_indices":[51,77,103,79,25,51,25,0,0,0,0,0,0,0,0],"split_type":[0,0,0,0,0,0,0,0,0,0,0,0,0,0,0],"sum_hessian":[3.8008438E3,1.8610431E3,1.9398005E3,1.5699934E3,2.9104965E2,1.3107107E3,6.2908984E2,1.2421422E3,3.2785126E2,2.7511826E2,1.5931414E1,9.7556525E2,3.3514545E2,2.0177896E2,4.2731088E2],"tree_param":{"num_deleted":"0","num_feature":"106","num_nodes":"15","size_leaf_vector":"1"}},{"base_weights":[1.066789E-1,2.6562792E-1,-6.9404736E-2,3.512496E-1,3.8954332E-2,1.428612E-1,-1.7219841E-1,2.899343E-3,5.3974153E-3,1.1646957E-3,-1.3768707E-3,-1.2759856E-3,2.6301392E-3,-1.0630607E-3,-3.418182E-3],"categories":[],"categories_nodes":[],"categories_segments":[],"categories_sizes":[],"default_left":[0,0,0,0,0,0,0,0,0,0,0,0,0,0,0],"id":67,"left_children":[1,3,5,7,9,11,13,-1,-1,-1,-1,-1,-1,-1,-1],"loss_changes":[1.0769026E2,3.9205887E1,3.982329E1,1.686084E1,7.596626E0,1.9356604E1,1.3696995E1,0E0,0E0,0E0,0E0,0E0,0E0,0E0,0E0],"parents":[2147483647,0,0,1,1,2,2,3,3,4,4,5,5,6,6],"right_children":[2,4,6,8,10,12,14,-1,-1,-1,-1,-1,-1,-1,-1],"split_conditions":[1.6E1,3.8E0,-1.9E0,2.4E1,7.7E0,3.23E-1,2.7E1,2.899343E-3,5.3974153E-3,1.1646957E-3,-1.3768707E-3,-1.2759856E-3,2.6301392E-3,-1.0630607E-3,-3.418182E-3],"split_indices":[51,77,77,79,77,3,51,0,0,0,0,0,0,0,0],"split_type":[0,0,0,0,0,0,0,0,0,0,0,0,0,0,0],"sum_hessian":[3.8468193E3,2.0220507E3,1.8247687E3,1.4673068E3,5.5474384E2,5.9503235E2,1.2297363E3,1.1077474E3,3.5955942E2,3.8596967E2,1.687742E2,1.8277454E2,4.1225784E2,8.8621857E2,3.4351776E2],"tree_param":{"num_deleted":"0","num_feature":"106","num_nodes":"15","size_leaf_vector":"1"}},{"base_weights":[-1.0092583E-1,-2.0542672E-1,1.813931E-1,-2.6385605E-1,1.1172102E-1,-1.5419619E-3,3.093151E-1,-2.0992563E-3,-4.5933817E-3,1.4412289E-3,-4.846995E-3,9.904088E-4,-1.7385612E-3,4.3294714E-3,2.1561235E-3],"categories":[],"categories_nodes":[],"categories_segments":[],"categories_sizes":[],"default_left":[0,0,0,0,0,0,0,0,0,0,0,0,0,0,0],"id":68,"left_children":[1,3,5,7,9,11,13,-1,-1,-1,-1,-1,-1,-1,-1],"loss_changes":[1.14184326E2,5.2365402E1,2.4492783E1,2.5074615E1,8.46204E0,7.4608803E0,7.055916E0,0E0,0E0,0E0,0E0,0E0,0E0,0E0,0E0],"parents":[2147483647,0,0,1,1,2,2,3,3,4,4,5,5,6,6],"right_children":[2,4,6,8,10,12,14,-1,-1,-1,-1,-1,-1,-1,-1],"split_conditions":[2.1E1,5.8E0,-7E-1,2.4E1,1.06E1,-4.3E0,-6.4E0,-2.0992563E-3,-4.5933817E-3,1.4412289E-3,-4.846995E-3,9.904088E-4,-1.7385612E-3,4.3294714E-3,2.1561235E-3],"split_indices":[28,77,77,79,25,25,25,0,0,0,0,0,0,0,0],"split_type":[0,0,0,0,0,0,0,0,0,0,0,0,0,0,0],"sum_hessian":[3.8700083E3,2.8247888E3,1.0452195E3,2.385611E3,4.3917792E2,4.2984128E2,6.1537823E2,1.8703345E3,5.1527655E2,4.1677896E2,2.2398952E1,2.7107318E2,1.5876807E2,2.6470087E2,3.506774E2],"tree_param":{"num_deleted":"0","num_feature":"106","num_nodes":"15","size_leaf_vector":"1"}},{"base_weights":[1.065294E-1,2.0375222E-1,-1.6595969E-1,1.0994005E-1,4.108337E-1,-4.6531174E-2,-3.803578E-1,1.7349366E-3,-9.701915E-4,2.5809729E-3,4.7245394E-3,-1.7038147E-3,1.2108728E-3,2.9235526E-3,-3.978796E-3],"categories":[],"categories_nodes":[],"categories_segments":[],"categories_sizes":[],"default_left":[0,0,0,0,0,0,0,0,0,0,0,0,0,0,0],"id":69,"left_children":[1,3,5,7,9,11,13,-1,-1,-1,-1,-1,-1,-1,-1],"loss_changes":[1.0125322E2,5.466961E1,2.568327E1,2.5515974E1,8.177521E0,1.3412077E1,4.2555847E0,0E0,0E0,0E0,0E0,0E0,0E0,0E0,0E0],"parents":[2147483647,0,0,1,1,2,2,3,3,4,4,5,5,6,6],"right_children":[2,4,6,8,10,12,14,-1,-1,-1,-1,-1,-1,-1,-1],"split_conditions":[2.2E1,1.9E1,5.69E-1,5.8E0,-1E-1,-5.1E0,2.97E-1,1.7349366E-3,-9.701915E-4,2.5809729E-3,4.7245394E-3,-1.7038147E-3,1.2108728E-3,2.9235526E-3,-3.978796E-3],"split_indices":[29,80,55,77,25,25,10,0,0,0,0,0,0,0,0],"split_type":[0,0,0,0,0,0,0,0,0,0,0,0,0,0,0],"sum_hessian":[3.821637E3,2.8169534E3,1.00468353E3,1.9391256E3,8.7782776E2,6.456296E2,3.5905392E2,1.4839342E3,4.5519135E2,2.5296135E2,6.2486646E2,3.7163214E2,2.7399747E2,8.929977E0,3.5012393E2],"tree_param":{"num_deleted":"0","num_feature":"106","num_nodes":"15","size_leaf_vector":"1"}},{"base_weights":[-1.0358356E-1,1.46228E-1,-2.1517079E-1,4.581472E-2,3.458969E-1,-8.843421E-3,-3.060142E-1,1.5834483E-3,-9.2404353E-4,3.7244814E-3,-3.2245778E-3,-2.5802522E-3,6.2427716E-4,-4.3173223E-3,-2.2967453E-3],"categories":[],"categories_nodes":[],"categories_segments":[],"categories_sizes":[],"default_left":[0,0,0,0,0,0,0,0,0,0,0,0,0,0,0],"id":70,"left_children":[1,3,5,7,9,11,13,-1,-1,-1,-1,-1,-1,-1,-1],"loss_changes":[1.0689545E2,2.3691624E1,4.9652596E1,1.22653265E1,7.0396385E0,1.4419834E1,1.7583817E1,0E0,0E0,0E0,0E0,0E0,0E0,0E0,0E0],"parents":[2147483647,0,0,1,1,2,2,3,3,4,4,5,5,6,6],"right_children":[2,4,6,8,10,12,14,-1,-1,-1,-1,-1,-1,-1,-1],"split_conditions":[-2E0,2.3E0,9E0,-5.1E0,1E1,5E0,-2.5E0,1.5834483E-3,-9.2404353E-4,3.7244814E-3,-3.2245778E-3,-2.5802522E-3,6.2427716E-4,-4.3173223E-3,-2.2967453E-3],"split_indices":[25,77,103,25,19,29,77,0,0,0,0,0,0,0,0],"split_type":[0,0,0,0,0,0,0,0,0,0,0,0,0,0,0],"sum_hessian":[3.8342473E3,1.1835944E3,2.650653E3,7.879559E2,3.956384E2,8.106597E2,1.8399934E3,4.3473132E2,3.5322458E2,3.807082E2,1.4930221E1,1.8055058E2,6.3010913E2,6.944995E2,1.1454939E3],"tree_param":{"num_deleted":"0","num_feature":"106","num_nodes":"15","size_leaf_vector":"1"}},{"base_weights":[1.0286221E-1,2.5675973E-1,-4.369288E-2,-1.14886835E-1,3.0916634E-1,-1.4265071E-1,1.9653945E-1,2.3485862E-3,-1.8741708E-3,2.5482418E-3,5.2460996E-3,-2.9654796E-3,-6.659615E-4,3.3232656E-3,6.863231E-4],"categories":[],"categories_nodes":[],"categories_segments":[],"categories_sizes":[],"default_left":[0,0,0,0,0,0,0,0,0,0,0,0,0,0,0],"id":71,"left_children":[1,3,5,7,9,11,13,-1,-1,-1,-1,-1,-1,-1,-1],"loss_changes":[8.6605515E1,3.650023E1,4.6736813E1,5.8669405E0,1.91288E1,1.626428E1,9.915585E0,0E0,0E0,0E0,0E0,0E0,0E0,0E0,0E0],"parents":[2147483647,0,0,1,1,2,2,3,3,4,4,5,5,6,6],"right_children":[2,4,6,8,10,12,14,-1,-1,-1,-1,-1,-1,-1,-1],"split_conditions":[1.5E1,4E0,2.2E1,3E0,2.4E1,8E0,2.1E1,2.3485862E-3,-1.8741708E-3,2.5482418E-3,5.2460996E-3,-2.9654796E-3,-6.659615E-4,3.3232656E-3,6.863231E-4],"split_indices":[51,103,103,94,79,103,28,0,0,0,0,0,0,0,0],"split_type":[0,0,0,0,0,0,0,0,0,0,0,0,0,0,0],"sum_hessian":[3.8387444E3,1.8727628E3,1.9659817E3,2.3119473E2,1.6415681E3,1.3927352E3,5.7324634E2,3.943485E1,1.9175989E2,1.3114569E3,3.3011115E2,4.6010425E2,9.3263104E2,2.7760123E2,2.956451E2],"tree_param":{"num_deleted":"0","num_feature":"106","num_nodes":"15","size_leaf_vector":"1"}},{"base_weights":[-9.7146474E-2,4.4596225E-2,-2.5097343E-1,-1.9402148E-1,1.4374858E-1,-3.1077284E-1,7.3159955E-2,7.9446257E-4,-2.8463914E-3,5.9625914E-4,2.60793E-3,-2.720822E-3,-5.8799153E-3,-2.3515083E-4,3.974478E-3],"categories":[],"categories_nodes":[],"categories_segments":[],"categories_sizes":[],"default_left":[0,0,0,0,0,0,0,0,0,0,0,0,0,0,0],"id":72,"left_children":[1,3,5,7,9,11,13,-1,-1,-1,-1,-1,-1,-1,-1],"loss_changes":[8.300525E1,4.6855495E1,3.540979E1,1.4423592E1,1.3745811E1,1.643129E1,8.946647E0,0E0,0E0,0E0,0E0,0E0,0E0,0E0,0E0],"parents":[2147483647,0,0,1,1,2,2,3,3,4,4,5,5,6,6],"right_children":[2,4,6,8,10,12,14,-1,-1,-1,-1,-1,-1,-1,-1],"split_conditions":[6E-1,-2.4E0,6E0,-6.2E0,2.9E0,2.7E1,2.65E1,7.9446257E-4,-2.8463914E-3,5.9625914E-4,2.60793E-3,-2.720822E-3,-5.8799153E-3,-2.3515083E-4,3.974478E-3],"split_indices":[25,77,77,25,77,81,69,0,0,0,0,0,0,0,0],"split_type":[0,0,0,0,0,0,0,0,0,0,0,0,0,0,0],"sum_hessian":[3.8058096E3,1.9804032E3,1.8254065E3,5.8102295E2,1.3993802E3,1.5413545E3,2.8405197E2,1.4433995E2,4.36683E2,8.14782E2,5.8459827E2,1.3530693E3,1.8828517E2,2.1865273E2,6.539925E1],"tree_param":{"num_deleted":"0","num_feature":"106","num_nodes":"15","size_leaf_vector":"1"}},{"base_weights":[1.0507932E-1,-1.2492306E-1,2.143534E-1,8.457214E-3,-2.7353123E-1,3.320097E-1,6.1185077E-2,-6.2906166E-4,1.7550604E-3,1.0589379E-3,-3.1177467E-3,2.5894882E-3,4.530426E-3,-2.6310305E-4,2.317943E-3],"categories":[],"categories_nodes":[],"categories_segments":[],"categories_sizes":[],"default_left":[0,0,0,0,0,0,0,0,0,0,0,0,0,0,0],"id":73,"left_children":[1,3,5,7,9,11,13,-1,-1,-1,-1,-1,-1,-1,-1],"loss_changes":[9.634186E1,2.4490843E1,4.6789436E1,7.7632837E0,8.500153E0,1.290979E1,1.6880905E1,0E0,0E0,0E0,0E0,0E0,0E0,0E0,0E0],"parents":[2147483647,0,0,1,1,2,2,3,3,4,4,5,5,6,6],"right_children":[2,4,6,8,10,12,14,-1,-1,-1,-1,-1,-1,-1,-1],"split_conditions":[4.35E-1,4E-1,1.4E0,2.6E1,5E0,2.3E1,6.39E-1,-6.2906166E-4,1.7550604E-3,1.0589379E-3,-3.1177467E-3,2.5894882E-3,4.530426E-3,-2.6310305E-4,2.317943E-3],"split_indices":[3,77,77,103,53,79,3,0,0,0,0,0,0,0,0],"split_type":[0,0,0,0,0,0,0,0,0,0,0,0,0,0,0],"sum_hessian":[3.8326733E3,1.2341271E3,2.5985461E3,6.500812E2,5.840459E2,1.4692056E3,1.1293406E3,4.551181E2,1.9496306E2,5.3222023E1,5.308239E2,9.1687756E2,5.5232806E2,7.461717E2,3.831689E2],"tree_param":{"num_deleted":"0","num_feature":"106","num_nodes":"15","size_leaf_vector":"1"}},{"base_weights":[-9.812265E-2,-1.9342302E-1,1.6402204E-1,-1.0533017E-1,-4.1525155E-1,-1.0908165E-2,2.8856167E-1,-2.5627394E-3,-2.591868E-4,-4.861102E-3,-3.1028907E-3,-1.3858469E-3,9.688057E-4,4.3581817E-3,1.7140644E-3],"categories":[],"categories_nodes":[],"categories_segments":[],"categories_sizes":[],"default_left":[0,0,0,0,0,0,0,0,0,0,0,0,0,0,0],"id":74,"left_children":[1,3,5,7,9,11,13,-1,-1,-1,-1,-1,-1,-1,-1],"loss_changes":[9.6032486E1,5.503636E1,2.2349247E1,2.4164667E1,5.8627167E0,5.8661027E0,1.0262688E1,0E0,0E0,0E0,0E0,0E0,0E0,0E0,0E0],"parents":[2147483647,0,0,1,1,2,2,3,3,4,4,5,5,6,6],"right_children":[2,4,6,8,10,12,14,-1,-1,-1,-1,-1,-1,-1,-1],"split_conditions":[2.1E1,2E1,-7E-1,7E0,4.39E1,1.9E1,-6.2E0,-2.5627394E-3,-2.591868E-4,-4.861102E-3,-3.1028907E-3,-1.3858469E-3,9.688057E-4,4.3581817E-3,1.7140644E-3],"split_indices":[28,80,77,27,68,44,25,0,0,0,0,0,0,0,0],"split_type":[0,0,0,0,0,0,0,0,0,0,0,0,0,0,0],"sum_hessian":[3.8436477E3,2.819171E3,1.0244768E3,2.0182706E3,8.0090015E2,4.2575018E2,5.987266E2,6.952573E2,1.3230133E3,4.7733936E2,3.2356082E2,1.9530692E2,2.3044327E2,2.6478433E2,3.339423E2],"tree_param":{"num_deleted":"0","num_feature":"106","num_nodes":"15","size_leaf_vector":"1"}},{"base_weights":[1.03798546E-1,-1.4587939E-1,2.0275715E-1,-4.290519E-3,-2.995506E-1,4.78088E-2,3.1915697E-1,1.4285487E-3,-1.0189613E-3,8.31553E-4,-3.4456179E-3,1.939464E-3,-7.962942E-4,4.8060464E-3,2.653677E-3],"categories":[],"categories_nodes":[],"categories_segments":[],"categories_sizes":[],"default_left":[0,0,0,0,0,0,0,0,0,0,0,0,0,0,0],"id":75,"left_children":[1,3,5,7,9,11,13,-1,-1,-1,-1,-1,-1,-1,-1],"loss_changes":[9.4877785E1,2.367789E1,4.9562675E1,8.14866E0,9.024151E0,2.1992403E1,1.354689E1,0E0,0E0,0E0,0E0,0E0,0E0,0E0,0E0],"parents":[2147483647,0,0,1,1,2,2,3,3,4,4,5,5,6,6],"right_children":[2,4,6,8,10,12,14,-1,-1,-1,-1,-1,-1,-1,-1],"split_conditions":[-2.4E0,3E-1,1.1E1,3.25E1,5E0,1E1,-5.7E0,1.4285487E-3,-1.0189613E-3,8.31553E-4,-3.4456179E-3,1.939464E-3,-7.962942E-4,4.8060464E-3,2.653677E-3],"split_indices":[25,77,80,67,53,51,77,0,0,0,0,0,0,0,0],"split_type":[0,0,0,0,0,0,0,0,0,0,0,0,0,0,0],"sum_hessian":[3.839546E3,1.0895342E3,2.7500117E3,5.674517E2,5.220825E2,1.1800975E3,1.5699143E3,2.2587015E2,3.4158154E2,5.4699127E1,4.673834E2,5.500591E2,6.300384E2,3.9166992E2,1.1782444E3],"tree_param":{"num_deleted":"0","num_feature":"106","num_nodes":"15","size_leaf_vector":"1"}},{"base_weights":[-1.0776101E-1,1.00061074E-1,-2.3039283E-1,-2.6875315E-2,2.8521496E-1,-3.2258096E-1,-2.4830807E-2,1.1541655E-3,-1.2641357E-3,3.0372345E-3,-6.2291375E-3,-2.66751E-3,-4.817093E-3,1.2788466E-3,-1.1608419E-3],"categories":[],"categories_nodes":[],"categories_segments":[],"categories_sizes":[],"default_left":[0,0,0,0,0,0,0,0,0,0,0,0,0,0,0],"id":76,"left_children":[1,3,5,7,9,11,13,-1,-1,-1,-1,-1,-1,-1,-1],"loss_changes":[9.811247E1,3.359279E1,4.5844116E1,1.1999991E1,9.756062E0,1.4758575E1,1.0452664E1,0E0,0E0,0E0,0E0,0E0,0E0,0E0,0E0],"parents":[2147483647,0,0,1,1,2,2,3,3,4,4,5,5,6,6],"right_children":[2,4,6,8,10,12,14,-1,-1,-1,-1,-1,-1,-1,-1],"split_conditions":[4.62E-1,5.45E-1,3.1E0,3.33E-1,1E1,2.4E1,4E0,1.1541655E-3,-1.2641357E-3,3.0372345E-3,-6.2291375E-3,-2.66751E-3,-4.817093E-3,1.2788466E-3,-1.1608419E-3],"split_indices":[3,55,77,3,19,79,103,0,0,0,0,0,0,0,0],"split_type":[0,0,0,0,0,0,0,0,0,0,0,0,0,0,0],"sum_hessian":[3.8490205E3,1.4280801E3,2.4209404E3,8.4696783E2,5.811123E2,1.671004E3,7.499364E2,3.481953E2,4.9877255E2,5.696784E2,1.143388E1,1.2376665E3,4.333375E2,2.8007907E2,4.6985736E2],"tree_param":{"num_deleted":"0","num_feature":"106","num_nodes":"15","size_leaf_vector":"1"}},{"base_weights":[9.6462E-2,-1.3547166E-1,2.0213713E-1,-2.1109952E-1,1.4452608E-1,4.709144E-2,3.1618884E-1,-3.643115E-3,-1.4736663E-3,-7.822586E-4,2.9017313E-3,-4.3167826E-4,1.9665887E-3,2.586905E-3,4.8205196E-3],"categories":[],"categories_nodes":[],"categories_segments":[],"categories_sizes":[],"default_left":[0,0,0,0,0,0,0,0,0,0,0,0,0,0,0],"id":77,"left_children":[1,3,5,7,9,11,13,-1,-1,-1,-1,-1,-1,-1,-1],"loss_changes":[9.3881424E1,2.5390747E1,4.649578E1,9.16151E0,8.285879E0,1.507938E1,1.4369476E1,0E0,0E0,0E0,0E0,0E0,0E0,0E0,0E0],"parents":[2147483647,0,0,1,1,2,2,3,3,4,4,5,5,6,6],"right_children":[2,4,6,8,10,12,14,-1,-1,-1,-1,-1,-1,-1,-1],"split_conditions":[-2E0,2.4E1,1.1E1,8E0,-6.2E0,6.25E-1,2.6E1,-3.643115E-3,-1.4736663E-3,-7.822586E-4,2.9017313E-3,-4.3167826E-4,1.9665887E-3,2.586905E-3,4.8205196E-3],"split_indices":[25,81,80,103,25,3,103,0,0,0,0,0,0,0,0],"split_type":[0,0,0,0,0,0,0,0,0,0,0,0,0,0,0],"sum_hessian":[3.8299072E3,1.1984966E3,2.6314106E3,9.439231E2,2.5457346E2,1.1157039E3,1.5157068E3,2.7670114E2,6.67222E2,1.0039284E2,1.5418063E2,6.954339E2,4.2027E2,1.126167E3,3.895398E2],"tree_param":{"num_deleted":"0","num_feature":"106","num_nodes":"15","size_leaf_vector":"1"}},{"base_weights":[-1.0910455E-1,-2.0477647E-1,1.526032E-1,-2.6142126E-1,9.872655E-2,4.4417556E-2,3.5636285E-1,-1.9384926E-3,-4.3858374E-3,7.222014E-5,2.8244897E-3,1.5491876E-3,-9.6082006E-4,2.4028174E-3,4.564884E-3],"categories":[],"categories_nodes":[],"categories_segments":[],"categories_sizes":[],"default_left":[0,0,0,0,0,0,0,0,0,0,0,0,0,0,0],"id":78,"left_children":[1,3,5,7,9,11,13,-1,-1,-1,-1,-1,-1,-1,-1],"loss_changes":[9.6258354E1,