{"learner":{"attributes":{"best_iteration":"448","best_score":"0.6265630481384531"},"feature_names":[],"feature_types":[],"gradient_booster":{"model":{"gbtree_model_param":{"num_parallel_tree":"1","num_trees":"998"},"iteration_indptr":[0,2,4,6,8,10,12,14,16,18,20,22,24,26,28,30,32,34,36,38,40,42,44,46,48,50,52,54,56,58,60,62,64,66,68,70,72,74,76,78,80,82,84,86,88,90,92,94,96,98,100,102,104,106,108,110,112,114,116,118,120,122,124,126,128,130,132,134,136,138,140,142,144,146,148,150,152,154,156,158,160,162,164,166,168,170,172,174,176,178,180,182,184,186,188,190,192,194,196,198,200,202,204,206,208,210,212,214,216,218,220,222,224,226,228,230,232,234,236,238,240,242,244,246,248,250,252,254,256,258,260,262,264,266,268,270,272,274,276,278,280,282,284,286,288,290,292,294,296,298,300,302,304,306,308,310,312,314,316,318,320,322,324,326,328,330,332,334,336,338,340,342,344,346,348,350,352,354,356,358,360,362,364,366,368,370,372,374,376,378,380,382,384,386,388,390,392,394,396,398,400,402,404,406,408,410,412,414,416,418,420,422,424,426,428,430,432,434,436,438,440,442,444,446,448,450,452,454,456,458,460,462,464,466,468,470,472,474,476,478,480,482,484,486,488,490,492,494,496,498,500,502,504,506,508,510,512,514,516,518,520,522,524,526,528,530,532,534,536,538,540,542,544,546,548,550,552,554,556,558,560,562,564,566,568,570,572,574,576,578,580,582,584,586,588,590,592,594,596,598,600,602,604,606,608,610,612,614,616,618,620,622,624,626,628,630,632,634,636,638,640,642,644,646,648,650,652,654,656,658,660,662,664,666,668,670,672,674,676,678,680,682,684,686,688,690,692,694,696,698,700,702,704,706,708,710,712,714,716,718,720,722,724,726,728,730,732,734,736,738,740,742,744,746,748,750,752,754,756,758,760,762,764,766,768,770,772,774,776,778,780,782,784,786,788,790,792,794,796,798,800,802,804,806,808,810,812,814,816,818,820,822,824,826,828,830,832,834,836,838,840,842,844,846,848,850,852,854,856,858,860,862,864,866,868,870,872,874,876,878,880,882,884,886,888,890,892,894,896,898,900,902,904,906,908,910,912,914,916,918,920,922,924,926,928,930,932,934,936,938,940,942,944,946,948,950,952,954,956,958,960,962,964,966,968,970,972,974,976,978,980,982,984,986,988,990,992,994,996,998],"tree_info":[0,1,0,1,0,1,0,1,0,1,0,1,0,1,0,1,0,1,0,1,0,1,0,1,0,1,0,1,0,1,0,1,0,1,0,1,0,1,0,1,0,1,0,1,0,1,0,1,0,1,0,1,0,1,0,1,0,1,0,1,0,1,0,1,0,1,0,1,0,1,0,1,0,1,0,1,0,1,0,1,0,1,0,1,0,1,0,1,0,1,0,1,0,1,0,1,0,1,0,1,0,1,0,1,0,1,0,1,0,1,0,1,0,1,0,1,0,1,0,1,0,1,0,1,0,1,0,1,0,1,0,1,0,1,0,1,0,1,0,1,0,1,0,1,0,1,0,1,0,1,0,1,0,1,0,1,0,1,0,1,0,1,0,1,0,1,0,1,0,1,0,1,0,1,0,1,0,1,0,1,0,1,0,1,0,1,0,1,0,1,0,1,0,1,0,1,0,1,0,1,0,1,0,1,0,1,0,1,0,1,0,1,0,1,0,1,0,1,0,1,0,1,0,1,0,1,0,1,0,1,0,1,0,1,0,1,0,1,0,1,0,1,0,1,0,1,0,1,0,1,0,1,0,1,0,1,0,1,0,1,0,1,0,1,0,1,0,1,0,1,0,1,0,1,0,1,0,1,0,1,0,1,0,1,0,1,0,1,0,1,0,1,0,1,0,1,0,1,0,1,0,1,0,1,0,1,0,1,0,1,0,1,0,1,0,1,0,1,0,1,0,1,0,1,0,1,0,1,0,1,0,1,0,1,0,1,0,1,0,1,0,1,0,1,0,1,0,1,0,1,0,1,0,1,0,1,0,1,0,1,0,1,0,1,0,1,0,1,0,1,0,1,0,1,0,1,0,1,0,1,0,1,0,1,0,1,0,1,0,1,0,1,0,1,0,1,0,1,0,1,0,1,0,1,0,1,0,1,0,1,0,1,0,1,0,1,0,1,0,1,0,1,0,1,0,1,0,1,0,1,0,1,0,1,0,1,0,1,0,1,0,1,0,1,0,1,0,1,0,1,0,1,0,1,0,1,0,1,0,1,0,1,0,1,0,1,0,1,0,1,0,1,0,1,0,1,0,1,0,1,0,1,0,1,0,1,0,1,0,1,0,1,0,1,0,1,0,1,0,1,0,1,0,1,0,1,0,1,0,1,0,1,0,1,0,1,0,1,0,1,0,1,0,1,0,1,0,1,0,1,0,1,0,1,0,1,0,1,0,1,0,1,0,1,0,1,0,1,0,1,0,1,0,1,0,1,0,1,0,1,0,1,0,1,0,1,0,1,0,1,0,1,0,1,0,1,0,1,0,1,0,1,0,1,0,1,0,1,0,1,0,1,0,1,0,1,0,1,0,1,0,1,0,1,0,1,0,1,0,1,0,1,0,1,0,1,0,1,0,1,0,1,0,1,0,1,0,1,0,1,0,1,0,1,0,1,0,1,0,1,0,1,0,1,0,1,0,1,0,1,0,1,0,1,0,1,0,1,0,1,0,1,0,1,0,1,0,1,0,1,0,1,0,1,0,1,0,1,0,1,0,1,0,1,0,1,0,1,0,1,0,1,0,1,0,1,0,1,0,1,0,1,0,1,0,1,0,1,0,1,0,1,0,1,0,1,0,1,0,1,0,1,0,1,0,1,0,1,0,1,0,1,0,1,0,1,0,1,0,1,0,1,0,1,0,1,0,1,0,1,0,1,0,1,0,1,0,1,0,1,0,1,0,1,0,1,0,1,0,1,0,1,0,1,0,1,0,1,0,1,0,1,0,1,0,1,0,1,0,1,0,1,0,1,0,1,0,1,0,1,0,1,0,1,0,1,0,1,0,1,0,1,0,1,0,1,0,1,0,1,0,1,0,1,0,1,0,1,0,1,0,1,0,1,0,1,0,1,0,1,0,1,0,1,0,1,0,1,0,1,0,1,0,1,0,1,0,1,0,1,0,1,0,1,0,1,0,1,0,1,0,1,0,1,0,1,0,1,0,1,0,1,0,1,0,1,0,1,0,1,0,1,0,1,0,1,0,1,0,1,0,1,0,1,0,1,0,1,0,1,0,1,0,1,0,1,0,1,0,1,0,1,0,1,0,1,0,1,0,1,0,1,0,1,0,1,0,1,0,1,0,1,0,1,0,1,0,1,0,1,0,1,0,1,0,1,0,1,0,1,0,1,0,1,0,1,0,1,0,1,0,1,0,1,0,1,0,1,0,1,0,1,0,1,0,1,0,1,0,1,0,1,0,1,0,1,0,1],"trees":[{"base_weights":[-1.4891186E-1,1.2266112E-1,-3.205628E-1,-5.4197386E-2,3.1318757E-1,-5.031197E-1,-1.202914E-1,-2.2536418E-3,8.7213423E-4,1.388801E-3,4.498881E-3,-4.4221003E-3,-7.4278843E-3,1.4188164E-3,-2.0055678E-3],"categories":[],"categories_nodes":[],"categories_segments":[],"categories_sizes":[],"default_left":[0,0,0,0,0,0,0,0,0,0,0,0,0,0,0],"id":0,"left_children":[1,3,5,7,9,11,13,-1,-1,-1,-1,-1,-1,-1,-1],"loss_changes":[1.7952237E2,5.0272045E1,8.6200775E1,1.8728539E1,1.7045708E1,1.7864197E1,2.3695187E1,0E0,0E0,0E0,0E0,0E0,0E0,0E0,0E0],"parents":[2147483647,0,0,1,1,2,2,3,3,4,4,5,5,6,6],"right_children":[2,4,6,8,10,12,14,-1,-1,-1,-1,-1,-1,-1,-1],"split_conditions":[4.69E-1,5.14E-1,8E-1,2.4E1,2.4E1,2.7E1,4E0,-2.2536418E-3,8.7213423E-4,1.388801E-3,4.498881E-3,-4.4221003E-3,-7.4278843E-3,1.4188164E-3,-2.0055678E-3],"split_indices":[3,55,77,51,51,79,103,0,0,0,0,0,0,0,0],"split_type":[0,0,0,0,0,0,0,0,0,0,0,0,0,0,0],"sum_hessian":[3.8505E3,1.491E3,2.3595E3,7.73E2,7.18E2,1.234E3,1.1255E3,3.5E2,4.23E2,3.16E2,4.02E2,9.845E2,2.495E2,2.635E2,8.62E2],"tree_param":{"num_deleted":"0","num_feature":"106","num_nodes":"15","size_leaf_vector":"1"}},{"base_weights":[1.3791937E-1,2.7409768E-1,-2.0912617E-1,4.4578314E-1,9.000826E-2,6.3528076E-2,-3.409122E-1,3.4533897E-3,5.9314994E-3,3.0046748E-3,-2.4837512E-4,-2.8927132E-4,3.8190954E-3,-2.2624317E-3,-4.6778386E-3],"categories":[],"categories_nodes":[],"categories_segments":[],"categories_sizes":[],"default_left":[0,0,0,0,0,0,0,0,0,0,0,0,0,0,0],"id":1,"left_children":[1,3,5,7,9,11,13,-1,-1,-1,-1,-1,-1,-1,-1],"loss_changes":[1.8159018E2,8.716092E1,3.892991E1,2.1017181E1,3.222563E1,1.0415545E1,1.0541687E1,0E0,0E0,0E0,0E0,0E0,0E0,0E0,0E0],"parents":[2147483647,0,0,1,1,2,2,3,3,4,4,5,5,6,6],"right_children":[2,4,6,8,10,12,14,-1,-1,-1,-1,-1,-1,-1,-1],"split_conditions":[2.2E1,7E-1,-1.7E0,6E-1,7E0,3.95E-1,2.7E1,3.4533897E-3,5.9314994E-3,3.0046748E-3,-2.4837512E-4,-2.8927132E-4,3.8190954E-3,-2.2624317E-3,-4.6778386E-3],"split_indices":[51,77,77,3,27,3,51,0,0,0,0,0,0,0,0],"split_type":[0,0,0,0,0,0,0,0,0,0,0,0,0,0,0],"sum_hessian":[3.842E3,2.7595E3,1.0825E3,1.4275E3,1.332E3,3.525E2,7.3E2,8.495E2,5.78E2,4.705E2,8.615E2,2.73E2,7.95E1,3.84E2,3.46E2],"tree_param":{"num_deleted":"0","num_feature":"106","num_nodes":"15","size_leaf_vector":"1"}},{"base_weights":[-1.5030079E-1,-2.8742325E-1,1.9731404E-1,-1.1922787E-1,-4.6396396E-1,2.8683844E-1,-2.018902E-1,-3.402588E-3,4.362635E-5,-5.3896103E-3,-3.095512E-3,1.8832616E-3,4.642885E-3,-4.296851E-3,-1.214149E-4],"categories":[],"categories_nodes":[],"categories_segments":[],"categories_sizes":[],"default_left":[0,0,0,0,0,0,0,0,0,0,0,0,0,0,0],"id":2,"left_children":[1,3,5,7,9,11,13,-1,-1,-1,-1,-1,-1,-1,-1],"loss_changes":[1.8608084E2,8.306453E1,3.9472866E1,3.9209328E1,1.5712494E1,1.5695465E1,8.690796E0,0E0,0E0,0E0,0E0,0E0,0E0,0E0,0E0],"parents":[2147483647,0,0,1,1,2,2,3,3,4,4,5,5,6,6],"right_children":[2,4,6,8,10,12,14,-1,-1,-1,-1,-1,-1,-1,-1],"split_conditions":[2.2E1,1.4E1,2.5E1,7E0,1.5E1,2.8E1,1.026E2,-3.402588E-3,4.362635E-5,-5.3896103E-3,-3.095512E-3,1.8832616E-3,4.642885E-3,-4.296851E-3,-1.214149E-4],"split_indices":[51,80,81,27,51,51,76,0,0,0,0,0,0,0,0],"split_type":[0,0,0,0,0,0,0,0,0,0,0,0,0,0,0],"sum_hessian":[3.9034565E3,2.7994658E3,1.1039908E3,1.4339934E3,1.3654723E3,9.019915E2,2.0199939E2,5.1449585E2,9.1949756E2,9.184781E2,4.4699423E2,5.8049603E2,3.2149548E2,9.149974E1,1.1049964E2],"tree_param":{"num_deleted":"0","num_feature":"106","num_nodes":"15","size_leaf_vector":"1"}},{"base_weights":[1.5179561E-1,2.820772E-1,-2.0458862E-1,5.3543293E-1,1.5608789E-1,9.660252E-2,-3.2180482E-1,4.212192E-3,6.6980794E-3,3.5465087E-3,5.312978E-4,-5.518126E-4,3.2791754E-3,-4.6613785E-3,-2.115132E-3],"categories":[],"categories_nodes":[],"categories_segments":[],"categories_sizes":[],"default_left":[0,0,0,0,0,0,0,0,0,0,0,0,0,0,0],"id":3,"left_children":[1,3,5,7,9,11,13,-1,-1,-1,-1,-1,-1,-1,-1],"loss_changes":[1.8190683E2,9.150334E1,3.7045605E1,1.4482361E1,3.9139397E1,1.0337317E1,1.1942497E1,0E0,0E0,0E0,0E0,0E0,0E0,0E0,0E0],"parents":[2147483647,0,0,1,1,2,2,3,3,4,4,5,5,6,6],"right_children":[2,4,6,8,10,12,14,-1,-1,-1,-1,-1,-1,-1,-1],"split_conditions":[2.2E1,-1.6E0,4.15E-1,2.3E1,7E0,-4.6E0,-6.5E0,4.212192E-3,6.6980794E-3,3.5465087E-3,5.312978E-4,-5.518126E-4,3.2791754E-3,-4.6613785E-3,-2.115132E-3],"split_indices":[29,77,55,1,27,25,25,0,0,0,0,0,0,0,0],"split_type":[0,0,0,0,0,0,0,0,0,0,0,0,0,0,0],"sum_hessian":[3.9174563E3,2.8689648E3,1.0484916E3,9.5247833E2,1.9164865E3,2.934993E2,7.5499225E2,5.154893E2,4.3698898E2,6.5399286E2,1.2624935E3,1.769998E2,1.16499504E2,3.2649524E2,4.28497E2],"tree_param":{"num_deleted":"0","num_feature":"106","num_nodes":"15","size_leaf_vector":"1"}},{"base_weights":[-1.4895205E-1,-2.8793618E-1,2.0226978E-1,-4.4650775E-1,-1.0998839E-1,3.3952177E-1,-3.33984E-2,-2.810079E-3,-5.5164257E-3,-2.885621E-3,-1.1724728E-4,2.0970993E-3,4.8335195E-3,8.588601E-4,-2.3991992E-3],"categories":[],"categories_nodes":[],"categories_segments":[],"categories_sizes":[],"default_left":[0,0,0,0,0,0,0,0,0,0,0,0,0,0,0],"id":4,"left_children":[1,3,5,7,9,11,13,-1,-1,-1,-1,-1,-1,-1,-1],"loss_changes":[1.8892245E2,7.818558E1,3.5517365E1,2.5409119E1,2.2905422E1,1.287014E1,9.959929E0,0E0,0E0,0E0,0E0,0E0,0E0,0E0,0E0],"parents":[2147483647,0,0,1,1,2,2,3,3,4,4,5,5,6,6],"right_children":[2,4,6,8,10,12,14,-1,-1,-1,-1,-1,-1,-1,-1],"split_conditions":[2.2E1,7E-1,1.9E1,5.33E-1,7E0,2.7E1,-4.6E0,-2.810079E-3,-5.5164257E-3,-2.885621E-3,-1.1724728E-4,2.0970993E-3,4.8335195E-3,8.588601E-4,-2.3991992E-3],"split_indices":[51,77,81,3,27,51,25,0,0,0,0,0,0,0,0],"split_type":[0,0,0,0,0,0,0,0,0,0,0,0,0,0,0],"sum_hessian":[3.8698357E3,2.7728694E3,1.0969663E3,1.4658864E3,1.306983E3,6.934719E2,4.034944E2,5.699726E2,8.959137E2,4.6348477E2,8.434982E2,3.6499353E2,3.2847842E2,2.5549669E2,1.479977E2],"tree_param":{"num_deleted":"0","num_feature":"106","num_nodes":"15","size_leaf_vector":"1"}},{"base_weights":[1.4147346E-1,-2.0217904E-1,2.77011E-1,1.4767231E-1,-3.0130225E-1,1.0422977E-1,4.5987263E-1,-0E0,4.1576345E-3,-7.7545276E-4,-3.7542162E-3,2.7520095E-3,-3.1095988E-4,5.6309216E-3,3.3216525E-3],"categories":[],"categories_nodes":[],"categories_segments":[],"categories_sizes":[],"default_left":[0,0,0,0,0,0,0,0,0,0,0,0,0,0,0],"id":5,"left_children":[1,3,5,7,9,11,13,-1,-1,-1,-1,-1,-1,-1,-1],"loss_changes":[1.8184988E2,3.8307045E1,8.840401E1,9.657076E0,1.4224113E1,3.3344036E1,1.7819061E1,0E0,0E0,0E0,0E0,0E0,0E0,0E0,0E0],"parents":[2147483647,0,0,1,1,2,2,3,3,4,4,5,5,6,6],"right_children":[2,4,6,8,10,12,14,-1,-1,-1,-1,-1,-1,-1,-1],"split_conditions":[-2.4E0,3.6E-1,1.4E1,-4.6E0,1.1E1,9E0,-2.4E0,-0E0,4.1576345E-3,-7.7545276E-4,-3.7542162E-3,2.7520095E-3,-3.1095988E-4,5.6309216E-3,3.3216525E-3],"split_indices":[25,55,80,25,53,29,77,0,0,0,0,0,0,0,0],"split_type":[0,0,0,0,0,0,0,0,0,0,0,0,0,0,0],"sum_hessian":[3.9038357E3,1.1039663E3,2.7998694E3,2.4349672E2,8.604696E2,1.4399766E3,1.3598928E3,1.56999E2,8.649772E1,2.1449388E2,6.459757E2,6.3648016E2,8.034964E2,7.514274E2,6.0846533E2],"tree_param":{"num_deleted":"0","num_feature":"106","num_nodes":"15","size_leaf_vector":"1"}},{"base_weights":[-1.389861E-1,-2.7530482E-1,2.0268905E-1,-4.4405866E-1,-9.238286E-2,3.1559852E-1,-9.209191E-2,-3.030266E-3,-5.3811907E-3,1.1236766E-4,-3.1248431E-3,1.7926939E-3,4.143714E-3,8.4727374E-4,-3.569154E-3],"categories":[],"categories_nodes":[],"categories_segments":[],"categories_sizes":[],"default_left":[0,0,0,0,0,0,0,0,0,0,0,0,0,0,0],"id":6,"left_children":[1,3,5,7,9,11,13,-1,-1,-1,-1,-1,-1,-1,-1],"loss_changes":[1.8034573E2,8.5381226E1,3.67712E1,1.8993347E1,3.0330786E1,1.0685982E1,1.4339829E1,0E0,0E0,0E0,0E0,0E0,0E0,0E0,0E0],"parents":[2147483647,0,0,1,1,2,2,3,3,4,4,5,5,6,6],"right_children":[2,4,6,8,10,12,14,-1,-1,-1,-1,-1,-1,-1,-1],"split_conditions":[2.2E1,7E-1,2.2E1,5.35E-1,6.46E-1,2.6E1,-5E0,-3.030266E-3,-5.3811907E-3,1.1236766E-4,-3.1248431E-3,1.7926939E-3,4.143714E-3,8.4727374E-4,-3.569154E-3],"split_indices":[51,77,103,3,3,51,25,0,0,0,0,0,0,0,0],"split_type":[0,0,0,0,0,0,0,0,0,0,0,0,0,0,0],"sum_hessian":[3.8716387E3,2.767712E3,1.1039266E3,1.4392494E3,1.3284626E3,7.984354E2,3.0549124E2,5.764373E2,8.62812E2,9.029917E2,4.2547098E2,3.359885E2,4.624469E2,1.8299692E2,1.2249432E2],"tree_param":{"num_deleted":"0","num_feature":"106","num_nodes":"15","size_leaf_vector":"1"}},{"base_weights":[1.378056E-1,2.6910654E-1,-2.1903294E-1,4.680693E-1,1.2968345E-1,3.6844373E-2,-3.4509578E-1,3.2463833E-3,5.6309043E-3,3.6055504E-3,1.7180546E-4,-8.450912E-4,2.4489425E-3,-4.8046364E-3,-2.4208352E-3],"categories":[],"categories_nodes":[],"categories_segments":[],"categories_sizes":[],"default_left":[0,0,0,0,0,0,0,0,0,0,0,0,0,0,0],"id":7,"left_children":[1,3,5,7,9,11,13,-1,-1,-1,-1,-1,-1,-1,-1],"loss_changes":[1.8171875E2,7.858562E1,3.3676636E1,1.5809967E1,4.3273487E1,8.705529E0,9.663872E0,0E0,0E0,0E0,0E0,0E0,0E0,0E0,0E0],"parents":[2147483647,0,0,1,1,2,2,3,3,4,4,5,5,6,6],"right_children":[2,4,6,8,10,12,14,-1,-1,-1,-1,-1,-1,-1,-1],"split_conditions":[2.2E1,-5E-1,-1.7E0,5.35E-1,7E0,-4.3E0,-6.5E0,3.2463833E-3,5.6309043E-3,3.6055504E-3,1.7180546E-4,-8.450912E-4,2.4489425E-3,-4.8046364E-3,-2.4208352E-3],"split_indices":[29,77,77,3,29,25,25,0,0,0,0,0,0,0,0],"split_type":[0,0,0,0,0,0,0,0,0,0,0,0,0,0,0],"sum_hessian":[3.878135E3,2.8352078E3,1.0429274E3,1.167781E3,1.6674268E3,3.4398926E2,6.989381E2,4.659463E2,7.0183466E2,5.459507E2,1.1214761E3,2.169962E2,1.2699306E2,3.0145737E2,3.9748074E2],"tree_param":{"num_deleted":"0","num_feature":"106","num_nodes":"15","size_leaf_vector":"1"}},{"base_weights":[-1.446698E-1,1.8802378E-1,-2.7472395E-1,-1.6835451E-1,2.865483E-1,-4.878172E-1,-1.3287397E-1,-2.3952177E-4,-4.1340245E-3,2.0483835E-3,4.3520224E-3,-2.531423E-3,-5.4003587E-3,-3.381578E-3,-2.2638141E-4],"categories":[],"categories_nodes":[],"categories_segments":[],"categories_sizes":[],"default_left":[0,0,0,0,0,0,0,0,0,0,0,0,0,0,0],"id":8,"left_children":[1,3,5,7,9,11,13,-1,-1,-1,-1,-1,-1,-1,-1],"loss_changes":[1.6761111E2,3.823493E1,8.4116974E1,8.291656E0,1.0287811E1,1.3542694E1,3.781054E1,0E0,0E0,0E0,0E0,0E0,0E0,0E0,0E0],"parents":[2147483647,0,0,1,1,2,2,3,3,4,4,5,5,6,6],"right_children":[2,4,6,8,10,12,14,-1,-1,-1,-1,-1,-1,-1,-1],"split_conditions":[-2.4E0,3.6E-1,-7E-1,-4.8E0,2.8E1,4.71E-1,7E0,-2.3952177E-4,-4.1340245E-3,2.0483835E-3,4.3520224E-3,-2.531423E-3,-5.4003587E-3,-3.381578E-3,-2.2638141E-4],"split_indices":[25,55,77,25,51,3,27,0,0,0,0,0,0,0,0],"split_type":[0,0,0,0,0,0,0,0,0,0,0,0,0,0,0],"sum_hessian":[3.873354E3,1.0883682E3,2.7849858E3,2.3548755E2,8.528806E2,1.1126161E3,1.6723696E3,1.4849814E2,8.698942E1,5.5095197E2,3.0192865E2,2.0296686E2,9.0964923E2,5.83901E2,1.0884686E3],"tree_param":{"num_deleted":"0","num_feature":"106","num_nodes":"15","size_leaf_vector":"1"}},{"base_weights":[1.3958469E-1,2.7883965E-1,-1.8729731E-1,5.2978224E-1,1.5436032E-1,1.388503E-1,-2.7250704E-1,4.526696E-3,6.7920987E-3,3.4335714E-3,5.1004346E-4,8.444729E-4,7.276353E-3,-4.5630373E-3,-1.3346241E-3],"categories":[],"categories_nodes":[],"categories_segments":[],"categories_sizes":[],"default_left":[0,0,0,0,0,0,0,0,0,0,0,0,0,0,0],"id":9,"left_children":[1,3,5,7,9,11,13,-1,-1,-1,-1,-1,-1,-1,-1],"loss_changes":[1.7640204E2,8.4813324E1,3.2184036E1,1.0235428E1,3.545052E1,7.5868754E0,2.3394691E1,0E0,0E0,0E0,0E0,0E0,0E0,0E0,0E0],"parents":[2147483647,0,0,1,1,2,2,3,3,4,4,5,5,6,6],"right_children":[2,4,6,8,10,12,14,-1,-1,-1,-1,-1,-1,-1,-1],"split_conditions":[2E1,-1.5E0,3.57E-1,2.7E1,7E0,-1E0,-6E0,4.526696E-3,6.7920987E-3,3.4335714E-3,5.1004346E-4,8.444729E-4,7.276353E-3,-4.5630373E-3,-1.3346241E-3],"split_indices":[28,77,55,81,27,25,25,0,0,0,0,0,0,0,0],"split_type":[0,0,0,0,0,0,0,0,0,0,0,0,0,0,0],"sum_hessian":[3.8748533E3,2.7174941E3,1.1573589E3,9.006703E2,1.816824E3,2.3948247E2,9.178764E2,5.9479614E2,3.058741E2,6.418807E2,1.1749432E3,2.1948639E2,1.9996086E1,3.9491245E2,5.22964E2],"tree_param":{"num_deleted":"0","num_feature":"106","num_nodes":"15","size_leaf_vector":"1"}},{"base_weights":[-1.4235155E-1,-2.7804524E-1,1.7524229E-1,-3.874556E-2,-4.150328E-1,-8.810835E-2,2.8374603E-1,-2.423643E-3,5.4533465E-4,-3.26836E-3,-5.6499075E-3,-2.7374804E-3,6.3845876E-4,1.6632226E-3,4.391444E-3],"categories":[],"categories_nodes":[],"categories_segments":[],"categories_sizes":[],"default_left":[0,0,0,0,0,0,0,0,0,0,0,0,0,0,0],"id":10,"left_children":[1,3,5,7,9,11,13,-1,-1,-1,-1,-1,-1,-1,-1],"loss_changes":[1.6593726E2,8.8390396E1,3.2950977E1,1.868142E1,2.2579895E1,9.502664E0,1.4829819E1,0E0,0E0,0E0,0E0,0E0,0E0,0E0,0E0],"parents":[2147483647,0,0,1,1,2,2,3,3,4,4,5,5,6,6],"right_children":[2,4,6,8,10,12,14,-1,-1,-1,-1,-1,-1,-1,-1],"split_conditions":[2E1,1.1E1,-2.4E0,7E0,2.2E1,1.9E1,2.7E1,-2.423643E-3,5.4533465E-4,-3.26836E-3,-5.6499075E-3,-2.7374804E-3,6.3845876E-4,1.6632226E-3,4.391444E-3],"split_indices":[28,103,77,51,80,44,51,0,0,0,0,0,0,0,0],"split_type":[0,0,0,0,0,0,0,0,0,0,0,0,0,0,0],"sum_hessian":[3.8500046E3,2.6977175E3,1.1522871E3,9.82418E2,1.7152996E3,3.359635E2,8.163236E2,3.0894165E2,6.734763E2,1.0806857E3,6.3461383E2,1.514805E2,1.8448302E2,4.6545905E2,3.5086453E2],"tree_param":{"num_deleted":"0","num_feature":"106","num_nodes":"15","size_leaf_vector":"1"}},{"base_weights":[1.2823164E-1,2.3821363E-1,-2.6246524E-1,4.040709E-1,5.7400573E-2,-3.3594412E-1,3.6764737E-2,2.4386249E-3,5.0153485E-3,2.3982087E-3,-6.6073745E-4,-3.4954867E-3,6.592138E-3,-1.3535462E-3,2.4295757E-3],"categories":[],"categories_nodes":[],"categories_segments":[],"categories_sizes":[],"default_left":[0,0,0,0,0,0,0,0,0,0,0,0,0,0,0],"id":11,"left_children":[1,3,5,7,9,11,13,-1,-1,-1,-1,-1,-1,-1,-1],"loss_changes":[1.6550595E2,9.0092804E1,1.8630337E1,2.438794E1,3.2419273E1,9.190544E0,5.9263706E0,0E0,0E0,0E0,0E0,0E0,0E0,0E0,0E0],"parents":[2147483647,0,0,1,1,2,2,3,3,4,4,5,5,6,6],"right_children":[2,4,6,8,10,12,14,-1,-1,-1,-1,-1,-1,-1,-1],"split_conditions":[2.4E1,5.26E-1,2.4E1,5E-1,9E0,7E0,-6.5E0,2.4386249E-3,5.0153485E-3,2.3982087E-3,-6.6073745E-4,-3.4954867E-3,6.592138E-3,-1.3535462E-3,2.4295757E-3],"split_indices":[51,55,81,25,29,73,25,0,0,0,0,0,0,0,0],"split_type":[0,0,0,0,0,0,0,0,0,0,0,0,0,0,0],"sum_hessian":[3.851508E3,3.005694E3,8.458141E2,1.5673287E3,1.4383654E3,6.7932184E2,1.6649225E2,5.93359E2,9.739697E2,5.808848E2,8.574805E2,6.7032336E2,8.998459E0,9.049825E1,7.5994E1],"tree_param":{"num_deleted":"0","num_feature":"106","num_nodes":"15","size_leaf_vector":"1"}},{"base_weights":[-1.35105E-1,-2.6485997E-1,2.2390647E-1,-1.546461E-1,-5.3624624E-1,-9.7125426E-2,3.0508137E-1,-3.4508975E-3,-5.287097E-4,-3.9632E-3,-6.234148E-3,-2.4717632E-3,7.43936E-4,2.1566614E-3,4.1989936E-3],"categories":[],"categories_nodes":[],"categories_segments":[],"categories_sizes":[],"default_left":[0,0,0,0,0,0,0,0,0,0,0,0,0,0,0],"id":12,"left_children":[1,3,5,7,9,11,13,-1,-1,-1,-1,-1,-1,-1,-1],"loss_changes":[1.8153171E2,8.5540665E1,2.6977913E1,3.94236E1,9.953522E0,5.3872023E0,8.405884E0,0E0,0E0,0E0,0E0,0E0,0E0,0E0,0E0],"parents":[2147483647,0,0,1,1,2,2,3,3,4,4,5,5,6,6],"right_children":[2,4,6,8,10,12,14,-1,-1,-1,-1,-1,-1,-1,-1],"split_conditions":[2.1E1,2E1,3.57E-1,7E0,5.33E-1,1.51E1,1.9E0,-3.4508975E-3,-5.287097E-4,-3.9632E-3,-6.234148E-3,-2.4717632E-3,7.43936E-4,2.1566614E-3,4.1989936E-3],"split_indices":[28,80,55,27,3,18,77,0,0,0,0,0,0,0,0],"split_type":[0,0,0,0,0,0,0,0,0,0,0,0,0,0,0],"sum_hessian":[3.8965933E3,2.8623713E3,1.0342218E3,2.036034E3,8.2633734E2,2.0847795E2,8.2574384E2,7.086926E2,1.3273414E3,3.1783655E2,5.0850082E2,1.1148545E2,9.699251E1,4.648769E2,3.6086694E2],"tree_param":{"num_deleted":"0","num_feature":"106","num_nodes":"15","size_leaf_vector":"1"}},{"base_weights":[1.3684808E-1,2.7485648E-1,-1.9294642E-1,9.848107E-2,4.6778247E-1,-2.694575E-1,2.0349784E-1,2.9487005E-3,-1.6966934E-4,3.7140753E-3,5.9145996E-3,-4.3328283E-3,-1.4965567E-3,2.0726207E-4,4.343653E-3],"categories":[],"categories_nodes":[],"categories_segments":[],"categories_sizes":[],"default_left":[0,0,0,0,0,0,0,0,0,0,0,0,0,0,0],"id":13,"left_children":[1,3,5,7,9,11,13,-1,-1,-1,-1,-1,-1,-1,-1],"loss_changes":[1.7573071E2,9.2561035E1,3.4554703E1,3.2277676E1,1.5373474E1,1.86753E1,7.7207165E0,0E0,0E0,0E0,0E0,0E0,0E0,0E0,0E0],"parents":[2147483647,0,0,1,1,2,2,3,3,4,4,5,5,6,6],"right_children":[2,4,6,8,10,12,14,-1,-1,-1,-1,-1,-1,-1,-1],"split_conditions":[2E1,1.4E1,2.6E1,7E0,5.96E-1,-6.2E0,1.9E1,2.9487005E-3,-1.6966934E-4,3.7140753E-3,5.9145996E-3,-4.3328283E-3,-1.4965567E-3,2.0726207E-4,4.343653E-3],"split_indices":[28,80,103,27,3,25,35,0,0,0,0,0,0,0,0],"split_type":[0,0,0,0,0,0,0,0,0,0,0,0,0,0,0],"sum_hessian":[3.8605952E3,2.721891E3,1.138704E3,1.4222874E3,1.2996038E3,9.547315E2,1.8397246E2,5.2682104E2,8.954663E2,7.3110425E2,5.684996E2,4.0280774E2,5.5192377E2,1.029845E2,8.098797E1],"tree_param":{"num_deleted":"0","num_feature":"106","num_nodes":"15","size_leaf_vector":"1"}},{"base_weights":[-1.4019091E-1,-2.7445352E-1,1.7643309E-1,-1.3677277E-1,-5.0168115E-1,-1.4429513E-1,2.6530495E-1,-2.2607078E-3,8.194215E-4,-5.6775254E-3,-3.2421204E-3,-4.6865004E-3,-4.618544E-4,4.447804E-3,1.386708E-3],"categories":[],"categories_nodes":[],"categories_segments":[],"categories_sizes":[],"default_left":[0,0,0,0,0,0,0,0,0,0,0,0,0,0,0],"id":14,"left_children":[1,3,5,7,9,11,13,-1,-1,-1,-1,-1,-1,-1,-1],"loss_changes":[1.6402951E2,8.46983E1,3.275849E1,3.29777E1,1.187619E1,7.8720083E0,2.0384815E1,0E0,0E0,0E0,0E0,0E0,0E0,0E0,0E0],"parents":[2147483647,0,0,1,1,2,2,3,3,4,4,5,5,6,6],"right_children":[2,4,6,8,10,12,14,-1,-1,-1,-1,-1,-1,-1,-1],"split_conditions":[2E1,1.7E1,3.6E-1,5.1E0,-2E0,2.07E1,-6.2E0,-2.2607078E-3,8.194215E-4,-5.6775254E-3,-3.2421204E-3,-4.6865004E-3,-4.618544E-4,4.447804E-3,1.386708E-3],"split_indices":[28,80,55,77,77,17,25,0,0,0,0,0,0,0,0],"split_type":[0,0,0,0,0,0,0,0,0,0,0,0,0,0,0],"sum_hessian":[3.8580962E3,2.7094841E3,1.148612E3,1.6875634E3,1.0219206E3,2.4895934E2,8.996527E2,1.1986333E3,4.889301E2,7.4410754E2,2.7781308E2,5.749184E1,1.914675E2,3.717458E2,5.279069E2],"tree_param":{"num_deleted":"0","num_feature":"106","num_nodes":"15","size_leaf_vector":"1"}},{"base_weights":[1.3541143E-1,2.5537887E-1,-1.8787436E-1,8.3920464E-2,4.3720612E-1,1.7776791E-2,-3.2757547E-1,2.3966979E-3,-4.146304E-4,3.7367784E-3,6.5167486E-3,-5.031697E-4,2.9973248E-3,-4.6316097E-3,-2.1743756E-3],"categories":[],"categories_nodes":[],"categories_segments":[],"categories_sizes":[],"default_left":[0,0,0,0,0,0,0,0,0,0,0,0,0,0,0],"id":15,"left_children":[1,3,5,7,9,11,13,-1,-1,-1,-1,-1,-1,-1,-1],"loss_changes":[1.4995764E2,8.786243E1,3.0089409E1,2.8372719E1,1.8516632E1,8.148258E0,9.229767E0,0E0,0E0,0E0,0E0,0E0,0E0,0E0,0E0],"parents":[2147483647,0,0,1,1,2,2,3,3,4,4,5,5,6,6],"right_children":[2,4,6,8,10,12,14,-1,-1,-1,-1,-1,-1,-1,-1],"split_conditions":[2.1E1,1.4E1,4.71E-1,1E1,2.7E1,2.8E1,-6.2E0,2.3966979E-3,-4.146304E-4,3.7367784E-3,6.5167486E-3,-5.031697E-4,2.9973248E-3,-4.6316097E-3,-2.1743756E-3],"split_indices":[28,80,55,51,79,80,25,0,0,0,0,0,0,0,0],"split_type":[0,0,0,0,0,0,0,0,0,0,0,0,0,0,0],"sum_hessian":[3.8661067E3,2.8199775E3,1.0461293E3,1.4517296E3,1.3682478E3,4.2292355E2,6.2320575E2,6.477775E2,8.0395215E2,1.0561453E3,3.1210254E2,3.4043436E2,8.248918E1,2.7878204E2,3.444237E2],"tree_param":{"num_deleted":"0","num_feature":"106","num_nodes":"15","size_leaf_vector":"1"}},{"base_weights":[-1.3196257E-1,-2.545514E-1,1.9986284E-1,-5.0254095E-1,-1.2983623E-1,5.6031565E-3,3.1807375E-1,-3.2847167E-3,-5.7327417E-3,-3.1077296E-3,3.312219E-5,1.8395177E-3,-1.2841948E-3,4.4697337E-3,2.0545148E-3],"categories":[],"categories_nodes":[],"categories_segments":[],"categories_sizes":[],"default_left":[0,0,0,0,0,0,0,0,0,0,0,0,0,0,0],"id":16,"left_children":[1,3,5,7,9,11,13,-1,-1,-1,-1,-1,-1,-1,-1],"loss_changes":[1.5890474E2,8.815648E1,2.4162086E1,1.16401825E1,4.5767975E1,9.545414E0,9.429756E0,0E0,0E0,0E0,0E0,0E0,0E0,0E0,0E0],"parents":[2147483647,0,0,1,1,2,2,3,3,4,4,5,5,6,6],"right_children":[2,4,6,8,10,12,14,-1,-1,-1,-1,-1,-1,-1,-1],"split_conditions":[2.2E1,-1.5E0,4.62E-1,0E0,9E0,-6.5E0,-6.2E0,-3.2847167E-3,-5.7327417E-3,-3.1077296E-3,3.312219E-5,1.8395177E-3,-1.2841948E-3,4.4697337E-3,2.0545148E-3],"split_indices":[29,77,55,25,29,25,25,0,0,0,0,0,0,0,0],"split_type":[0,0,0,0,0,0,0,0,0,0,0,0,0,0,0],"sum_hessian":[3.9060366E3,2.8525293E3,1.0535073E3,9.541492E2,1.8983801E3,3.9891257E2,6.545948E2,2.7626355E2,6.778856E2,8.050319E2,1.0933481E3,1.7145726E2,2.274553E2,3.0468665E2,3.4990814E2],"tree_param":{"num_deleted":"0","num_feature":"106","num_nodes":"15","size_leaf_vector":"1"}},{"base_weights":[1.2986232E-1,2.6116082E-1,-2.0523937E-1,3.8290894E-1,1.5701126E-2,-3.1162834E-1,7.781105E-2,2.4788561E-3,5.0477097E-3,2.840481E-3,-6.841348E-4,-2.177581E-3,-4.605441E-3,-1.3168026E-3,2.3907386E-3],"categories":[],"categories_nodes":[],"categories_segments":[],"categories_sizes":[],"default_left":[0,0,0,0,0,0,0,0,0,0,0,0,0,0,0],"id":17,"left_children":[1,3,5,7,9,11,13,-1,-1,-1,-1,-1,-1,-1,-1],"loss_changes":[1.7150098E2,8.365523E1,3.3062866E1,3.0711609E1,2.0991417E1,1.1072372E1,1.0132982E1,0E0,0E0,0E0,0E0,0E0,0E0,0E0,0E0],"parents":[2147483647,0,0,1,1,2,2,3,3,4,4,5,5,6,6],"right_children":[2,4,6,8,10,12,14,-1,-1,-1,-1,-1,-1,-1,-1],"split_conditions":[2.2E1,2.6E0,2.2E1,5.63E-1,5E0,2.7E1,-6.5E0,2.4788561E-3,5.0477097E-3,2.840481E-3,-6.841348E-4,-2.177581E-3,-4.605441E-3,-1.3168026E-3,2.3907386E-3],"split_indices":[51,77,103,3,27,53,25,0,0,0,0,0,0,0,0],"split_type":[0,0,0,0,0,0,0,0,0,0,0,0,0,0,0],"sum_hessian":[3.8975476E3,2.800561E3,1.0969866E3,1.8717224E3,9.288387E2,7.975558E2,2.9943076E2,8.8844653E2,9.8327594E2,2.2189343E2,7.0694525E2,4.8975354E2,3.0780225E2,1.2997835E2,1.6945241E2],"tree_param":{"num_deleted":"0","num_feature":"106","num_nodes":"15","size_leaf_vector":"1"}},{"base_weights":[-1.3466471E-1,-2.4312194E-1,2.5438738E-1,-8.15061E-2,-4.0264022E-1,3.349863E-1,-1.2352791E-1,-3.5709727E-3,-2.9717292E-5,-1.96746E-3,-4.681278E-3,-6.674136E-4,3.675075E-3,-3.7856638E-3,1.733927E-4],"categories":[],"categories_nodes":[],"categories_segments":[],"categories_sizes":[],"default_left":[0,0,0,0,0,0,0,0,0,0,0,0,0,0,0],"id":18,"left_children":[1,3,5,7,9,11,13,-1,-1,-1,-1,-1,-1,-1,-1],"loss_changes":[1.6214542E2,7.74234E1,2.5536247E1,3.2281853E1,2.031215E1,9.054413E0,5.3208323E0,0E0,0E0,0E0,0E0,0E0,0E0,0E0,0E0],"parents":[2147483647,0,0,1,1,2,2,3,3,4,4,5,5,6,6],"right_children":[2,4,6,8,10,12,14,-1,-1,-1,-1,-1,-1,-1,-1],"split_conditions":[2.4E1,1.5E1,2.4E1,5E0,4.71E-1,1.49E1,1.8E1,-3.5709727E-3,-2.9717292E-5,-1.96746E-3,-4.681278E-3,-6.674136E-4,3.675075E-3,-3.7856638E-3,1.733927E-4],"split_indices":[51,103,80,27,3,63,44,0,0,0,0,0,0,0,0],"split_type":[0,0,0,0,0,0,0,0,0,0,0,0,0,0,0],"sum_hessian":[3.842497E3,3.0050615E3,8.374355E2,1.4931031E3,1.5119584E3,6.904562E2,1.4697934E2,3.3076425E2,1.162339E3,3.653183E2,1.14664E3,5.1470596E1,6.389856E2,5.248926E1,9.449008E1],"tree_param":{"num_deleted":"0","num_feature":"106","num_nodes":"15","size_leaf_vector":"1"}},{"base_weights":[1.2531397E-1,2.5525254E-1,-2.0208283E-1,3.339812E-2,3.8104346E-1,-2.775497E-1,1.480654E-1,2.4894308E-3,-3.1013673E-4,3.1281896E-3,5.862678E-3,-1.9421461E-3,-4.274252E-3,1.6109654E-4,4.070155E-3],"categories":[],"categories_nodes":[],"categories_segments":[],"categories_sizes":[],"default_left":[0,0,0,0,0,0,0,0,0,0,0,0,0,0,0],"id":19,"left_children":[1,3,5,7,9,11,13,-1,-1,-1,-1,-1,-1,-1,-1],"loss_changes":[1.648823E2,7.739136E1,2.9109581E1,1.3967057E1,2.467984E1,1.1245605E1,6.6217074E0,0E0,0E0,0E0,0E0,0E0,0E0,0E0,0E0],"parents":[2147483647,0,0,1,1,2,2,3,3,4,4,5,5,6,6],"right_children":[2,4,6,8,10,12,14,-1,-1,-1,-1,-1,-1,-1,-1],"split_conditions":[2.2E1,1.1E1,2.5E1,5E0,2.6E1,2.8E1,1.9E1,2.4894308E-3,-3.1013673E-4,3.1281896E-3,5.862678E-3,-1.9421461E-3,-4.274252E-3,1.6109654E-4,4.070155E-3],"split_indices":[51,103,81,27,103,51,92,0,0,0,0,0,0,0,0],"split_type":[0,0,0,0,0,0,0,0,0,0,0,0,0,0,0],"sum_hessian":[3.8754553E3,2.7745916E3,1.1008638E3,1.00428314E3,1.7703083E3,9.059188E2,1.9494492E2,2.3135439E2,7.729288E2,1.3291781E3,4.4113034E2,5.827755E2,3.231433E2,1.294647E2,6.548021E1],"tree_param":{"num_deleted":"0","num_feature":"106","num_nodes":"15","size_leaf_vector":"1"}},{"base_weights":[-1.3534658E-1,-2.5466725E-1,1.9458328E-1,-8.978778E-2,-4.2939863E-1,-6.6129126E-2,2.9665655E-1,-2.8203726E-3,7.324103E-5,-3.0224095E-3,-5.1205503E-3,3.9100792E-4,-3.47937E-3,4.33397E-3,1.7311645E-3],"categories":[],"categories_nodes":[],"categories_segments":[],"categories_sizes":[],"default_left":[0,0,0,0,0,0,0,0,0,0,0,0,0,0,0],"id":20,"left_children":[1,3,5,7,9,11,13,-1,-1,-1,-1,-1,-1,-1,-1],"loss_changes":[1.5186678E2,8.156586E1,2.7284935E1,2.7249687E1,1.4356522E1,8.573325E0,1.2372421E1,0E0,0E0,0E0,0E0,0E0,0E0,0E0,0E0],"parents":[2147483647,0,0,1,1,2,2,3,3,4,4,5,5,6,6],"right_children":[2,4,6,8,10,12,14,-1,-1,-1,-1,-1,-1,-1,-1],"split_conditions":[2.2E1,1.4E1,4.15E-1,7E0,1E0,2.8E1,-6.2E0,-2.8203726E-3,7.324103E-5,-3.0224095E-3,-5.1205503E-3,3.9100792E-4,-3.47937E-3,4.33397E-3,1.7311645E-3],"split_indices":[29,80,55,29,25,80,25,0,0,0,0,0,0,0,0],"split_type":[0,0,0,0,0,0,0,0,0,0,0,0,0,0,0],"sum_hessian":[3.8572947E3,2.8330388E3,1.0242559E3,1.4579841E3,1.3750547E3,2.8791858E2,7.363373E2,4.8959232E2,9.683918E2,5.423638E2,8.326909E2,2.0944205E2,7.847652E1,3.4899338E2,3.8734393E2],"tree_param":{"num_deleted":"0","num_feature":"106","num_nodes":"15","size_leaf_vector":"1"}},{"base_weights":[1.3213062E-1,2.5357735E-1,-1.9866182E-1,4.200465E-1,7.285627E-2,-2.620072E-1,1.6844451E-1,2.8885507E-3,5.0378107E-3,2.3353929E-3,-5.9634354E-4,-4.0249317E-3,-1.3917964E-3,2.465069E-3,-3.7325392E-3],"categories":[],"categories_nodes":[],"categories_segments":[],"categories_sizes":[],"default_left":[0,0,0,0,0,0,0,0,0,0,0,0,0,0,0],"id":21,"left_children":[1,3,5,7,9,11,13,-1,-1,-1,-1,-1,-1,-1,-1],"loss_changes":[1.5529752E2,8.5015274E1,2.4148876E1,1.6071442E1,2.8890598E1,1.5218407E1,6.4477863E0,0E0,0E0,0E0,0E0,0E0,0E0,0E0,0E0],"parents":[2147483647,0,0,1,1,2,2,3,3,4,4,5,5,6,6],"right_children":[2,4,6,8,10,12,14,-1,-1,-1,-1,-1,-1,-1,-1],"split_conditions":[2.2E1,7E-1,2.6E1,5.33E-1,1E1,-6.2E0,4.55E1,2.8885507E-3,5.0378107E-3,2.3353929E-3,-5.9634354E-4,-4.0249317E-3,-1.3917964E-3,2.465069E-3,-3.7325392E-3],"split_indices":[29,77,81,3,51,25,16,0,0,0,0,0,0,0,0],"split_type":[0,0,0,0,0,0,0,0,0,0,0,0,0,0,0],"sum_hessian":[3.8652932E3,2.8275247E3,1.0377684E3,1.4714395E3,1.3560853E3,8.853069E2,1.5246153E2,5.739072E2,8.9753217E2,6.131468E2,7.429385E2,4.124821E2,4.728248E2,1.3346713E2,1.8994413E1],"tree_param":{"num_deleted":"0","num_feature":"106","num_nodes":"15","size_leaf_vector":"1"}},{"base_weights":[-1.3155814E-1,1.7804383E-1,-2.5491747E-1,-6.7221485E-2,2.949802E-1,-7.882408E-2,-4.3040186E-1,5.9905957E-4,-2.6682876E-3,4.3147407E-3,1.8434855E-3,-2.2366196E-3,3.348857E-4,-2.6909225E-3,-5.02618E-3],"categories":[],"categories_nodes":[],"categories_segments":[],"categories_sizes":[],"default_left":[0,0,0,0,0,0,0,0,0,0,0,0,0,0,0],"id":22,"left_children":[1,3,5,7,9,11,13,-1,-1,-1,-1,-1,-1,-1,-1],"loss_changes":[1.4810826E2,3.1706474E1,8.56389E1,9.067127E0,1.1230301E1,2.2542465E1,1.6085846E1,0E0,0E0,0E0,0E0,0E0,0E0,0E0,0E0],"parents":[2147483647,0,0,1,1,2,2,3,3,4,4,5,5,6,6],"right_children":[2,4,6,8,10,12,14,-1,-1,-1,-1,-1,-1,-1,-1],"split_conditions":[-2.4E0,-1.9E0,1.5E1,-4.8E0,-6.5E0,9E0,5E-1,5.9905957E-4,-2.6682876E-3,4.3147407E-3,1.8434855E-3,-2.2366196E-3,3.348857E-4,-2.6909225E-3,-5.02618E-3],"split_indices":[25,77,103,25,25,29,25,0,0,0,0,0,0,0,0],"split_type":[0,0,0,0,0,0,0,0,0,0,0,0,0,0,0],"sum_hessian":[3.8775417E3,1.1045458E3,2.7729958E3,3.563389E2,7.4820685E2,1.384453E3,1.388543E3,2.1742961E2,1.3890927E2,3.3441818E2,4.1378867E2,6.05017E2,7.79436E2,4.2997128E2,9.5857166E2],"tree_param":{"num_deleted":"0","num_feature":"106","num_nodes":"15","size_leaf_vector":"1"}},{"base_weights":[1.394962E-1,2.6023296E-1,-1.9676909E-1,4.0213937E-1,6.982337E-2,5.214233E-2,-2.9636467E-1,5.636458E-3,3.188634E-3,1.6626912E-3,-9.303472E-4,-1.1064364E-3,1.7842061E-3,-1.7894073E-3,-4.286405E-3],"categories":[],"categories_nodes":[],"categories_segments":[],"categories_sizes":[],"default_left":[0,0,0,0,0,0,0,0,0,0,0,0,0,0,0],"id":23,"left_children":[1,3,5,7,9,11,13,-1,-1,-1,-1,-1,-1,-1,-1],"loss_changes":[1.5689587E2,7.6783936E1,2.5330338E1,2.1802795E1,1.9087902E1,6.000923E0,1.1259781E1,0E0,0E0,0E0,0E0,0E0,0E0,0E0,0E0],"parents":[2147483647,0,0,1,1,2,2,3,3,4,4,5,5,6,6],"right_children":[2,4,6,8,10,12,14,-1,-1,-1,-1,-1,-1,-1,-1],"split_conditions":[2.1E1,1.4E0,-2.4E0,7E0,5.8E0,1.49E1,2.7E1,5.636458E-3,3.188634E-3,1.6626912E-3,-9.303472E-4,-1.1064364E-3,1.7842061E-3,-1.7894073E-3,-4.286405E-3],"split_indices":[28,77,77,28,77,70,51,0,0,0,0,0,0,0,0],"split_type":[0,0,0,0,0,0,0,0,0,0,0,0,0,0,0],"sum_hessian":[3.8640881E3,2.8434587E3,1.0206296E3,1.6288732E3,1.2145856E3,2.914E2,7.292296E2,5.535444E2,1.0753287E3,7.6321564E2,4.5136993E2,1.2695812E2,1.6444186E2,3.8682697E2,3.4240265E2],"tree_param":{"num_deleted":"0","num_feature":"106","num_nodes":"15","size_leaf_vector":"1"}},{"base_weights":[-1.3239612E-1,-2.6080877E-1,1.8937021E-1,-3.9688867E-1,-6.256858E-2,2.594783E-1,-1.4464246E-1,-2.5863163E-3,-5.002907E-3,3.0716817E-4,-2.6443317E-3,1.4165613E-3,3.9008975E-3,-2.548338E-3,1.5283088E-3],"categories":[],"categories_nodes":[],"categories_segments":[],"categories_sizes":[],"default_left":[0,0,0,0,0,0,0,0,0,0,0,0,0,0,0],"id":24,"left_children":[1,3,5,7,9,11,13,-1,-1,-1,-1,-1,-1,-1,-1],"loss_changes":[1.600961E2,7.4662155E1,2.5890743E1,2.3383575E1,2.1259699E1,1.4000229E1,6.2917128E0,0E0,0E0,0E0,0E0,0E0,0E0,0E0,0E0],"parents":[2147483647,0,0,1,1,2,2,3,3,4,4,5,5,6,6],"right_children":[2,4,6,8,10,12,14,-1,-1,-1,-1,-1,-1,-1,-1],"split_conditions":[2.2E1,1.6E0,2.5E1,5.49E-1,6.46E-1,2.7E1,3.45E1,-2.5863163E-3,-5.002907E-3,3.0716817E-4,-2.6443317E-3,1.4165613E-3,3.9008975E-3,-2.548338E-3,1.5283088E-3],"split_indices":[51,77,81,3,3,51,9,0,0,0,0,0,0,0,0],"split_type":[0,0,0,0,0,0,0,0,0,0,0,0,0,0,0],"sum_hessian":[3.874257E3,2.7693687E3,1.1048883E3,1.6417808E3,1.1275879E3,9.134748E2,1.914135E2,7.030552E2,9.3872565E2,7.7092053E2,3.566674E2,4.8076215E2,4.3271265E2,1.3993039E2,5.1483105E1],"tree_param":{"num_deleted":"0","num_feature":"106","num_nodes":"15","size_leaf_vector":"1"}},{"base_weights":[1.1912924E-1,2.2613405E-1,-2.558424E-1,3.823695E-1,5.672843E-2,-3.2727253E-1,8.323671E-2,2.2413984E-3,4.845685E-3,2.48369E-3,-3.1321647E-4,-4.266599E-3,-2.0273423E-3,1.6645419E-3,-4.2547802E-3],"categories":[],"categories_nodes":[],"categories_segments":[],"categories_sizes":[],"default_left":[0,0,0,0,0,0,0,0,0,0,0,0,0,0,0],"id":25,"left_children":[1,3,5,7,9,11,13,-1,-1,-1,-1,-1,-1,-1,-1],"loss_changes":[1.5710242E2,8.058278E1,2.1077179E1,2.5540512E1,2.4692352E1,8.8172E0,6.376278E0,0E0,0E0,0E0,0E0,0E0,0E0,0E0,0E0],"parents":[2147483647,0,0,1,1,2,2,3,3,4,4,5,5,6,6],"right_children":[2,4,6,8,10,12,14,-1,-1,-1,-1,-1,-1,-1,-1],"split_conditions":[2.4E1,7E-1,2.5E1,6E-1,7E0,-6.5E0,3.66E1,2.2413984E-3,4.845685E-3,2.48369E-3,-3.1321647E-4,-4.266599E-3,-2.0273423E-3,1.6645419E-3,-4.2547802E-3],"split_indices":[51,77,81,25,29,25,9,0,0,0,0,0,0,0,0],"split_type":[0,0,0,0,0,0,0,0,0,0,0,0,0,0,0],"sum_hessian":[3.9152751E3,3.0462734E3,8.690018E2,1.5843657E3,1.4619077E3,7.180387E2,1.5096306E2,6.222559E2,9.6210986E2,4.605269E2,1.00138086E3,3.9876215E2,3.1927652E2,1.299665E2,2.099656E1],"tree_param":{"num_deleted":"0","num_feature":"106","num_nodes":"15","size_leaf_vector":"1"}},{"base_weights":[-1.2883508E-1,-2.4679822E-1,1.8916456E-1,-4.0715104E-1,-7.442428E-2,-5.6743108E-2,2.8569907E-1,-3.3469647E-3,-5.7537025E-3,-2.3337514E-3,3.3761727E-4,3.6741505E-4,-3.67609E-3,2.0169173E-3,4.3578898E-3],"categories":[],"categories_nodes":[],"categories_segments":[],"categories_sizes":[],"default_left":[0,0,0,0,0,0,0,0,0,0,0,0,0,0,0],"id":26,"left_children":[1,3,5,7,9,11,13,-1,-1,-1,-1,-1,-1,-1,-1],"loss_changes":[1.4544427E2,7.812236E1,2.4922977E1,1.7743973E1,2.346678E1,8.621012E0,9.428024E0,0E0,0E0,0E0,0E0,0E0,0E0,0E0,0E0],"parents":[2147483647,0,0,1,1,2,2,3,3,4,4,5,5,6,6],"right_children":[2,4,6,8,10,12,14,-1,-1,-1,-1,-1,-1,-1,-1],"split_conditions":[2.1E1,7E-1,-2.4E0,2.6E1,9E0,2.9E1,2.8E1,-3.3469647E-3,-5.7537025E-3,-2.3337514E-3,3.3761727E-4,3.6741505E-4,-3.67609E-3,2.0169173E-3,4.3578898E-3],"split_indices":[28,77,77,103,51,103,51,0,0,0,0,0,0,0,0],"split_type":[0,0,0,0,0,0,0,0,0,0,0,0,0,0,0],"sum_hessian":[3.8768713E3,2.8281104E3,1.048761E3,1.4647725E3,1.3633378E3,2.9536548E2,7.533955E2,1.0244288E3,4.4034372E2,5.524567E2,8.108811E2,2.2689835E2,6.8467125E1,4.8361203E2,2.6978345E2],"tree_param":{"num_deleted":"0","num_feature":"106","num_nodes":"15","size_leaf_vector":"1"}},{"base_weights":[1.4094557E-1,2.598254E-1,-1.8695934E-1,-2.8723425E-3,3.5298634E-1,-2.777414E-1,1.6722107E-1,2.993401E-3,-8.513995E-4,2.630157E-3,5.005249E-3,-2.3138144E-3,-5.553134E-3,3.7779515E-3,1.330874E-4],"categories":[],"categories_nodes":[],"categories_segments":[],"categories_sizes":[],"default_left":[0,0,0,0,0,0,0,0,0,0,0,0,0,0,0],"id":27,"left_children":[1,3,5,7,9,11,13,-1,-1,-1,-1,-1,-1,-1,-1],"loss_changes":[1.495264E2,6.89332E1,3.28245E1,1.8300364E1,2.7501068E1,1.0363529E1,6.702283E0,0E0,0E0,0E0,0E0,0E0,0E0,0E0,0E0],"parents":[2147483647,0,0,1,1,2,2,3,3,4,4,5,5,6,6],"right_children":[2,4,6,8,10,12,14,-1,-1,-1,-1,-1,-1,-1,-1],"split_conditions":[2.2E1,8E0,2.4E1,5E0,2.2E1,6.5E0,1.026E2,2.993401E-3,-8.513995E-4,2.630157E-3,5.005249E-3,-2.3138144E-3,-5.553134E-3,3.7779515E-3,1.330874E-4],"split_indices":[29,103,81,29,103,77,76,0,0,0,0,0,0,0,0],"split_type":[0,0,0,0,0,0,0,0,0,0,0,0,0,0,0],"sum_hessian":[3.8354395E3,2.8151504E3,1.0202892E3,7.3672797E2,2.0784224E3,8.123698E2,2.0791934E2,1.5732193E2,5.79406E2,1.291691E3,7.867314E2,6.9657227E2,1.1579756E2,8.746269E1,1.2045666E2],"tree_param":{"num_deleted":"0","num_feature":"106","num_nodes":"15","size_leaf_vector":"1"}},{"base_weights":[-1.2848054E-1,-2.5379813E-1,1.8724965E-1,-3.588145E-1,-2.0599851E-2,-3.803503E-2,3.2300666E-1,-4.953267E-3,-2.6648433E-3,-2.8886634E-3,5.4997613E-4,6.0731487E-4,-2.2440497E-3,4.45775E-3,2.1895487E-3],"categories":[],"categories_nodes":[],"categories_segments":[],"categories_sizes":[],"default_left":[0,0,0,0,0,0,0,0,0,0,0,0,0,0,0],"id":28,"left_children":[1,3,5,7,9,11,13,-1,-1,-1,-1,-1,-1,-1,-1],"loss_changes":[1.5260364E2,6.757892E1,3.353843E1,2.3902054E1,1.741976E1,7.5975075E0,8.660652E0,0E0,0E0,0E0,0E0,0E0,0E0,0E0,0E0],"parents":[2147483647,0,0,1,1,2,2,3,3,4,4,5,5,6,6],"right_children":[2,4,6,8,10,12,14,-1,-1,-1,-1,-1,-1,-1,-1],"split_conditions":[2.2E1,3E0,-1.1E0,-2.5E0,5E0,2.6E1,-6.2E0,-4.953267E-3,-2.6648433E-3,-2.8886634E-3,5.4997613E-4,6.0731487E-4,-2.2440497E-3,4.45775E-3,2.1895487E-3],"split_indices":[51,77,77,77,51,80,25,0,0,0,0,0,0,0,0],"split_type":[0,0,0,0,0,0,0,0,0,0,0,0,0,0,0],"sum_hessian":[3.856498E3,2.7609688E3,1.0955294E3,1.9033491E3,8.576197E2,4.116853E2,6.8384406E2,7.6732385E2,1.1360253E3,1.8877393E2,6.6884576E2,2.687777E2,1.4290756E2,3.1311603E2,3.7072806E2],"tree_param":{"num_deleted":"0","num_feature":"106","num_nodes":"15","size_leaf_vector":"1"}},{"base_weights":[1.2491312E-1,2.3853108E-1,-2.0664771E-1,1.0617978E-1,4.5166114E-1,-2.8964597E-1,5.9243705E-2,1.8337622E-3,-1.2745209E-3,5.325409E-3,3.0944922E-3,-2.023388E-3,-4.4014854E-3,6.262982E-3,-4.477331E-6],"categories":[],"categories_nodes":[],"categories_segments":[],"categories_sizes":[],"default_left":[0,0,0,0,0,0,0,0,0,0,0,0,0,0,0],"id":29,"left_children":[1,3,5,7,9,11,13,-1,-1,-1,-1,-1,-1,-1,-1],"loss_changes":[1.462691E2,8.1515076E1,2.1888737E1,3.2191887E1,1.2638519E1,9.852062E0,8.033346E0,0E0,0E0,0E0,0E0,0E0,0E0,0E0,0E0],"parents":[2147483647,0,0,1,1,2,2,3,3,4,4,5,5,6,6],"right_children":[2,4,6,8,10,12,14,-1,-1,-1,-1,-1,-1,-1,-1],"split_conditions":[2.2E1,1.7E1,2.2E1,5.8E0,1.5E1,2.8E1,8.21E1,1.8337622E-3,-1.2745209E-3,5.325409E-3,3.0944922E-3,-2.023388E-3,-4.4014854E-3,6.262982E-3,-4.477331E-6],"split_indices":[27,80,80,77,51,51,6,0,0,0,0,0,0,0,0],"split_type":[0,0,0,0,0,0,0,0,0,0,0,0,0,0,0],"sum_hessian":[3.8824612E3,2.8918298E3,9.9063135E2,1.7843735E3,1.1074563E3,7.552473E2,2.35384E2,1.3415494E3,4.428241E2,7.053354E2,4.02121E2,4.7854205E2,2.7670526E2,2.248718E1,2.1289682E2],"tree_param":{"num_deleted":"0","num_feature":"106","num_nodes":"15","size_leaf_vector":"1"}},{"base_weights":[-1.3377301E-1,1.5771233E-1,-2.6770452E-1,3.038796E-1,-4.2420156E-2,-1.0574439E-1,-4.295442E-1,2.41059E-3,5.6757205E-3,9.72784E-4,-2.296664E-3,5.2067643E-4,-2.027042E-3,-3.266978E-3,-5.6730234E-3],"categories":[],"categories_nodes":[],"categories_segments":[],"categories_sizes":[],"default_left":[0,0,0,0,0,0,0,0,0,0,0,0,0,0,0],"id":30,"left_children":[1,3,5,7,9,11,13,-1,-1,-1,-1,-1,-1,-1,-1],"loss_changes":[1.5067659E2,3.556409E1,6.925932E1,1.1540298E1,1.3422783E1,2.0247911E1,1.862796E1,0E0,0E0,0E0,0E0,0E0,0E0,0E0,0E0],"parents":[2147483647,0,0,1,1,2,2,3,3,4,4,5,5,6,6],"right_children":[2,4,6,8,10,12,14,-1,-1,-1,-1,-1,-1,-1,-1],"split_conditions":[-1.9E0,1.8E1,1.5E1,4.2E1,-4.8E0,6E0,5.96E-1,2.41059E-3,5.6757205E-3,9.72784E-4,-2.296664E-3,5.2067643E-4,-2.027042E-3,-3.266978E-3,-5.6730234E-3],"split_indices":[25,103,103,2,25,103,3,0,0,0,0,0,0,0,0],"split_type":[0,0,0,0,0,0,0,0,0,0,0,0,0,0,0],"sum_hessian":[3.8591453E3,1.2147117E3,2.6444336E3,7.022612E2,5.1245044E2,1.3221163E3,1.3223173E3,5.6760815E2,1.346531E2,2.9320978E2,2.1924065E2,5.027896E2,8.193268E2,7.5770166E2,5.646156E2],"tree_param":{"num_deleted":"0","num_feature":"106","num_nodes":"15","size_leaf_vector":"1"}},{"base_weights":[1.2724772E-1,2.4847408E-1,-1.762423E-1,3.574648E-1,2.4628099E-2,-2.638715E-1,9.6617214E-2,2.9488127E-3,5.6351E-3,-1.7282127E-3,1.2494755E-3,-1.7825841E-3,-4.1525587E-3,6.6792225E-3,1.6954327E-4],"categories":[],"categories_nodes":[],"categories_segments":[],"categories_sizes":[],"default_left":[0,0,0,0,0,0,0,0,0,0,0,0,0,0,0],"id":31,"left_children":[1,3,5,7,9,11,13,-1,-1,-1,-1,-1,-1,-1,-1],"loss_changes":[1.4193942E2,6.722046E1,2.634269E1,2.3802277E1,1.7887379E1,1.0737171E1,1.2100757E1,0E0,0E0,0E0,0E0,0E0,0E0,0E0,0E0],"parents":[2147483647,0,0,1,1,2,2,3,3,4,4,5,5,6,6],"right_children":[2,4,6,8,10,12,14,-1,-1,-1,-1,-1,-1,-1,-1],"split_conditions":[2.2E1,2.7E0,2.2E1,2.6E1,4E0,2.8E1,8.21E1,2.9488127E-3,5.6351E-3,-1.7282127E-3,1.2494755E-3,-1.7825841E-3,-4.1525587E-3,6.6792225E-3,1.6954327E-4],"split_indices":[51,77,80,103,103,51,6,0,0,0,0,0,0,0,0],"split_type":[0,0,0,0,0,0,0,0,0,0,0,0,0,0,0],"sum_hessian":[3.8575793E3,2.756763E3,1.1008164E3,1.8536927E3,9.0307025E2,8.33505E2,2.6731143E2,1.4223894E3,4.3130334E2,3.0388763E2,5.9918256E2,5.3297034E2,3.0053467E2,3.2468533E1,2.348429E2],"tree_param":{"num_deleted":"0","num_feature":"106","num_nodes":"15","size_leaf_vector":"1"}},{"base_weights":[-1.155339E-1,-2.4127173E-1,1.765351E-1,-4.0295455E-1,-6.7034766E-2,-5.4193694E-2,3.066362E-1,-3.4246754E-3,-6.197682E-3,-2.6135393E-3,1.8633898E-4,-1.7223838E-3,6.825056E-4,1.8514041E-3,4.745706E-3],"categories":[],"categories_nodes":[],"categories_segments":[],"categories_sizes":[],"default_left":[0,0,0,0,0,0,0,0,0,0,0,0,0,0,0],"id":32,"left_children":[1,3,5,7,9,11,13,-1,-1,-1,-1,-1,-1,-1,-1],"loss_changes":[1.4197484E2,7.608566E1,3.494356E1,1.8262207E1,2.1686218E1,6.070758E0,1.5106949E1,0E0,0E0,0E0,0E0,0E0,0E0,0E0,0E0],"parents":[2147483647,0,0,1,1,2,2,3,3,4,4,5,5,6,6],"right_children":[2,4,6,8,10,12,14,-1,-1,-1,-1,-1,-1,-1,-1],"split_conditions":[2E1,7E-1,4.48E-1,2.7E1,7E0,2.6E1,2.7E1,-3.4246754E-3,-6.197682E-3,-2.6135393E-3,1.8633898E-4,-1.7223838E-3,6.825056E-4,1.8514041E-3,4.745706E-3],"split_indices":[28,77,55,81,51,51,51,0,0,0,0,0,0,0,0],"split_type":[0,0,0,0,0,0,0,0,0,0,0,0,0,0,0],"sum_hessian":[3.865591E3,2.7025034E3,1.1630876E3,1.4013856E3,1.3011179E3,4.1910767E2,7.439799E2,1.0962667E3,3.051189E2,3.9840112E2,9.0271686E2,2.137826E2,2.0532509E2,4.321426E2,3.118373E2],"tree_param":{"num_deleted":"0","num_feature":"106","num_nodes":"15","size_leaf_vector":"1"}},{"base_weights":[1.212596E-1,2.4395016E-1,-1.9296579E-1,4.3235934E-1,1.1011538E-1,-2.6704097E-1,8.903317E-2,1.4635241E-3,4.9115075E-3,3.029629E-3,1.3728872E-4,-2.771297E-3,8.52287E-3,6.140772E-3,3.7072765E-4],"categories":[],"categories_nodes":[],"categories_segments":[],"categories_sizes":[],"default_left":[0,0,0,0,0,0,0,0,0,0,0,0,0,0,0],"id":33,"left_children":[1,3,5,7,9,11,13,-1,-1,-1,-1,-1,-1,-1,-1],"loss_changes":[1.4862064E2,6.985353E1,2.2628174E1,1.928566E1,3.010844E1,9.648823E0,6.0694537E0,0E0,0E0,0E0,0E0,0E0,0E0,0E0,0E0],"parents":[2147483647,0,0,1,1,2,2,3,3,4,4,5,5,6,6],"right_children":[2,4,6,8,10,12,14,-1,-1,-1,-1,-1,-1,-1,-1],"split_conditions":[2.2E1,-5E-1,2.3E1,4.62E-1,7E0,4.87E-1,8.2E1,1.4635241E-3,4.9115075E-3,3.029629E-3,1.3728872E-4,-2.771297E-3,8.52287E-3,6.140772E-3,3.7072765E-4],"split_indices":[51,77,80,3,29,7,6,0,0,0,0,0,0,0,0],"split_type":[0,0,0,0,0,0,0,0,0,0,0,0,0,0,0],"sum_hessian":[3.854666E3,2.7724805E3,1.0821855E3,1.1510673E3,1.6214132E3,8.573402E2,2.248453E2,1.9661745E2,9.544498E2,5.3991473E2,1.0814985E3,8.49845E2,7.4952335E0,1.9977041E1,2.0486827E2],"tree_param":{"num_deleted":"0","num_feature":"106","num_nodes":"15","size_leaf_vector":"1"}},{"base_weights":[-1.3464335E-1,-2.559008E-1,1.6535002E-1,-1.5115891E-1,-4.97134E-1,2.4101251E-1,-1.8731722E-1,-3.3099514E-3,-5.136326E-4,-5.7691894E-3,-3.3432408E-3,1.0578883E-3,3.3375605E-3,-3.9286558E-3,-1.82006E-5],"categories":[],"categories_nodes":[],"categories_segments":[],"categories_sizes":[],"default_left":[0,0,0,0,0,0,0,0,0,0,0,0,0,0,0],"id":34,"left_children":[1,3,5,7,9,11,13,-1,-1,-1,-1,-1,-1,-1,-1],"loss_changes":[1.3854315E2,6.846005E1,2.9255903E1,3.390843E1,1.0551605E1,1.1273331E1,7.3357153E0,0E0,0E0,0E0,0E0,0E0,0E0,0E0,0E0],"parents":[2147483647,0,0,1,1,2,2,3,3,4,4,5,5,6,6],"right_children":[2,4,6,8,10,12,14,-1,-1,-1,-1,-1,-1,-1,-1],"split_conditions":[2.2E1,2E1,2.5E1,7E0,1.5E1,2.6E1,1.026E2,-3.3099514E-3,-5.136326E-4,-5.7691894E-3,-3.3432408E-3,1.0578883E-3,3.3375605E-3,-3.9286558E-3,-1.82006E-5],"split_indices":[51,80,81,27,51,51,76,0,0,0,0,0,0,0,0],"split_type":[0,0,0,0,0,0,0,0,0,0,0,0,0,0,0],"sum_hessian":[3.8081309E3,2.7122046E3,1.0959263E3,1.8915032E3,8.207013E2,9.025954E2,1.9333087E2,6.746036E2,1.2168997E3,5.5020496E2,2.7049634E2,3.677272E2,5.348682E2,9.140008E1,1.0193079E2],"tree_param":{"num_deleted":"0","num_feature":"106","num_nodes":"15","size_leaf_vector":"1"}},{"base_weights":[1.2448528E-1,-1.788046E-1,2.4518046E-1,6.042541E-2,-2.9013252E-1,3.9438328E-1,8.335813E-2,-4.5013064E-4,2.4544105E-3,-4.080043E-3,-1.8302742E-3,2.6670878E-3,4.7264127E-3,2.1931417E-3,-2.2479094E-4],"categories":[],"categories_nodes":[],"categories_segments":[],"categories_sizes":[],"default_left":[0,0,0,0,0,0,0,0,0,0,0,0,0,0,0],"id":35,"left_children":[1,3,5,7,9,11,13,-1,-1,-1,-1,-1,-1,-1,-1],"loss_changes":[1.4295767E2,2.9626358E1,6.740051E1,6.9028926E0,9.512974E0,1.4432846E1,1.9310543E1,0E0,0E0,0E0,0E0,0E0,0E0,0E0,0E0],"parents":[2147483647,0,0,1,1,2,2,3,3,4,4,5,5,6,6],"right_children":[2,4,6,8,10,12,14,-1,-1,-1,-1,-1,-1,-1,-1],"split_conditions":[-2.4E0,-2E0,7E-1,-4.6E0,-6.2E0,1E0,9E0,-4.5013064E-4,2.4544105E-3,-4.080043E-3,-1.8302742E-3,2.6670878E-3,4.7264127E-3,2.1931417E-3,-2.2479094E-4],"split_indices":[25,77,77,25,25,25,29,0,0,0,0,0,0,0,0],"split_type":[0,0,0,0,0,0,0,0,0,0,0,0,0,0,0],"sum_hessian":[3.9049453E3,1.1113654E3,2.79358E3,3.5266946E2,7.5869586E2,1.453067E3,1.3405131E3,2.2434998E2,1.283195E2,3.6061523E2,3.980806E2,5.5284424E2,9.002227E2,5.8713306E2,7.5337994E2],"tree_param":{"num_deleted":"0","num_feature":"106","num_nodes":"15","size_leaf_vector":"1"}},{"base_weights":[-1.19022876E-1,-2.4015763E-1,1.8601136E-1,-3.7306145E-2,-3.548257E-1,2.7100286E-1,-9.71432E-2,-1.2748562E-3,1.6198095E-3,-2.9488145E-3,-5.438035E-3,2.7942418E-3,-9.7919125E-3,-4.6609077E-3,-3.245862E-4],"categories":[],"categories_nodes":[],"categories_segments":[],"categories_sizes":[],"default_left":[0,0,0,0,0,0,0,0,0,0,0,0,0,0,0],"id":36,"left_children":[1,3,5,7,9,11,13,-1,-1,-1,-1,-1,-1,-1,-1],"loss_changes":[1.4280713E2,6.4307236E1,2.6451286E1,1.7960718E1,1.9917068E1,8.854187E0,5.995081E0,0E0,0E0,0E0,0E0,0E0,0E0,0E0,0E0],"parents":[2147483647,0,0,1,1,2,2,3,3,4,4,5,5,6,6],"right_children":[2,4,6,8,10,12,14,-1,-1,-1,-1,-1,-1,-1,-1],"split_conditions":[2.2E1,1.1E1,2.3E1,1.5E1,2.6E1,4.87E-1,6.9E0,-1.2748562E-3,1.6198095E-3,-2.9488145E-3,-5.438035E-3,2.7942418E-3,-9.7919125E-3,-4.6609077E-3,-3.245862E-4],"split_indices":[51,103,79,51,103,7,60,0,0,0,0,0,0,0,0],"split_type":[0,0,0,0,0,0,0,0,0,0,0,0,0,0,0],"sum_hessian":[3.8644812E3,2.7662866E3,1.0981947E3,9.993712E2,1.7669153E3,8.4493646E2,2.5325818E2,6.8840063E2,3.1097058E2,1.3420112E3,4.2490405E2,8.3943964E2,5.4968467E0,3.745515E1,2.1580302E2],"tree_param":{"num_deleted":"0","num_feature":"106","num_nodes":"15","size_leaf_vector":"1"}},{"base_weights":[1.2376091E-1,-1.160885E-1,2.725279E-1,1.9756043E-1,-2.0006926E-1,1.06307566E-1,4.3711358E-1,-3.9548578E-4,2.933071E-3,-5.774103E-4,-3.091478E-3,-1.2505759E-3,1.7434952E-3,3.7657884E-3,6.649596E-3],"categories":[],"categories_nodes":[],"categories_segments":[],"categories_sizes":[],"default_left":[0,0,0,0,0,0,0,0,0,0,0,0,0,0,0],"id":37,"left_children":[1,3,5,7,9,11,13,-1,-1,-1,-1,-1,-1,-1,-1],"loss_changes":[1.3787262E2,3.895601E1,6.5181854E1,7.112468E0,1.8075417E1,1.8692223E1,1.6393417E1,0E0,0E0,0E0,0E0,0E0,0E0,0E0,0E0],"parents":[2147483647,0,0,1,1,2,2,3,3,4,4,5,5,6,6],"right_children":[2,4,6,8,10,12,14,-1,-1,-1,-1,-1,-1,-1,-1],"split_conditions":[4.69E-1,3.57E-1,1.5E1,2.86E-1,2.4E1,4E0,2.7E1,-3.9548578E-4,2.933071E-3,-5.774103E-4,-3.091478E-3,-1.2505759E-3,1.7434952E-3,3.7657884E-3,6.649596E-3],"split_indices":[3,55,103,3,51,103,79,0,0,0,0,0,0,0,0],"split_type":[0,0,0,0,0,0,0,0,0,0,0,0,0,0,0],"sum_hessian":[3.8633337E3,1.4786814E3,2.3846526E3,3.1202255E2,1.1666588E3,1.1868186E3,1.1978339E3,8.947042E1,2.2255212E2,5.0664554E2,6.6001324E2,2.6935825E2,9.1746045E2,9.469498E2,2.5088403E2],"tree_param":{"num_deleted":"0","num_feature":"106","num_nodes":"15","size_leaf_vector":"1"}},{"base_weights":[-1.2624013E-1,-2.3521538E-1,2.0100239E-1,-4.4754872E-1,-1.2455893E-1,2.6912236E-1,-1.9021964E-1,-3.7094152E-3,-5.962362E-3,-3.2085904E-3,-2.5990908E-4,1.6617953E-3,4.260004E-3,-4.726017E-3,-6.891822E-4],"categories":[],"categories_nodes":[],"categories_segments":[],"categories_sizes":[],"default_left":[0,0,0,0,0,0,0,0,0,0,0,0,0,0,0],"id":38,"left_children":[1,3,5,7,9,11,13,-1,-1,-1,-1,-1,-1,-1,-1],"loss_changes":[1.3731981E2,6.781264E1,2.5643257E1,1.1150452E1,3.6718605E1,1.3166084E1,4.822498E0,0E0,0E0,0E0,0E0,0E0,0E0,0E0,0E0],"parents":[2147483647,0,0,1,1,2,2,3,3,4,4,5,5,6,6],"right_children":[2,4,6,8,10,12,14,-1,-1,-1,-1,-1,-1,-1,-1],"split_conditions":[2.3E1,-1.4E0,2.6E1,2.7E1,7E0,2.8E1,1.3E1,-3.7094152E-3,-5.962362E-3,-3.2085904E-3,-2.5990908E-4,1.6617953E-3,4.260004E-3,-4.726017E-3,-6.891822E-4],"split_indices":[51,77,81,81,27,51,44,0,0,0,0,0,0,0,0],"split_type":[0,0,0,0,0,0,0,0,0,0,0,0,0,0,0],"sum_hessian":[3.8503352E3,2.888701E3,9.6163434E2,9.892563E2,1.8994446E3,8.1926917E2,1.4236516E2,6.5355286E2,3.3570343E2,6.345286E2,1.264916E3,4.951783E2,3.2409088E2,4.2444057E1,9.99211E1],"tree_param":{"num_deleted":"0","num_feature":"106","num_nodes":"15","size_leaf_vector":"1"}},{"base_weights":[1.2291857E-1,2.4512425E-1,-1.8711227E-1,3.340648E-1,1.2478301E-2,-2.6680028E-1,1.4068465E-1,2.0485977E-3,4.504122E-3,2.6665314E-3,-6.853926E-4,-1.5382157E-3,-3.9262506E-3,-7.5014547E-4,3.0880128E-3],"categories":[],"categories_nodes":[],"categories_segments":[],"categories_sizes":[],"default_left":[0,0,0,0,0,0,0,0,0,0,0,0,0,0,0],"id":39,"left_children":[1,3,5,7,9,11,13,-1,-1,-1,-1,-1,-1,-1,-1],"loss_changes":[1.4604414E2,5.7175842E1,2.8477703E1,2.9989426E1,1.5777165E1,1.2403156E1,7.7459407E0,0E0,0E0,0E0,0E0,0E0,0E0,0E0,0E0],"parents":[2147483647,0,0,1,1,2,2,3,3,4,4,5,5,6,6],"right_children":[2,4,6,8,10,12,14,-1,-1,-1,-1,-1,-1,-1,-1],"split_conditions":[2.2E1,3.5E0,2.4E1,5.63E-1,5E0,2.7E1,-6.5E0,2.0485977E-3,4.504122E-3,2.6665314E-3,-6.853926E-4,-1.5382157E-3,-3.9262506E-3,-7.5014547E-4,3.0880128E-3],"split_indices":[51,77,81,3,27,51,25,0,0,0,0,0,0,0,0],"split_type":[0,0,0,0,0,0,0,0,0,0,0,0,0,0,0],"sum_hessian":[3.8543015E3,2.7648262E3,1.0894753E3,1.9998209E3,7.6500525E2,8.7667725E2,2.1279816E2,9.480909E2,1.05173E3,1.8514828E2,5.7985693E2,4.624542E2,4.1422302E2,9.2972244E1,1.1982592E2],"tree_param":{"num_deleted":"0","num_feature":"106","num_nodes":"15","size_leaf_vector":"1"}},{"base_weights":[-1.1278175E-1,-3.0622265E-1,7.238767E-2,-1.9927627E-1,-5.627693E-1,-8.893832E-2,2.3456976E-1,1.0374181E-3,-2.5963243E-3,-4.8554568E-3,-7.4670594E-3,-1.8427352E-3,1.7666167E-3,1.5562226E-3,4.744117E-3],"categories":[],"categories_nodes":[],"categories_segments":[],"categories_sizes":[],"default_left":[0,0,0,0,0,0,0,0,0,0,0,0,0,0,0],"id":40,"left_children":[1,3,5,7,9,11,13,-1,-1,-1,-1,-1,-1,-1,-1],"loss_changes":[1.3968211E2,5.2238556E1,5.2132133E1,2.4643734E1,7.8060913E0,2.5282778E1,1.8743969E1,0E0,0E0,0E0,0E0,0E0,0E0,0E0,0E0],"parents":[2147483647,0,0,1,1,2,2,3,3,4,4,5,5,6,6],"right_children":[2,4,6,8,10,12,14,-1,-1,-1,-1,-1,-1,-1,-1],"split_conditions":[1.5E1,2E1,4E-1,4E0,2.8E1,2.7E1,2.7E1,1.0374181E-3,-2.5963243E-3,-4.8554568E-3,-7.4670594E-3,-1.8427352E-3,1.7666167E-3,1.5562226E-3,4.744117E-3],"split_indices":[51,80,77,103,81,51,51,0,0,0,0,0,0,0,0],"split_type":[0,0,0,0,0,0,0,0,0,0,0,0,0,0,0],"sum_hessian":[3.8988137E3,1.9070504E3,1.9917632E3,1.3463613E3,5.606891E2,9.982305E2,9.935327E2,2.2334238E2,1.123019E3,3.955358E2,1.6515327E2,7.3486365E2,2.633669E2,7.4792426E2,2.4560843E2],"tree_param":{"num_deleted":"0","num_feature":"106","num_nodes":"15","size_leaf_vector":"1"}},{"base_weights":[1.1792197E-1,2.1853673E-1,-2.37832E-1,3.5885915E-1,6.457539E-2,-3.2405704E-1,9.905904E-2,1.8893555E-3,4.2933556E-3,2.7426837E-3,-4.0239096E-4,-2.2386152E-3,-4.4079223E-3,1.63122E-3,-4.129116E-3],"categories":[],"categories_nodes":[],"categories_segments":[],"categories_sizes":[],"default_left":[0,0,0,0,0,0,0,0,0,0,0,0,0,0,0],"id":41,"left_children":[1,3,5,7,9,11,13,-1,-1,-1,-1,-1,-1,-1,-1],"loss_changes":[1.3795752E2,6.486893E1,2.4703423E1,1.875093E1,3.1523941E1,7.838257E0,5.654679E0,0E0,0E0,0E0,0E0,0E0,0E0,0E0,0E0],"parents":[2147483647,0,0,1,1,2,2,3,3,4,4,5,5,6,6],"right_children":[2,4,6,8,10,12,14,-1,-1,-1,-1,-1,-1,-1,-1],"split_conditions":[2.4E1,7E-1,2.3E1,5E-1,7E0,2.8E1,3.71E1,1.8893555E-3,4.2933556E-3,2.7426837E-3,-4.0239096E-4,-2.2386152E-3,-4.4079223E-3,1.63122E-3,-4.129116E-3],"split_indices":[51,77,80,3,27,51,9,0,0,0,0,0,0,0,0],"split_type":[0,0,0,0,0,0,0,0,0,0,0,0,0,0,0],"sum_hessian":[3.854006E3,3.0045698E3,8.4943634E2,1.5715006E3,1.4330693E3,6.765727E2,1.7286366E2,4.612297E2,1.1102709E3,4.778566E2,9.552127E2,3.646967E2,3.1187598E2,1.5387297E2,1.8990685E1],"tree_param":{"num_deleted":"0","num_feature":"106","num_nodes":"15","size_leaf_vector":"1"}},{"base_weights":[-1.1593163E-1,-2.996836E-1,5.8830693E-2,-3.7014297E-1,5.1295526E-2,-1.9275294E-1,1.6360407E-1,-2.8200112E-3,-5.3603193E-3,8.380499E-4,-6.16259E-3,6.641814E-4,-3.344982E-3,8.897981E-4,3.7679118E-3],"categories":[],"categories_nodes":[],"categories_segments":[],"categories_sizes":[],"default_left":[0,0,0,0,0,0,0,0,0,0,0,0,0,0,0],"id":42,"left_children":[1,3,5,7,9,11,13,-1,-1,-1,-1,-1,-1,-1,-1],"loss_changes":[1.2490564E2,4.69196E1,5.2532806E1,2.2993729E1,6.8276296E0,2.1546043E1,2.2339169E1,0E0,0E0,0E0,0E0,0E0,0E0,0E0,0E0],"parents":[2147483647,0,0,1,1,2,2,3,3,4,4,5,5,6,6],"right_children":[2,4,6,8,10,12,14,-1,-1,-1,-1,-1,-1,-1,-1],"split_conditions":[1.5E1,5.6E0,-2.4E0,2E1,2.7E1,-4.6E0,2.7E1,-2.8200112E-3,-5.3603193E-3,8.380499E-4,-6.16259E-3,6.641814E-4,-3.344982E-3,8.897981E-4,3.7679118E-3],"split_indices":[51,77,77,80,87,25,51,0,0,0,0,0,0,0,0],"split_type":[0,0,0,0,0,0,0,0,0,0,0,0,0,0,0],"sum_hessian":[3.8886707E3,1.8958257E3,1.9928451E3,1.5790996E3,3.167261E2,5.856158E2,1.4072292E3,1.0317648E3,5.473349E2,3.0224423E2,1.4481852E1,2.0681569E2,3.788001E2,1.0428127E3,3.6441647E2],"tree_param":{"num_deleted":"0","num_feature":"106","num_nodes":"15","size_leaf_vector":"1"}},{"base_weights":[1.1185295E-1,2.9625866E-1,-6.5056756E-2,4.0784317E-1,6.456493E-2,1.7216688E-1,-1.7837703E-1,3.2809307E-3,5.9498516E-3,-1.2472261E-3,1.6845514E-3,3.1643473E-3,2.5236917E-5,-6.149612E-4,-3.27062E-3],"categories":[],"categories_nodes":[],"categories_segments":[],"categories_sizes":[],"default_left":[0,0,0,0,0,0,0,0,0,0,0,0,0,0,0],"id":43,"left_children":[1,3,5,7,9,11,13,-1,-1,-1,-1,-1,-1,-1,-1],"loss_changes":[1.2586247E2,4.878557E1,5.2920578E1,1.8911285E1,1.2089094E1,1.553628E1,2.311515E1,0E0,0E0,0E0,0E0,0E0,0E0,0E0,0E0],"parents":[2147483647,0,0,1,1,2,2,3,3,4,4,5,5,6,6],"right_children":[2,4,6,8,10,12,14,-1,-1,-1,-1,-1,-1,-1,-1],"split_conditions":[1.5E1,2.9E0,-1.9E0,2.3E1,4E0,2.2E1,2.4E1,3.2809307E-3,5.9498516E-3,-1.2472261E-3,1.6845514E-3,3.1643473E-3,2.5236917E-5,-6.149612E-4,-3.27062E-3],"split_indices":[51,77,77,80,103,28,51,0,0,0,0,0,0,0,0],"split_type":[0,0,0,0,0,0,0,0,0,0,0,0,0,0,0],"sum_hessian":[3.8572036E3,1.8888341E3,1.9683696E3,1.2745153E3,6.143188E2,6.3601245E2,1.3323572E3,8.9424475E2,3.802705E2,2.1734126E2,3.9697754E2,3.433473E2,2.9266516E2,7.464155E2,5.859416E2],"tree_param":{"num_deleted":"0","num_feature":"106","num_nodes":"15","size_leaf_vector":"1"}},{"base_weights":[-1.1663547E-1,-3.0100244E-1,5.904384E-2,-3.9791134E-1,-5.6111336E-2,-1.8166532E-1,1.5796885E-1,-3.46647E-3,-6.811647E-3,-1.9123093E-3,7.7371113E-4,1.05243904E-4,-3.6008116E-3,9.1522303E-4,3.4347614E-3],"categories":[],"categories_nodes":[],"categories_segments":[],"categories_sizes":[],"default_left":[0,0,0,0,0,0,0,0,0,0,0,0,0,0,0],"id":44,"left_children":[1,3,5,7,9,11,13,-1,-1,-1,-1,-1,-1,-1,-1],"loss_changes":[1.2411624E2,4.4323578E1,4.6710995E1,1.9320755E1,9.5811405E0,1.9618626E1,1.7094475E1,0E0,0E0,0E0,0E0,0E0,0E0,0E0,0E0],"parents":[2147483647,0,0,1,1,2,2,3,3,4,4,5,5,6,6],"right_children":[2,4,6,8,10,12,14,-1,-1,-1,-1,-1,-1,-1,-1],"split_conditions":[1.5E1,3.5E0,-2.4E0,2.7E1,7E0,3.95E-1,2.7E1,-3.46647E-3,-6.811647E-3,-1.9123093E-3,7.7371113E-4,1.05243904E-4,-3.6008116E-3,9.1522303E-4,3.4347614E-3],"split_indices":[51,77,77,81,27,3,51,0,0,0,0,0,0,0,0],"split_type":[0,0,0,0,0,0,0,0,0,0,0,0,0,0,0],"sum_hessian":[3.8310923E3,1.8695682E3,1.961524E3,1.3391614E3,5.304069E2,5.7101294E2,1.3905111E3,1.1344241E3,2.0473729E2,2.6393784E2,2.6646912E2,2.7467087E2,2.9634207E2,1.0243053E3,3.6620575E2],"tree_param":{"num_deleted":"0","num_feature":"106","num_nodes":"15","size_leaf_vector":"1"}},{"base_weights":[1.2130903E-1,3.0350116E-1,-5.232222E-2,2.0553917E-1,5.4636693E-1,1.5531072E-1,-1.6483422E-1,2.6881867E-3,-5.100345E-4,6.8134987E-3,4.417525E-3,-1.11035966E-4,3.21859E-3,-9.0725196E-4,-3.7409123E-3],"categories":[],"categories_nodes":[],"categories_segments":[],"categories_sizes":[],"default_left":[0,0,0,0,0,0,0,0,0,0,0,0,0,0,0],"id":45,"left_children":[1,3,5,7,9,11,13,-1,-1,-1,-1,-1,-1,-1,-1],"loss_changes":[1.2230999E2,4.4797974E1,4.623703E1,2.185405E1,7.5096893E0,1.9301437E1,1.9860737E1,0E0,0E0,0E0,0E0,0E0,0E0,0E0,0E0],"parents":[2147483647,0,0,1,1,2,2,3,3,4,4,5,5,6,6],"right_children":[2,4,6,8,10,12,14,-1,-1,-1,-1,-1,-1,-1,-1],"split_conditions":[1.5E1,2E1,-1.4E0,6.95E-1,3.11E-1,3.95E-1,2.7E1,2.6881867E-3,-5.100345E-4,6.8134987E-3,4.417525E-3,-1.11035966E-4,3.21859E-3,-9.0725196E-4,-3.7409123E-3],"split_indices":[51,80,77,55,55,3,51,0,0,0,0,0,0,0,0],"split_type":[0,0,0,0,0,0,0,0,0,0,0,0,0,0,0],"sum_hessian":[3.8654353E3,1.8864622E3,1.978973E3,1.3446731E3,5.4178906E2,6.9516614E2,1.2838069E3,1.0789271E3,2.657461E2,2.3590111E2,3.0588794E2,3.4746927E2,3.476969E2,9.4851025E2,3.352966E2],"tree_param":{"num_deleted":"0","num_feature":"106","num_nodes":"15","size_leaf_vector":"1"}},{"base_weights":[-1.1363788E-1,-3.033504E-1,6.571792E-2,-3.7260586E-1,4.557246E-2,-9.738753E-2,2.3516925E-1,-2.8299512E-3,-5.4157614E-3,1.5029438E-3,-1.9950361E-3,-2.2708965E-3,7.2980544E-4,1.4038354E-3,4.378277E-3],"categories":[],"categories_nodes":[],"categories_segments":[],"categories_sizes":[],"default_left":[0,0,0,0,0,0,0,0,0,0,0,0,0,0,0],"id":46,"left_children":[1,3,5,7,9,11,13,-1,-1,-1,-1,-1,-1,-1,-1],"loss_changes":[1.3105365E2,4.5262833E1,5.4719376E1,2.3552475E1,7.9495745E0,2.2297087E1,1.8589428E1,0E0,0E0,0E0,0E0,0E0,0E0,0E0,0E0],"parents":[2147483647,0,0,1,1,2,2,3,3,4,4,5,5,6,6],"right_children":[2,4,6,8,10,12,14,-1,-1,-1,-1,-1,-1,-1,-1],"split_conditions":[1.5E1,5.6E0,5.12E-1,2E1,4.8E0,2.4E1,2.6E1,-2.8299512E-3,-5.4157614E-3,1.5029438E-3,-1.9950361E-3,-2.2708965E-3,7.2980544E-4,1.4038354E-3,4.378277E-3],"split_indices":[51,77,55,80,73,51,51,0,0,0,0,0,0,0,0],"split_type":[0,0,0,0,0,0,0,0,0,0,0,0,0,0,0],"sum_hessian":[3.8507122E3,1.8715646E3,1.9791477E3,1.5618439E3,3.0972064E2,1.0081779E3,9.709697E2,1.02115155E3,5.406923E2,2.1731E2,9.241065E1,5.727182E2,4.3545975E2,6.62005E2,3.089647E2],"tree_param":{"num_deleted":"0","num_feature":"106","num_nodes":"15","size_leaf_vector":"1"}},{"base_weights":[1.0822447E-1,2.967995E-1,-6.834857E-2,3.6886862E-1,-7.4151E-2,7.7592246E-2,-2.2352804E-1,5.1989043E-3,2.7799527E-3,-1.0331736E-3,7.616161E-3,-1.1585605E-3,1.8767617E-3,-4.566384E-3,-1.4081135E-3],"categories":[],"categories_nodes":[],"categories_segments":[],"categories_sizes":[],"default_left":[0,0,0,0,0,0,0,0,0,0,0,0,0,0,0],"id":47,"left_children":[1,3,5,7,9,11,13,-1,-1,-1,-1,-1,-1,-1,-1],"loss_changes":[1.2803392E2,4.973958E1,4.4975266E1,2.1275162E1,7.311654E0,2.17904E1,1.8492977E1,0E0,0E0,0E0,0E0,0E0,0E0,0E0,0E0],"parents":[2147483647,0,0,1,1,2,2,3,3,4,4,5,5,6,6],"right_children":[2,4,6,8,10,12,14,-1,-1,-1,-1,-1,-1,-1,-1],"split_conditions":[1.5E1,5.8E0,5.14E-1,-1.7E0,2.36E1,-4.6E0,-6.2E0,5.1989043E-3,2.7799527E-3,-1.0331736E-3,7.616161E-3,-1.1585605E-3,1.8767617E-3,-4.566384E-3,-1.4081135E-3],"split_indices":[51,77,55,77,22,25,25,0,0,0,0,0,0,0,0],"split_type":[0,0,0,0,0,0,0,0,0,0,0,0,0,0,0],"sum_hessian":[3.8443303E3,1.8592267E3,1.9851036E3,1.5569995E3,3.0222726E2,1.0226979E3,9.624057E2,5.84331E2,9.7266846E2,2.9223618E2,9.991085E0,3.7057687E2,6.52121E2,2.5162386E2,7.1078186E2],"tree_param":{"num_deleted":"0","num_feature":"106","num_nodes":"15","size_leaf_vector":"1"}},{"base_weights":[-1.0958905E-1,-2.2437724E-1,1.5965167E-1,-4.4714198E-1,-1.2075863E-1,2.5127798E-1,-1.45836E-1,-1.3118312E-3,-4.8640724E-3,-2.9399996E-3,-2.538436E-4,1.6423414E-3,4.37055E-3,-4.7487637E-4,-3.3424082E-3],"categories":[],"categories_nodes":[],"categories_segments":[],"categories_sizes":[],"default_left":[0,0,0,0,0,0,0,0,0,0,0,0,0,0,0],"id":48,"left_children":[1,3,5,7,9,11,13,-1,-1,-1,-1,-1,-1,-1,-1],"loss_changes":[1.1936153E2,6.2440567E1,3.2318558E1,1.0592682E1,3.0510939E1,1.4294094E1,4.8908825E0,0E0,0E0,0E0,0E0,0E0,0E0,0E0,0E0],"parents":[2147483647,0,0,1,1,2,2,3,3,4,4,5,5,6,6],"right_children":[2,4,6,8,10,12,14,-1,-1,-1,-1,-1,-1,-1,-1],"split_conditions":[2E1,-1.7E0,2.4E1,5E0,7E0,2.8E1,2.8E1,-1.3118312E-3,-4.8640724E-3,-2.9399996E-3,-2.538436E-4,1.6423414E-3,4.37055E-3,-4.7487637E-4,-3.3424082E-3],"split_indices":[28,77,103,54,27,51,80,0,0,0,0,0,0,0,0],"split_type":[0,0,0,0,0,0,0,0,0,0,0,0,0,0,0],"sum_hessian":[3.8617007E3,2.707691E3,1.1540098E3,8.59213E2,1.8484778E3,8.8801E2,2.659998E2,9.530404E1,7.6390894E2,6.5587164E2,1.1926062E3,6.051842E2,2.828258E2,1.7520026E2,9.079952E1],"tree_param":{"num_deleted":"0","num_feature":"106","num_nodes":"15","size_leaf_vector":"1"}},{"base_weights":[1.1258298E-1,2.2308642E-1,-1.8640298E-1,1.5010376E-2,3.411939E-1,9.961855E-2,-2.5876555E-1,-1.680487E-3,1.0170918E-3,2.4945915E-3,4.6092398E-3,2.5772084E-3,-7.668274E-4,-2.0817332E-3,-4.9998555E-3],"categories":[],"categories_nodes":[],"categories_segments":[],"categories_sizes":[],"default_left":[0,0,0,0,0,0,0,0,0,0,0,0,0,0,0],"id":49,"left_children":[1,3,5,7,9,11,13,-1,-1,-1,-1,-1,-1,-1,-1],"loss_changes":[1.2678942E2,6.882626E1,2.1447197E1,1.610444E1,1.9546738E1,5.841275E0,1.0006462E1,0E0,0E0,0E0,0E0,0E0,0E0,0E0,0E0],"parents":[2147483647,0,0,1,1,2,2,3,3,4,4,5,5,6,6],"right_children":[2,4,6,8,10,12,14,-1,-1,-1,-1,-1,-1,-1,-1],"split_conditions":[2.2E1,1.1E1,3.57E-1,4E0,2.2E1,2.1E1,2.3E1,-1.680487E-3,1.0170918E-3,2.4945915E-3,4.6092398E-3,2.5772084E-3,-7.668274E-4,-2.0817332E-3,-4.9998555E-3],"split_indices":[29,103,55,103,103,44,30,0,0,0,0,0,0,0,0],"split_type":[0,0,0,0,0,0,0,0,0,0,0,0,0,0,0],"sum_hessian":[3.8372341E3,2.8019937E3,1.0352404E3,1.0149187E3,1.787075E3,2.0874232E2,8.2649805E2,3.2578882E2,6.891299E2,1.0124783E3,7.7459674E2,1.10325966E2,9.841636E1,6.837027E2,1.4279536E2],"tree_param":{"num_deleted":"0","num_feature":"106","num_nodes":"15","size_leaf_vector":"1"}},{"base_weights":[-1.18713066E-1,-2.2662404E-1,1.5387921E-1,-1.9674255E-2,-3.449755E-1,2.2978936E-1,-1.8195046E-1,-1.6835082E-3,8.266403E-4,-2.6006321E-3,-4.7569578E-3,1.3034828E-3,3.4309167E-3,-3.6082803E-3,-2.8995994E-6],"categories":[],"categories_nodes":[],"categories_segments":[],"categories_sizes":[],"default_left":[0,0,0,0,0,0,0,0,0,0,0,0,0,0,0],"id":50,"left_children":[1,3,5,7,9,11,13,-1,-1,-1,-1,-1,-1,-1,-1],"loss_changes":[1.1308768E2,6.742134E1,2.7795862E1,1.5262617E1,1.9359238E1,9.968048E0,6.487819E0,0E0,0E0,0E0,0E0,0E0,0E0,0E0,0E0],"parents":[2147483647,0,0,1,1,2,2,3,3,4,4,5,5,6,6],"right_children":[2,4,6,8,10,12,14,-1,-1,-1,-1,-1,-1,-1,-1],"split_conditions":[2.2E1,1.1E1,2.4E1,9E0,6.04E-1,2.7E1,8.68E1,-1.6835082E-3,8.266403E-4,-2.6006321E-3,-4.7569578E-3,1.3034828E-3,3.4309167E-3,-3.6082803E-3,-2.8995994E-6],"split_indices":[51,103,80,51,3,51,6,0,0,0,0,0,0,0,0],"split_type":[0,0,0,0,0,0,0,0,0,0,0,0,0,0,0],"sum_hessian":[3.8440012E3,2.7541147E3,1.0898864E3,1.002355E3,1.7517598E3,8.8921875E2,2.0066757E2,4.0903033E2,5.9332465E2,1.0625929E3,6.8916693E2,4.741623E2,4.1505643E2,1.0078119E2,9.988639E1],"tree_param":{"num_deleted":"0","num_feature":"106","num_nodes":"15","size_leaf_vector":"1"}},{"base_weights":[1.14978604E-1,3.0037862E-1,-6.2119503E-2,5.6176137E-2,4.0748486E-1,-2.067746E-1,9.5261194E-2,-1.2038113E-3,1.6614577E-3,3.291869E-3,5.65848E-3,-9.385428E-4,-3.5554613E-3,-1.0762397E-3,2.0481842E-3],"categories":[],"categories_nodes":[],"categories_segments":[],"categories_sizes":[],"default_left":[0,0,0,0,0,0,0,0,0,0,0,0,0,0,0],"id":51,"left_children":[1,3,5,7,9,11,13,-1,-1,-1,-1,-1,-1,-1,-1],"loss_changes":[1.2640306E2,4.914241E1,4.482491E1,1.1147191E1,1.6098312E1,1.7188087E1,2.0960419E1,0E0,0E0,0E0,0E0,0E0,0E0,0E0,0E0],"parents":[2147483647,0,0,1,1,2,2,3,3,4,4,5,5,6,6],"right_children":[2,4,6,8,10,12,14,-1,-1,-1,-1,-1,-1,-1,-1],"split_conditions":[1.5E1,9E0,1.6E1,4E0,2.2E1,2.4E1,-4.8E0,-1.2038113E-3,1.6614577E-3,3.291869E-3,5.65848E-3,-9.385428E-4,-3.5554613E-3,-1.0762397E-3,2.0481842E-3],"split_indices":[51,103,103,103,80,51,25,0,0,0,0,0,0,0,0],"split_type":[0,0,0,0,0,0,0,0,0,0,0,0,0,0,0],"sum_hessian":[3.84888E3,1.8806085E3,1.9682715E3,5.73687E2,1.3069214E3,1.0259148E3,9.423567E2,2.1982967E2,3.5385736E2,8.751626E2,4.3175885E2,5.837063E2,4.4220847E2,3.3011584E2,6.1224084E2],"tree_param":{"num_deleted":"0","num_feature":"106","num_nodes":"15","size_leaf_vector":"1"}},{"base_weights":[-1.1856979E-1,-2.2723936E-1,1.7682374E-1,-4.3047264E-1,-1.09369196E-1,-1.2701431E-1,2.551406E-1,-2.4771777E-3,-4.8825624E-3,-2.5605583E-3,3.4049854E-6,-3.1437771E-3,1.7975425E-4,3.805036E-3,1.6280658E-3],"categories":[],"categories_nodes":[],"categories_segments":[],"categories_sizes":[],"default_left":[0,0,0,0,0,0,0,0,0,0,0,0,0,0,0],"id":52,"left_children":[1,3,5,7,9,11,13,-1,-1,-1,-1,-1,-1,-1,-1],"loss_changes":[1.2378469E2,6.747522E1,2.4687943E1,1.083902E1,2.8747723E1,5.7971306E0,9.484875E0,0E0,0E0,0E0,0E0,0E0,0E0,0E0,0E0],"parents":[2147483647,0,0,1,1,2,2,3,3,4,4,5,5,6,6],"right_children":[2,4,6,8,10,12,14,-1,-1,-1,-1,-1,-1,-1,-1],"split_conditions":[2.2E1,-1.1E0,3.6E-1,-6E-1,9E0,1.9E1,-6.5E0,-2.4771777E-3,-4.8825624E-3,-2.5605583E-3,3.4049854E-6,-3.1437771E-3,1.7975425E-4,3.805036E-3,1.6280658E-3],"split_indices":[29,77,55,25,29,44,25,0,0,0,0,0,0,0,0],"split_type":[0,0,0,0,0,0,0,0,0,0,0,0,0,0,0],"sum_hessian":[3.8558052E3,2.8190813E3,1.0367239E3,1.0344153E3,1.784666E3,2.1218643E2,8.245374E2,2.4903632E2,7.8537897E2,7.6397546E2,1.0206905E3,9.281668E1,1.1936974E2,3.4912756E2,4.7540982E2],"tree_param":{"num_deleted":"0","num_feature":"106","num_nodes":"15","size_leaf_vector":"1"}},{"base_weights":[1.03644654E-1,2.0840558E-1,-1.852145E-1,6.1860643E-2,3.490724E-1,-2.7570835E-1,4.3544527E-2,2.358761E-3,-3.1568337E-4,2.7664676E-3,5.01725E-3,-2.111137E-3,-4.4876016E-3,2.1634756E-3,-9.6884224E-4],"categories":[],"categories_nodes":[],"categories_segments":[],"categories_sizes":[],"default_left":[0,0,0,0,0,0,0,0,0,0,0,0,0,0,0],"id":53,"left_children":[1,3,5,7,9,11,13,-1,-1,-1,-1,-1,-1,-1,-1],"loss_changes":[1.168936E2,5.8395348E1,2.1301727E1,2.2602175E1,1.5896179E1,8.160759E0,7.0784016E0,0E0,0E0,0E0,0E0,0E0,0E0,0E0,0E0],"parents":[2147483647,0,0,1,1,2,2,3,3,4,4,5,5,6,6],"right_children":[2,4,6,8,10,12,14,-1,-1,-1,-1,-1,-1,-1,-1],"split_conditions":[2.2E1,1.4E1,2.2E1,7E0,3.9E0,4E1,1.9E1,2.358761E-3,-3.1568337E-4,2.7664676E-3,5.01725E-3,-2.111137E-3,-4.4876016E-3,2.1634756E-3,-9.6884224E-4],"split_indices":[29,81,103,27,25,2,44,0,0,0,0,0,0,0,0],"split_type":[0,0,0,0,0,0,0,0,0,0,0,0,0,0,0],"sum_hessian":[3.862523E3,2.8347974E3,1.0277256E3,1.3888087E3,1.4459886E3,7.367101E2,2.910155E2,4.854868E2,9.033219E2,9.8133374E2,4.6465494E2,5.370475E2,1.996626E2,1.307637E2,1.6025179E2],"tree_param":{"num_deleted":"0","num_feature":"106","num_nodes":"15","size_leaf_vector":"1"}},{"base_weights":[-1.1962566E-1,-2.3115687E-1,1.7789051E-1,-9.370515E-2,-3.583651E-1,5.6738023E-2,3.1608173E-1,-2.3614122E-3,4.840289E-5,-3.139941E-3,-5.7679676E-3,9.895184E-4,-3.274181E-3,4.7274143E-3,2.116013E-3],"categories":[],"categories_nodes":[],"categories_segments":[],"categories_sizes":[],"default_left":[0,0,0,0,0,0,0,0,0,0,0,0,0,0,0],"id":54,"left_children":[1,3,5,7,9,11,13,-1,-1,-1,-1,-1,-1,-1,-1],"loss_changes":[1.2725676E2,4.872548E1,1.746339E1,1.88499E1,1.3929855E1,9.02207E0,7.9083633E0,0E0,0E0,0E0,0E0,0E0,0E0,0E0,0E0],"parents":[2147483647,0,0,1,1,2,2,3,3,4,4,5,5,6,6],"right_children":[2,4,6,8,10,12,14,-1,-1,-1,-1,-1,-1,-1,-1],"split_conditions":[2.1E1,1.4E1,2.1E1,8E0,2.8E1,5.4E1,-6.5E0,-2.3614122E-3,4.840289E-5,-3.139941E-3,-5.7679676E-3,9.895184E-4,-3.274181E-3,4.7274143E-3,2.116013E-3],"split_indices":[28,81,53,27,81,52,25,0,0,0,0,0,0,0,0],"split_type":[0,0,0,0,0,0,0,0,0,0,0,0,0,0,0],"sum_hessian":[3.8346904E3,2.7893813E3,1.0453093E3,1.3411713E3,1.44821E3,5.5745355E2,4.8785577E2,5.488079E2,7.923634E2,1.2042806E3,2.4392929E2,5.0256287E2,5.4890644E1,1.9466388E2,2.931919E2],"tree_param":{"num_deleted":"0","num_feature":"106","num_nodes":"15","size_leaf_vector":"1"}},{"base_weights":[1.12492055E-1,2.3468581E-1,-1.4048034E-1,3.5265435E-2,3.496208E-1,1.3975431E-1,-2.1023531E-1,1.7559619E-3,-7.2877464E-4,2.691949E-3,4.8629E-3,5.067502E-3,6.794094E-4,-3.5710137E-3,-1.2779217E-3],"categories":[],"categories_nodes":[],"categories_segments":[],"categories_sizes":[],"default_left":[0,0,0,0,0,0,0,0,0,0,0,0,0,0,0],"id":55,"left_children":[1,3,5,7,9,11,13,-1,-1,-1,-1,-1,-1,-1,-1],"loss_changes":[1.1965223E2,5.9784103E1,2.4647936E1,1.4500276E1,1.8107605E1,6.5536904E0,1.2170296E1,0E0,0E0,0E0,0E0,0E0,0E0,0E0,0E0],"parents":[2147483647,0,0,1,1,2,2,3,3,4,4,5,5,6,6],"right_children":[2,4,6,8,10,12,14,-1,-1,-1,-1,-1,-1,-1,-1],"split_conditions":[1.9E1,1.1E1,3.57E-1,9E0,2.2E1,2.1E1,-6.5E0,1.7559619E-3,-7.2877464E-4,2.691949E-3,4.8629E-3,5.067502E-3,6.794094E-4,-3.5710137E-3,-1.2779217E-3],"split_indices":[28,103,55,51,80,28,25,0,0,0,0,0,0,0,0],"split_type":[0,0,0,0,0,0,0,0,0,0,0,0,0,0,0],"sum_hessian":[3.87027E3,2.6099724E3,1.2602976E3,9.5462714E2,1.6553455E3,2.5087889E2,1.0094187E3,4.1585654E2,5.3877057E2,1.0427474E3,6.1259796E2,4.0730606E1,2.1014828E2,3.623586E2,6.4706006E2],"tree_param":{"num_deleted":"0","num_feature":"106","num_nodes":"15","size_leaf_vector":"1"}},{"base_weights":[-1.1214519E-1,1.3213731E-1,-2.3172866E-1,-7.826951E-2,2.3909605E-1,-4.4159484E-1,-1.3239485E-1,-1.4888613E-3,1.2928138E-3,1.6592108E-3,4.2824866E-3,-6.9263316E-4,-4.751759E-3,-2.9299485E-3,-4.1720865E-4],"categories":[],"categories_nodes":[],"categories_segments":[],"categories_sizes":[],"default_left":[0,0,0,0,0,0,0,0,0,0,0,0,0,0,0],"id":56,"left_children":[1,3,5,7,9,11,13,-1,-1,-1,-1,-1,-1,-1,-1],"loss_changes":[1.1189349E2,2.8339941E1,5.3545273E1,6.2167234E0,1.1486595E1,1.026712E1,2.5389162E1,0E0,0E0,0E0,0E0,0E0,0E0,0E0,0E0],"parents":[2147483647,0,0,1,1,2,2,3,3,4,4,5,5,6,6],"right_children":[2,4,6,8,10,12,14,-1,-1,-1,-1,-1,-1,-1,-1],"split_conditions":[-1.6E0,-1.7E0,-1.6E0,3.37E1,3.7E1,4.49E-1,7E0,-1.4888613E-3,1.2928138E-3,1.6592108E-3,4.2824866E-3,-6.9263316E-4,-4.751759E-3,-2.9299485E-3,-4.1720865E-4],"split_indices":[25,77,77,67,2,3,27,0,0,0,0,0,0,0,0],"split_type":[0,0,0,0,0,0,0,0,0,0,0,0,0,0,0],"sum_hessian":[3.8298296E3,1.2583838E3,2.5714458E3,4.2379523E2,8.345886E2,8.256704E2,1.7457755E3,3.165896E2,1.07205605E2,6.0230084E2,2.3228775E2,6.857926E1,7.570912E2,6.294968E2,1.1162787E3],"tree_param":{"num_deleted":"0","num_feature":"106","num_nodes":"15","size_leaf_vector":"1"}},{"base_weights":[1.027722E-1,2.0666705E-1,-1.7744488E-1,1.086395E-1,4.4354537E-1,1.0005878E-1,-2.4947298E-1,2.784549E-3,2.612091E-4,3.657478E-3,5.673016E-3,-7.1542576E-4,2.483494E-3,-1.6816556E-3,-3.8079757E-3],"categories":[],"categories_nodes":[],"categories_segments":[],"categories_sizes":[],"default_left":[0,0,0,0,0,0,0,0,0,0,0,0,0,0,0],"id":57,"left_children":[1,3,5,7,9,11,13,-1,-1,-1,-1,-1,-1,-1,-1],"loss_changes":[1.1257378E2,6.544589E1,2.0917343E1,2.7934944E1,7.832733E0,5.497058E0,8.806103E0,0E0,0E0,0E0,0E0,0E0,0E0,0E0,0E0],"parents":[2147483647,0,0,1,1,2,2,3,3,4,4,5,5,6,6],"right_children":[2,4,6,8,10,12,14,-1,-1,-1,-1,-1,-1,-1,-1],"split_conditions":[2.2E1,2E1,3.57E-1,7E0,5.94E-1,-6.2E0,2.7E1,2.784549E-3,2.612091E-4,3.657478E-3,5.673016E-3,-7.1542576E-4,2.483494E-3,-1.6816556E-3,-3.8079757E-3],"split_indices":[29,80,55,29,3,25,53,0,0,0,0,0,0,0,0],"split_type":[0,0,0,0,0,0,0,0,0,0,0,0,0,0,0],"sum_hessian":[3.866446E3,2.8209265E3,1.0455194E3,1.9956381E3,8.252886E2,2.1515636E2,8.303631E2,6.521422E2,1.3434958E3,5.0747525E2,3.178133E2,9.945028E1,1.1570608E2,5.134554E2,3.169077E2],"tree_param":{"num_deleted":"0","num_feature":"106","num_nodes":"15","size_leaf_vector":"1"}},{"base_weights":[-1.1173246E-1,-2.227865E-1,1.4400767E-1,-1.2540735E-1,-4.4553548E-1,-1.22615054E-1,2.1691789E-1,-1.9413404E-3,1.1860201E-3,-3.84343E-3,-5.713646E-3,-4.6402644E-3,-1.9618146E-4,3.625273E-3,1.269685E-3],"categories":[],"categories_nodes":[],"categories_segments":[],"categories_sizes":[],"default_left":[0,0,0,0,0,0,0,0,0,0,0,0,0,0,0],"id":58,"left_children":[1,3,5,7,9,11,13,-1,-1,-1,-1,-1,-1,-1,-1],"loss_changes":[1.08903755E2,5.7930145E1,2.2574406E1,3.121468E1,6.1417694E0,8.706703E0,1.1887936E1,0E0,0E0,0E0,0E0,0E0,0E0,0E0,0E0],"parents":[2147483647,0,0,1,1,2,2,3,3,4,4,5,5,6,6],"right_children":[2,4,6,8,10,12,14,-1,-1,-1,-1,-1,-1,-1,-1],"split_conditions":[2E1,2.1E1,3.6E-1,5.8E0,4E0,2.07E1,-6.5E0,-1.9413404E-3,1.1860201E-3,-3.84343E-3,-5.713646E-3,-4.6402644E-3,-1.9618146E-4,3.625273E-3,1.269685E-3],"split_indices":[28,103,55,77,25,17,25,0,0,0,0,0,0,0,0],"split_type":[0,0,0,0,0,0,0,0,0,0,0,0,0,0,0],"sum_hessian":[3.8340173E3,2.6734758E3,1.1605414E3,1.8606577E3,8.1281824E2,2.4890181E2,9.116396E2,1.4520963E3,4.0856134E2,5.476758E2,2.6514246E2,5.7379696E1,1.9152211E2,3.475742E2,5.6406537E2],"tree_param":{"num_deleted":"0","num_feature":"106","num_nodes":"15","size_leaf_vector":"1"}},{"base_weights":[1.14521496E-1,2.1948764E-1,-1.6913703E-1,4.2601854E-1,1.17847286E-1,-4.5820024E-2,-3.0821544E-1,2.731666E-3,5.0080656E-3,2.9266255E-3,2.8121143E-4,-8.83987E-4,2.3844943E-3,-3.253673E-3,4.6473145E-3],"categories":[],"categories_nodes":[],"categories_segments":[],"categories_sizes":[],"default_left":[0,0,0,0,0,0,0,0,0,0,0,0,0,0,0],"id":59,"left_children":[1,3,5,7,9,11,13,-1,-1,-1,-1,-1,-1,-1,-1],"loss_changes":[1.15218254E2,5.9233963E1,1.7884148E1,1.0554337E1,2.9666828E1,6.696682E0,6.506283E0,0E0,0E0,0E0,0E0,0E0,0E0,0E0,0E0],"parents":[2147483647,0,0,1,1,2,2,3,3,4,4,5,5,6,6],"right_children":[2,4,6,8,10,12,14,-1,-1,-1,-1,-1,-1,-1,-1],"split_conditions":[2.1E1,-1.5E0,4E-1,2.2E1,7E0,2.9E1,9.3E1,2.731666E-3,5.0080656E-3,2.9266255E-3,2.8121143E-4,-8.83987E-4,2.3844943E-3,-3.253673E-3,4.6473145E-3],"split_indices":[28,77,77,80,27,103,6,0,0,0,0,0,0,0,0],"split_type":[0,0,0,0,0,0,0,0,0,0,0,0,0,0,0],"sum_hessian":[3.8692966E3,2.8244873E3,1.0448094E3,9.311363E2,1.893351E3,5.542358E2,4.9057367E2,3.0650433E2,6.2463196E2,6.417248E2,1.2516261E3,4.8240103E2,7.183471E1,4.8010727E2,1.0466409E1],"tree_param":{"num_deleted":"0","num_feature":"106","num_nodes":"15","size_leaf_vector":"1"}},{"base_weights":[-1.11876786E-1,-2.1741472E-1,1.73496E-1,-4.256384E-1,-1.0958391E-1,-4.3461133E-2,2.5815424E-1,-2.544824E-3,-4.9792007E-3,-3.1734952E-3,-1.0527754E-4,9.664341E-4,-1.7405144E-3,3.5709585E-3,1.669688E-3],"categories":[],"categories_nodes":[],"categories_segments":[],"categories_sizes":[],"default_left":[0,0,0,0,0,0,0,0,0,0,0,0,0,0,0],"id":60,"left_children":[1,3,5,7,9,11,13,-1,-1,-1,-1,-1,-1,-1,-1],"loss_changes":[1.15998535E2,6.3074646E1,1.911635E1,1.1775894E1,3.8100773E1,5.34352E0,6.691166E0,0E0,0E0,0E0,0E0,0E0,0E0,0E0,0E0],"parents":[2147483647,0,0,1,1,2,2,3,3,4,4,5,5,6,6],"right_children":[2,4,6,8,10,12,14,-1,-1,-1,-1,-1,-1,-1,-1],"split_conditions":[2.1E1,-1.4E0,-2.4E0,2.1E1,7E0,1.5E1,-6E0,-2.544824E-3,-4.9792007E-3,-3.1734952E-3,-1.0527754E-4,9.664341E-4,-1.7405144E-3,3.5709585E-3,1.669688E-3],"split_indices":[28,77,77,80,29,70,25,0,0,0,0,0,0,0,0],"split_type":[0,0,0,0,0,0,0,0,0,0,0,0,0,0,0],"sum_hessian":[3.8511423E3,2.8116855E3,1.0394568E3,9.58868E2,1.8528175E3,2.9143973E2,7.480171E2,2.852527E2,6.736153E2,5.977775E2,1.25504E3,1.402413E2,1.5119843E2,3.580851E2,3.8993198E2],"tree_param":{"num_deleted":"0","num_feature":"106","num_nodes":"15","size_leaf_vector":"1"}},{"base_weights":[1.0885119E-1,2.8765988E-1,-6.118505E-2,3.5772842E-1,-5.5212844E-2,1.6377445E-1,-1.5155536E-1,2.757542E-3,5.0985115E-3,-3.7102353E-5,-3.7595173E-3,-1.1259686E-4,3.3106394E-3,-8.1389997E-4,-3.469282E-3],"categories":[],"categories_nodes":[],"categories_segments":[],"categories_sizes":[],"default_left":[0,0,0,0,0,0,0,0,0,0,0,0,0,0,0],"id":61,"left_children":[1,3,5,7,9,11,13,-1,-1,-1,-1,-1,-1,-1,-1],"loss_changes":[1.1647425E2,4.48907E1,3.990834E1,1.9243805E1,5.192969E0,1.6497448E1,1.9156967E1,0E0,0E0,0E0,0E0,0E0,0E0,0E0,0E0],"parents":[2147483647,0,0,1,1,2,2,3,3,4,4,5,5,6,6],"right_children":[2,4,6,8,10,12,14,-1,-1,-1,-1,-1,-1,-1,-1],"split_conditions":[1.5E1,5.6E0,-2.4E0,2E1,1.1E1,3.95E-1,2.7E1,2.757542E-3,5.0985115E-3,-3.7102353E-5,-3.7595173E-3,-1.1259686E-4,3.3106394E-3,-8.1389997E-4,-3.469282E-3],"split_indices":[51,77,77,80,77,3,51,0,0,0,0,0,0,0,0],"split_type":[0,0,0,0,0,0,0,0,0,0,0,0,0,0,0],"sum_hessian":[3.8299883E3,1.8670903E3,1.9628978E3,1.5505181E3,3.1657227E2,5.622061E2,1.4006918E3,1.0081799E3,5.4233813E2,2.7312775E2,4.344452E1,2.7449692E2,2.877092E2,1.0310563E3,3.696355E2],"tree_param":{"num_deleted":"0","num_feature":"106","num_nodes":"15","size_leaf_vector":"1"}},{"base_weights":[-9.6662864E-2,-2.647073E-1,6.2400073E-2,-3.308891E-1,8.6783275E-2,-7.5747974E-2,2.1857457E-1,-2.524059E-3,-4.9625877E-3,4.405753E-3,2.887126E-4,4.9522216E-4,-1.969464E-3,4.290359E-3,1.4251907E-3],"categories":[],"categories_nodes":[],"categories_segments":[],"categories_sizes":[],"default_left":[0,0,0,0,0,0,0,0,0,0,0,0,0,0,0],"id":62,"left_children":[1,3,5,7,9,11,13,-1,-1,-1,-1,-1,-1,-1,-1],"loss_changes":[1.031534E2,4.3679337E1,4.277594E1,2.0411667E1,6.0406694E0,1.5978345E1,1.4833E1,0E0,0E0,0E0,0E0,0E0,0E0,0E0,0E0],"parents":[2147483647,0,0,1,1,2,2,3,3,4,4,5,5,6,6],"right_children":[2,4,6,8,10,12,14,-1,-1,-1,-1,-1,-1,-1,-1],"split_conditions":[1.5E1,5.8E0,7E-1,2.2E1,2E0,3.95E-1,-6E0,-2.524059E-3,-4.9625877E-3,4.405753E-3,2.887126E-4,4.9522216E-4,-1.969464E-3,4.290359E-3,1.4251907E-3],"split_indices":[51,77,77,103,98,3,25,0,0,0,0,0,0,0,0],"split_type":[0,0,0,0,0,0,0,0,0,0,0,0,0,0,0],"sum_hessian":[3.8582205E3,1.8764155E3,1.9818049E3,1.5793345E3,2.9708105E2,1.05128E3,9.3052484E2,1.0716124E3,5.0772195E2,4.1452824E1,2.5562823E2,5.165795E2,5.347005E2,2.4653429E2,6.8399054E2],"tree_param":{"num_deleted":"0","num_feature":"106","num_nodes":"15","size_leaf_vector":"1"}},{"base_weights":[1.05077334E-1,-1.0563236E-1,2.398747E-1,9.2599325E-2,-2.0782109E-1,4.250356E-1,1.0771752E-1,-5.09542E-4,2.1786178E-3,-3.7219292E-3,-1.1601353E-3,3.777946E-3,6.2737E-3,2.6069428E-3,2.5082862E-5],"categories":[],"categories_nodes":[],"categories_segments":[],"categories_sizes":[],"default_left":[0,0,0,0,0,0,0,0,0,0,0,0,0,0,0],"id":63,"left_children":[1,3,5,7,9,11,13,-1,-1,-1,-1,-1,-1,-1,-1],"loss_changes":[1.09134705E2,3.0371248E1,5.7282516E1,9.179539E0,1.4874924E1,9.200806E0,2.1987503E1,0E0,0E0,0E0,0E0,0E0,0E0,0E0,0E0],"parents":[2147483647,0,0,1,1,2,2,3,3,4,4,5,5,6,6],"right_children":[2,4,6,8,10,12,14,-1,-1,-1,-1,-1,-1,-1,-1],"split_conditions":[4.69E-1,-1.7E0,-4E-1,-4.3E0,-6E0,2.8E1,7E0,-5.09542E-4,2.1786178E-3,-3.7219292E-3,-1.1601353E-3,3.777946E-3,6.2737E-3,2.6069428E-3,2.5082862E-5],"split_indices":[3,77,77,25,25,81,27,0,0,0,0,0,0,0,0],"split_type":[0,0,0,0,0,0,0,0,0,0,0,0,0,0,0],"sum_hessian":[3.8416887E3,1.4985293E3,2.3431594E3,5.093987E2,9.891306E2,9.754757E2,1.3676837E3,2.3702446E2,2.7237424E2,3.5397702E2,6.3515356E2,7.914656E2,1.8401015E2,5.568753E2,8.108085E2],"tree_param":{"num_deleted":"0","num_feature":"106","num_nodes":"15","size_leaf_vector":"1"}},{"base_weights":[-1.172857E-1,-2.8236315E-1,3.8407054E-2,-4.015359E-1,-1.04864515E-1,-1.7221211E-1,1.2481906E-1,-3.1935018E-3,-5.5948985E-3,7.1007636E-4,-1.7621453E-3,1.6447624E-4,-2.7655177E-3,3.7667184E-4,2.960686E-3],"categories":[],"categories_nodes":[],"categories_segments":[],"categories_sizes":[],"default_left":[0,0,0,0,0,0,0,0,0,0,0,0,0,0,0],"id":64,"left_children":[1,3,5,7,9,11,13,-1,-1,-1,-1,-1,-1,-1,-1],"loss_changes":[9.8680466E1,3.9362244E1,3.5945793E1,1.4362427E1,9.410718E0,1.1331848E1,2.0874437E1,0E0,0E0,0E0,0E0,0E0,0E0,0E0,0E0],"parents":[2147483647,0,0,1,1,2,2,3,3,4,4,5,5,6,6],"right_children":[2,4,6,8,10,12,14,-1,-1,-1,-1,-1,-1,-1,-1],"split_conditions":[1.5E1,1.7E0,-2.4E0,2.3E1,4E0,-4.6E0,2.6E1,-3.1935018E-3,-5.5948985E-3,7.1007636E-4,-1.7621453E-3,1.6447624E-4,-2.7655177E-3,3.7667184E-4,2.960686E-3],"split_indices":[51,77,77,80,103,25,51,0,0,0,0,0,0,0,0],"split_type":[0,0,0,0,0,0,0,0,0,0,0,0,0,0,0],"sum_hessian":[3.8384114E3,1.8633282E3,1.9750831E3,1.1144176E3,7.489106E2,5.7422363E2,1.4008595E3,7.33633E2,3.807846E2,2.1573639E2,5.331742E2,2.0417479E2,3.7004886E2,9.28855E2,4.7200455E2],"tree_param":{"num_deleted":"0","num_feature":"106","num_nodes":"15","size_leaf_vector":"1"}},{"base_weights":[1.1165314E-1,-5.287663E-2,2.81856E-1,1.6162488E-1,-1.5347843E-1,3.5735497E-1,-2.4329118E-2,-5.7698006E-4,2.8357825E-3,-3.4369389E-3,-8.429471E-4,2.7279025E-3,5.0081084E-3,-1.2451393E-3,1.6935957E-3],"categories":[],"categories_nodes":[],"categories_segments":[],"categories_sizes":[],"default_left":[0,0,0,0,0,0,0,0,0,0,0,0,0,0,0],"id":65,"left_children":[1,3,5,7,9,11,13,-1,-1,-1,-1,-1,-1,-1,-1],"loss_changes":[1.0791539E2,4.2271564E1,4.3818375E1,1.6744331E1,1.7506935E1,1.8344543E1,7.2643757E0,0E0,0E0,0E0,0E0,0E0,0E0,0E0,0E0],"parents":[2147483647,0,0,1,1,2,2,3,3,4,4,5,5,6,6],"right_children":[2,4,6,8,10,12,14,-1,-1,-1,-1,-1,-1,-1,-1],"split_conditions":[5E-1,-1.9E0,4.9E0,-4.6E0,-6.2E0,2E1,1.9E1,-5.7698006E-4,2.8357825E-3,-3.4369389E-3,-8.429471E-4,2.7279025E-3,5.0081084E-3,-1.2451393E-3,1.6935957E-3],"split_indices":[25,77,77,25,25,80,38,0,0,0,0,0,0,0,0],"split_type":[0,0,0,0,0,0,0,0,0,0,0,0,0,0,0],"sum_hessian":[3.8526768E3,1.9587225E3,1.8939543E3,6.2501697E2,1.3337056E3,1.5195696E3,3.7438477E2,2.2307248E2,4.0194446E2,3.5521802E2,9.784875E2,9.566365E2,5.629331E2,2.4711658E2,1.27268196E2],"tree_param":{"num_deleted":"0","num_feature":"106","num_nodes":"15","size_leaf_vector":"1"}},{"base_weights":[-1.04158655E-1,-1.9863136E-1,1.7967603E-1,-4.109511E-1,-9.774937E-2,2.3506944E-1,-1.3054363E-1,-3.0384418E-3,-5.3771227E-3,-2.7017987E-3,-1.0836475E-4,3.6820832E-3,1.2020727E-3,-2.0905344E-3,4.7210087E-3],"categories":[],"categories_nodes":[],"categories_segments":[],"categories_sizes":[],"default_left":[0,0,0,0,0,0,0,0,0,0,0,0,0,0,0],"id":66,"left_children":[1,3,5,7,9,11,13,-1,-1,-1,-1,-1,-1,-1,-1],"loss_changes":[1.02784515E2,6.1548492E1,1.6458208E1,1.2472229E1,2.919734E1,1.2368778E1,6.833597E0,0E0,0E0,0E0,0E0,0E0,0E0,0E0,0E0],"parents":[2147483647,0,0,1,1,2,2,3,3,4,4,5,5,6,6],"right_children":[2,4,6,8,10,12,14,-1,-1,-1,-1,-1,-1,-1,-1],"split_conditions":[2.2E1,-1.6E0,2.6E1,2.3E1,7E0,-6.4E0,1.28E1,-3.0384418E-3,-5.3771227E-3,-2.7017987E-3,-1.0836475E-4,3.6820832E-3,1.2020727E-3,-2.0905344E-3,4.7210087E-3],"split_indices":[27,77,81,1,27,25,8,0,0,0,0,0,0,0,0],"split_type":[0,0,0,0,0,0,0,0,0,0,0,0,0,0,0],"sum_hessian":[3.832847E3,2.8759773E3,9.5686975E2,9.259313E2,1.9500459E3,8.121901E2,1.4467964E2,5.02485E2,4.2344632E2,6.530562E2,1.2969897E3,3.7566205E2,4.3652805E2,1.2820847E2,1.6471172E1],"tree_param":{"num_deleted":"0","num_feature":"106","num_nodes":"15","size_leaf_vector":"1"}},{"base_weights":[1.1002969E-1,2.846724E-1,-5.534548E-2,3.7610352E-1,3.2951992E-2,1.4586672E-1,-1.7446792E-1,3.0888887E-3,5.49733E-3,-8.687087E-4,1.8950079E-3,-7.719403E-5,3.0425142E-3,-1.0592284E-3,-3.7390105E-3],"categories":[],"categories_nodes":[],"categories_segments":[],"categories_sizes":[],"default_left":[0,0,0,0,0,0,0,0,0,0,0,0,0,0,0],"id":67,"left_children":[1,3,5,7,9,11,13,-1,-1,-1,-1,-1,-1,-1,-1],"loss_changes":[1.1035037E2,4.2725006E1,4.7028004E1,1.5801697E1,9.306854E0,1.7770153E1,1.6798397E1,0E0,0E0,0E0,0E0,0E0,0E0,0E0,0E0],"parents":[2147483647,0,0,1,1,2,2,3,3,4,4,5,5,6,6],"right_children":[2,4,6,8,10,12,14,-1,-1,-1,-1,-1,-1,-1,-1],"split_conditions":[1.5E1,3.8E0,-1.2E0,2.3E1,6.58E-1,3.95E-1,2.7E1,3.0888887E-3,5.49733E-3,-8.687087E-4,1.8950079E-3,-7.719403E-5,3.0425142E-3,-1.0592284E-3,-3.7390105E-3],"split_indices":[51,77,77,80,3,3,51,0,0,0,0,0,0,0,0],"split_type":[0,0,0,0,0,0,0,0,0,0,0,0,0,0,0],"sum_hessian":[3.8198403E3,1.8581224E3,1.9617179E3,1.3627067E3,4.954157E2,7.29181E2,1.2325369E3,9.8301874E2,3.7968796E2,2.8028815E2,2.1512755E2,3.699262E2,3.5925485E2,9.1775836E2,3.1477856E2],"tree_param":{"num_deleted":"0","num_feature":"106","num_nodes":"15","size_leaf_vector":"1"}},{"base_weights":[-9.878222E-2,-1.8506694E-1,2.0236929E-1,6.522658E-2,-2.72975E-1,2.7313912E-1,-6.846652E-2,-8.669994E-4,1.5877311E-3,-1.5379234E-3,-3.7871797E-3,-7.9997635E-4,3.0927202E-3,-5.8980417E-3,-5.4437536E-5],"categories":[],"categories_nodes":[],"categories_segments":[],"categories_sizes":[],"default_left":[0,0,0,0,0,0,0,0,0,0,0,0,0,0,0],"id":68,"left_children":[1,3,5,7,9,11,13,-1,-1,-1,-1,-1,-1,-1,-1],"loss_changes":[1.0055898E2,6.621388E1,1.6537212E1,1.1118677E1,2.8003204E1,8.746002E0,5.798064E0,0E0,0E0,0E0,0E0,0E0,0E0,0E0,0E0],"parents":[2147483647,0,0,1,1,2,2,3,3,4,4,5,5,6,6],"right_children":[2,4,6,8,10,12,14,-1,-1,-1,-1,-1,-1,-1,-1],"split_conditions":[2.4E1,8E0,2.3E1,9E0,1.4E0,7E0,8.2E1,-8.669994E-4,1.5877311E-3,-1.5379234E-3,-3.7871797E-3,-7.9997635E-4,3.0927202E-3,-5.8980417E-3,-5.4437536E-5],"split_indices":[51,103,80,51,25,0,6,0,0,0,0,0,0,0,0],"split_type":[0,0,0,0,0,0,0,0,0,0,0,0,0,0,0],"sum_hessian":[3.8697422E3,3.008212E3,8.615302E2,7.816295E2,2.2265825E3,6.833406E2,1.7818965E2,2.9746405E2,4.8416544E2,1.0473302E3,1.1792522E3,6.316108E1,6.201795E2,1.8956326E1,1.5923332E2],"tree_param":{"num_deleted":"0","num_feature":"106","num_nodes":"15","size_leaf_vector":"1"}},{"base_weights":[1.11546025E-1,-1.5431942E-1,2.1606115E-1,-2.2254673E-1,2.0365211E-1,1.311783E-2,3.0240676E-1,-4.5051915E-3,-1.7601276E-3,3.6621331E-3,-1.2929543E-3,-8.189044E-4,1.849295E-3,2.5981173E-3,5.4276385E-3],"categories":[],"categories_nodes":[],"categories_segments":[],"categories_sizes":[],"default_left":[0,0,0,0,0,0,0,0,0,0,0,0,0,0,0],"id":69,"left_children":[1,3,5,7,9,11,13,-1,-1,-1,-1,-1,-1,-1,-1],"loss_changes":[1.0719889E2,2.6586971E1,4.8495605E1,9.629601E0,9.448212E0,1.3511775E1,1.9791946E1,0E0,0E0,0E0,0E0,0E0,0E0,0E0,0E0],"parents":[2147483647,0,0,1,1,2,2,3,3,4,4,5,5,6,6],"right_children":[2,4,6,8,10,12,14,-1,-1,-1,-1,-1,-1,-1,-1],"split_conditions":[-2.4E0,2.5E1,9E0,5E0,3.33E1,4E0,2.7E1,-4.5051915E-3,-1.7601276E-3,3.6621331E-3,-1.2929543E-3,-8.189044E-4,1.849295E-3,2.5981173E-3,5.4276385E-3],"split_indices":[25,79,103,103,9,25,79,0,0,0,0,0,0,0,0],"split_type":[0,0,0,0,0,0,0,0,0,0,0,0,0,0,0],"sum_hessian":[3.8574426E3,1.0882216E3,2.7692212E3,9.1428186E2,1.7393967E2,8.269243E2,1.9422968E3,1.5447636E2,7.598055E2,1.170705E2,5.686916E1,5.321351E2,2.9478928E2,1.6504376E3,2.918591E2],"tree_param":{"num_deleted":"0","num_feature":"106","num_nodes":"15","size_leaf_vector":"1"}},{"base_weights":[-1.0753501E-1,4.8472963E-2,-2.7584305E-1,-9.459243E-2,2.0143755E-1,-3.7282625E-1,-1.6267464E-2,-2.4824122E-3,4.5031882E-4,2.1484026E-3,-4.9104183E-3,-2.817361E-3,-5.120923E-3,-1.5191347E-3,1.2760111E-3],"categories":[],"categories_nodes":[],"categories_segments":[],"categories_sizes":[],"default_left":[0,0,0,0,0,0,0,0,0,0,0,0,0,0,0],"id":70,"left_children":[1,3,5,7,9,11,13,-1,-1,-1,-1,-1,-1,-1,-1],"loss_changes":[1.00343636E2,4.339832E1,4.623575E1,2.1992573E1,8.878784E0,1.6878677E1,9.769123E0,0E0,0E0,0E0,0E0,0E0,0E0,0E0,0E0],"parents":[2147483647,0,0,1,1,2,2,3,3,4,4,5,5,6,6],"right_children":[2,4,6,8,10,12,14,-1,-1,-1,-1,-1,-1,-1,-1],"split_conditions":[6E-1,5.15E-1,3.8E0,2.1E1,4.87E-1,2E1,7E0,-2.4824122E-3,4.5031882E-4,2.1484026E-3,-4.9104183E-3,-2.817361E-3,-5.120923E-3,-1.5191347E-3,1.2760111E-3],"split_indices":[25,55,77,28,7,80,27,0,0,0,0,0,0,0,0],"split_type":[0,0,0,0,0,0,0,0,0,0,0,0,0,0,0],"sum_hessian":[3.8205203E3,1.9824376E3,1.8380826E3,1.0240469E3,9.5839075E2,1.337816E3,5.0026657E2,4.878422E2,5.362047E2,9.404029E2,1.7987822E1,8.09418E2,5.28398E2,2.5784644E2,2.4242014E2],"tree_param":{"num_deleted":"0","num_feature":"106","num_nodes":"15","size_leaf_vector":"1"}},{"base_weights":[1.05778776E-1,-1.3455579E-1,2.1287867E-1,-2.0498586E-1,1.407618E-1,1.1723982E-1,4.3576866E-1,-5.4439885E-4,-2.7753338E-3,6.796612E-3,8.3078444E-4,2.760768E-3,2.9422448E-4,4.733325E-3,2.2408075E-3],"categories":[],"categories_nodes":[],"categories_segments":[],"categories_sizes":[],"default_left":[0,0,0,0,0,0,0,0,0,0,0,0,0,0,0],"id":71,"left_children":[1,3,5,7,9,11,13,-1,-1,-1,-1,-1,-1,-1,-1],"loss_changes":[9.841859E1,2.2857368E1,5.6322388E1,1.021653E1,7.372229E0,2.5791311E1,6.2318573E0,0E0,0E0,0E0,0E0,0E0,0E0,0E0,0E0],"parents":[2147483647,0,0,1,1,2,2,3,3,4,4,5,5,6,6],"right_children":[2,4,6,8,10,12,14,-1,-1,-1,-1,-1,-1,-1,-1],"split_conditions":[4.26E-1,2.4E1,2.1E1,1.7E1,8.18E1,7E0,3.46E1,-5.4439885E-4,-2.7753338E-3,6.796612E-3,8.3078444E-4,2.760768E-3,2.9422448E-4,4.733325E-3,2.2408075E-3],"split_indices":[3,81,103,47,6,27,67,0,0,0,0,0,0,0,0],"split_type":[0,0,0,0,0,0,0,0,0,0,0,0,0,0,0],"sum_hessian":[3.8230789E3,1.1782039E3,2.644875E3,9.38509E2,2.3969492E2,1.8511674E3,7.9370776E2,3.0569785E2,6.328111E2,2.2904123E1,2.1679079E2,6.5859705E2,1.1925703E3,6.735846E2,1.2012312E2],"tree_param":{"num_deleted":"0","num_feature":"106","num_nodes":"15","size_leaf_vector":"1"}},{"base_weights":[-9.754189E-2,1.0572773E-1,-2.183789E-1,-1.6335781E-1,1.9146222E-1,-4.2556885E-1,-1.0555957E-1,3.061315E-4,-3.1914194E-3,3.3025881E-3,1.09235E-3,-3.715364E-3,-6.0510137E-3,1.4025673E-3,-1.5842584E-3],"categories":[],"categories_nodes":[],"categories_segments":[],"categories_sizes":[],"default_left":[0,0,0,0,0,0,0,0,0,0,0,0,0,0,0],"id":72,"left_children":[1,3,5,7,9,11,13,-1,-1,-1,-1,-1,-1,-1,-1],"loss_changes":[9.4132195E1,3.2958393E1,5.6124947E1,1.0452103E1,1.2319035E1,8.096436E0,2.0232786E1,0E0,0E0,0E0,0E0,0E0,0E0,0E0,0E0],"parents":[2147483647,0,0,1,1,2,2,3,3,4,4,5,5,6,6],"right_children":[2,4,6,8,10,12,14,-1,-1,-1,-1,-1,-1,-1,-1],"split_conditions":[4.62E-1,3.73E-1,-1.1E0,-4.8E0,-6.2E0,2.8E1,4E0,3.061315E-4,-3.1914194E-3,3.3025881E-3,1.09235E-3,-3.715364E-3,-6.0510137E-3,1.4025673E-3,-1.5842584E-3],"split_indices":[3,55,77,25,25,81,103,0,0,0,0,0,0,0,0],"split_type":[0,0,0,0,0,0,0,0,0,0,0,0,0,0,0],"sum_hessian":[3.831702E3,1.4282736E3,2.4034285E3,3.448073E2,1.0834663E3,8.469189E2,1.5565095E3,1.5333023E2,1.9147708E2,4.0251596E2,6.809503E2,6.516585E2,1.9526038E2,2.7513525E2,1.2813743E3],"tree_param":{"num_deleted":"0","num_feature":"106","num_nodes":"15","size_leaf_vector":"1"}},{"base_weights":[1.007439E-1,2.6271024E-1,-5.5283945E-2,3.306208E-1,-8.133131E-2,8.273623E-2,-1.9495542E-1,2.888839E-3,6.100906E-3,-1.116237E-3,5.7667885E-3,-1.1134559E-3,1.9374362E-3,-4.058319E-3,-1.2291442E-3],"categories":[],"categories_nodes":[],"categories_segments":[],"categories_sizes":[],"default_left":[0,0,0,0,0,0,0,0,0,0,0,0,0,0,0],"id":73,"left_children":[1,3,5,7,9,11,13,-1,-1,-1,-1,-1,-1,-1,-1],"loss_changes":[9.724409E1,4.4138367E1,3.7782375E1,1.8286972E1,6.160426E0,2.123528E1,1.4741837E1,0E0,0E0,0E0,0E0,0E0,0E0,0E0,0E0],"parents":[2147483647,0,0,1,1,2,2,3,3,4,4,5,5,6,6],"right_children":[2,4,6,8,10,12,14,-1,-1,-1,-1,-1,-1,-1,-1],"split_conditions":[1.5E1,5.8E0,4E-1,2.7E1,2.7E1,-4.6E0,-6.2E0,2.888839E-3,6.100906E-3,-1.116237E-3,5.7667885E-3,-1.1134559E-3,1.9374362E-3,-4.058319E-3,-1.2291442E-3],"split_indices":[51,77,77,81,87,25,25,0,0,0,0,0,0,0,0],"split_type":[0,0,0,0,0,0,0,0,0,0,0,0,0,0,0],"sum_hessian":[3.8470327E3,1.8878759E3,1.959157E3,1.5769044E3,3.1097144E2,9.8506396E2,9.74093E2,1.372493E3,2.0441127E2,2.9751016E2,1.3461276E1,3.5808984E2,6.269741E2,2.4756776E2,7.265252E2],"tree_param":{"num_deleted":"0","num_feature":"106","num_nodes":"15","size_leaf_vector":"1"}},{"base_weights":[-9.924456E-2,-2.6919615E-1,6.0046043E-2,-3.5512286E-1,-5.9011366E-2,-1.2788248E-1,1.7127499E-1,-3.127951E-3,-5.9930063E-3,1.8089851E-4,-2.7405918E-3,2.090013E-4,-2.8221079E-3,3.7291397E-3,1.0312734E-3],"categories":[],"categories_nodes":[],"categories_segments":[],"categories_sizes":[],"default_left":[0,0,0,0,0,0,0,0,0,0,0,0,0,0,0],"id":74,"left_children":[1,3,5,7,9,11,13,-1,-1,-1,-1,-1,-1,-1,-1],"loss_changes":[1.04263824E2,3.3607925E1,4.154936E1,1.3555817E1,8.998534E0,1.6987217E1,1.710925E1,0E0,0E0,0E0,0E0,0E0,0E0,0E0,0E0],"parents":[2147483647,0,0,1,1,2,2,3,3,4,4,5,5,6,6],"right_children":[2,4,6,8,10,12,14,-1,-1,-1,-1,-1,-1,-1,-1],"split_conditions":[1.5E1,3.5E0,-1.2E0,2.7E1,1.6E1,3.95E-1,-6.3E0,-3.127951E-3,-5.9930063E-3,1.8089851E-4,-2.7405918E-3,2.090013E-4,-2.8221079E-3,3.7291397E-3,1.0312734E-3],"split_indices":[51,77,77,81,99,3,25,0,0,0,0,0,0,0,0],"split_type":[0,0,0,0,0,0,0,0,0,0,0,0,0,0,0],"sum_hessian":[3.8504639E3,1.8631625E3,1.9873014E3,1.3221166E3,5.410459E2,7.385534E2,1.248748E3,1.1273331E3,1.9478345E2,3.979833E2,1.4306259E2,3.757471E2,3.6280634E2,3.1494797E2,9.3380005E2],"tree_param":{"num_deleted":"0","num_feature":"106","num_nodes":"15","size_leaf_vector":"1"}},{"base_weights":[9.959179E-2,-1.5218072E-1,2.0032772E-1,1.8877497E-2,-2.557139E-1,3.6590786E-3,2.8381172E-1,-6.4577773E-4,3.1322818E-3,1.1874487E-3,-2.9624025E-3,1.4789148E-3,-9.732313E-4,2.2899602E-3,4.734656E-3],"categories":[],"categories_nodes":[],"categories_segments":[],"categories_sizes":[],"default_left":[0,0,0,0,0,0,0,0,0,0,0,0,0,0,0],"id":75,"left_children":[1,3,5,7,9,11,13,-1,-1,-1,-1,-1,-1,-1,-1],"loss_changes":[9.8346725E1,1.9643393E1,4.5444916E1,1.028076E1,1.0499565E1,1.2034115E1,2.0128113E1,0E0,0E0,0E0,0E0,0E0,0E0,0E0,0E0],"parents":[2147483647,0,0,1,1,2,2,3,3,4,4,5,5,6,6],"right_children":[2,4,6,8,10,12,14,-1,-1,-1,-1,-1,-1,-1,-1],"split_conditions":[-2.4E0,4.58E-1,9E0,3.95E-1,7E0,8E0,2.6E1,-6.4577773E-4,3.1322818E-3,1.1874487E-3,-2.9624025E-3,1.4789148E-3,-9.732313E-4,2.2899602E-3,4.734656E-3],"split_indices":[25,55,103,3,52,27,103,0,0,0,0,0,0,0,0],"split_type":[0,0,0,0,0,0,0,0,0,0,0,0,0,0,0],"sum_hessian":[3.8772273E3,1.1076925E3,2.7695347E3,4.17316E2,6.9037646E2,8.256945E2,1.9438402E3,3.2492932E2,9.2386696E1,6.7160545E1,6.2321594E2,3.4041922E2,4.852753E2,1.508567E3,4.3527322E2],"tree_param":{"num_deleted":"0","num_feature":"106","num_nodes":"15","size_leaf_vector":"1"}},{"base_weights":[-1.0061069E-1,1.6026226E-1,-2.0515355E-1,2.2148596E-1,-1.1921112E-1,8.382673E-3,-2.7670038E-1,1.5975015E-3,3.6842616E-3,-2.5801884E-3,2.03553E-3,8.6113124E-4,-1.7385384E-3,-2.1578318E-3,-4.5602573E-3],"categories":[],"categories_nodes":[],"categories_segments":[],"categories_sizes":[],"default_left":[0,0,0,0,0,0,0,0,0,0,0,0,0,0,0],"id":76,"left_children":[1,3,5,7,9,11,13,-1,-1,-1,-1,-1,-1,-1,-1],"loss_changes":[1.0352001E2,1.8588709E1,4.1429207E1,8.022915E0,8.741005E0,9.623122E0,2.2100769E1,0E0,0E0,0E0,0E0,0E0,0E0,0E0,0E0],"parents":[2147483647,0,0,1,1,2,2,3,3,4,4,5,5,6,6],"right_children":[2,4,6,8,10,12,14,-1,-1,-1,-1,-1,-1,-1,-1],"split_conditions":[-2.4E0,2.5E1,7E0,3.7E1,3.33E1,6.54E-1,2.4E1,1.5975015E-3,3.6842616E-3,-2.5801884E-3,2.03553E-3,8.6113124E-4,-1.7385384E-3,-2.1578318E-3,-4.5602573E-3],"split_indices":[25,81,79,2,9,3,79,0,0,0,0,0,0,0,0],"split_type":[0,0,0,0,0,0,0,0,0,0,0,0,0,0,0],"sum_hessian":[3.7953938E3,1.0855463E3,2.7098474E3,8.907828E2,1.9476353E2,6.797572E2,2.0300902E3,6.278751E2,2.6290762E2,1.364233E2,5.8340233E1,4.7693057E2,2.0282661E2,1.5159105E3,5.1417975E2],"tree_param":{"num_deleted":"0","num_feature":"106","num_nodes":"15","size_leaf_vector":"1"}},{"base_weights":[1.04344204E-1,-1.06023766E-1,2.2580837E-1,9.101174E-2,-1.8784599E-1,3.3199212E-1,2.4264913E-2,-6.7173847E-4,2.2724743E-3,-1.3548876E-3,-4.1295756E-3,2.884445E-3,5.6043905E-3,-6.3228497E-4,2.0025973E-3],"categories":[],"categories_nodes":[],"categories_segments":[],"categories_sizes":[],"default_left":[0,0,0,0,0,0,0,0,0,0,0,0,0,0,0],"id":77,"left_children":[1,3,5,7,9,11,13,-1,-1,-1,-1,-1,-1,-1,-1],"loss_changes":[9.881504E1,2.2825634E1,5.2429703E1,8.959478E0,1.1729092E1,1.5869308E1,1.3047895E1,0E0,0E0,0E0,0E0,0E0,0E0,0E0,0E0],"parents":[2147483647,0,0,1,1,2,2,3,3,4,4,5,5,6,6],"right_children":[2,4,6,8,10,12,14,-1,-1,-1,-1,-1,-1,-1,-1],"split_conditions":[4.59E-1,-2.4E0,2.6E0,-4.6E0,4.2E1,2.7E1,6.54E-1,-6.7173847E-4,2.2724743E-3,-1.3548876E-3,-4.1295756E-3,2.884445E-3,5.6043905E-3,-6.3228497E-4,2.0025973E-3],"split_indices":[3,77,77,25,2,79,3,0,0,0,0,0,0,0,0],"split_type":[0,0,0,0,0,0,0,0,0,0,0,0,0,0,0],"sum_hessian":[3.866526E3,1.4150103E3,2.4515156E3,4.1482935E2,1.0001809E3,1.6052332E3,8.462826E2,1.9163515E2,2.2319418E2,8.119412E2,1.8823972E2,1.3487855E3,2.5644757E2,5.6493085E2,2.8135175E2],"tree_param":{"num_deleted":"0","num_feature":"106","num_nodes":"15","size_leaf_vector":"1"}},{"base_weights":[-1.0122457E-1,-2.0529665E-1,1.5813744E-1,-1.978502E-2,-3.099847E-1,2.739838E-1,-8.081461E-4,-1.8597672E-3,9.1565977E-4,-2.5303664E-3,-4.802048E-3,2.8592541E-3,-8.562773E-3,1.2143778E-3,-1.9143955E-3],"categories":[],"categories_nodes":[],"categories_segments":[],"categories_sizes":[],"default_left":[0,0,0,0,0,0,0,0,0,0,0,0,0,0,0],"id":78,"left_children":[1,3,5,7,9,11,13,-1,-1,-1,-1,-1,-1,-1,-1],"loss_changes":[1.0359546E2,5.3160873E1,2.0258457E1,1.8304787E1,1.6884247E1,8.550137E0,1.0797511E1,0E0,0E0,0E0,0E0,0E0,0E0,0E0,0E0],"parents":[2147483647,0,0,1,1,2,2,3,3,4,4,5,5,6,6],"right_children":[2,4,6,8,10,12,14,-1,-1,-1,-1,-1,-1,-1,-1],"split_conditions":[2.2E1,1.1E1,1.8E1,9E0,2.6E1,4.86E-1,3.46E-1,-1.8597672E-3,9.1565977E-4,-2.5303664E-3,-4.802048E-3,2.8592541E-3,-8.562773E-3,1.2143778E-3,-1.9143955E-3],"split_indices":[51,103,103,51,103,7,3,0,0,0,0,0,0,0,0],"split_type":[0,0,0,0,0,0,0,0,0,0,0,0,0,0,0],"sum_hessian":[3.8375627E3,2.7389377E3,1.0986248E3,9.884455E2,1.7504923E3,6.357903E2,4.628345E2,3.9690085E2,5.915447E2,1.3122935E3,4.381989E2,6.293046E2,6.4856462E0,2.8170053E2,1.8113397E2],"tree_param":{"num_deleted":"0","num_feature":"106","num_nodes":"15","size_leaf_vector":"1"}},{"base_weights":[1.02854185E-1,2.2882634E-1,-7.935997E-2,3.1793618E-1,-2.6492523E-2,-1.5545194E-1,1.4240262E-1,2.8164051E-3,5.377262E-3,1.1830127E-3,-1.4046612E-3,-1.1733654E-3,-3.4786754E-3,2.372259E-3,-1.6629499E-3],"categories":[],"categories_nodes":[],"categories_segments":[],"categories_sizes":[],"default_left":[0,0,0,0,0,0,0,0,0,0,0,0,0,0,0],"id":79,"left_children":[1,3,5,7,9,11,13,-1,-1,-1,-1,-1,-1,-1,-1],"loss_changes":[8.8136154E1,5.1678665E1,2.6478394E1,1.3329758E1,9.693007E0,