{"learner":{"attributes":{"best_iteration":"748","best_score":"0.6177792929703605"},"feature_names":[],"feature_types":[],"gradient_booster":{"model":{"gbtree_model_param":{"num_parallel_tree":"1","num_trees":"1500"},"iteration_indptr":[0,2,4,6,8,10,12,14,16,18,20,22,24,26,28,30,32,34,36,38,40,42,44,46,48,50,52,54,56,58,60,62,64,66,68,70,72,74,76,78,80,82,84,86,88,90,92,94,96,98,100,102,104,106,108,110,112,114,116,118,120,122,124,126,128,130,132,134,136,138,140,142,144,146,148,150,152,154,156,158,160,162,164,166,168,170,172,174,176,178,180,182,184,186,188,190,192,194,196,198,200,202,204,206,208,210,212,214,216,218,220,222,224,226,228,230,232,234,236,238,240,242,244,246,248,250,252,254,256,258,260,262,264,266,268,270,272,274,276,278,280,282,284,286,288,290,292,294,296,298,300,302,304,306,308,310,312,314,316,318,320,322,324,326,328,330,332,334,336,338,340,342,344,346,348,350,352,354,356,358,360,362,364,366,368,370,372,374,376,378,380,382,384,386,388,390,392,394,396,398,400,402,404,406,408,410,412,414,416,418,420,422,424,426,428,430,432,434,436,438,440,442,444,446,448,450,452,454,456,458,460,462,464,466,468,470,472,474,476,478,480,482,484,486,488,490,492,494,496,498,500,502,504,506,508,510,512,514,516,518,520,522,524,526,528,530,532,534,536,538,540,542,544,546,548,550,552,554,556,558,560,562,564,566,568,570,572,574,576,578,580,582,584,586,588,590,592,594,596,598,600,602,604,606,608,610,612,614,616,618,620,622,624,626,628,630,632,634,636,638,640,642,644,646,648,650,652,654,656,658,660,662,664,666,668,670,672,674,676,678,680,682,684,686,688,690,692,694,696,698,700,702,704,706,708,710,712,714,716,718,720,722,724,726,728,730,732,734,736,738,740,742,744,746,748,750,752,754,756,758,760,762,764,766,768,770,772,774,776,778,780,782,784,786,788,790,792,794,796,798,800,802,804,806,808,810,812,814,816,818,820,822,824,826,828,830,832,834,836,838,840,842,844,846,848,850,852,854,856,858,860,862,864,866,868,870,872,874,876,878,880,882,884,886,888,890,892,894,896,898,900,902,904,906,908,910,912,914,916,918,920,922,924,926,928,930,932,934,936,938,940,942,944,946,948,950,952,954,956,958,960,962,964,966,968,970,972,974,976,978,980,982,984,986,988,990,992,994,996,998,1000,1002,1004,1006,1008,1010,1012,1014,1016,1018,1020,1022,1024,1026,1028,1030,1032,1034,1036,1038,1040,1042,1044,1046,1048,1050,1052,1054,1056,1058,1060,1062,1064,1066,1068,1070,1072,1074,1076,1078,1080,1082,1084,1086,1088,1090,1092,1094,1096,1098,1100,1102,1104,1106,1108,1110,1112,1114,1116,1118,1120,1122,1124,1126,1128,1130,1132,1134,1136,1138,1140,1142,1144,1146,1148,1150,1152,1154,1156,1158,1160,1162,1164,1166,1168,1170,1172,1174,1176,1178,1180,1182,1184,1186,1188,1190,1192,1194,1196,1198,1200,1202,1204,1206,1208,1210,1212,1214,1216,1218,1220,1222,1224,1226,1228,1230,1232,1234,1236,1238,1240,1242,1244,1246,1248,1250,1252,1254,1256,1258,1260,1262,1264,1266,1268,1270,1272,1274,1276,1278,1280,1282,1284,1286,1288,1290,1292,1294,1296,1298,1300,1302,1304,1306,1308,1310,1312,1314,1316,1318,1320,1322,1324,1326,1328,1330,1332,1334,1336,1338,1340,1342,1344,1346,1348,1350,1352,1354,1356,1358,1360,1362,1364,1366,1368,1370,1372,1374,1376,1378,1380,1382,1384,1386,1388,1390,1392,1394,1396,1398,1400,1402,1404,1406,1408,1410,1412,1414,1416,1418,1420,1422,1424,1426,1428,1430,1432,1434,1436,1438,1440,1442,1444,1446,1448,1450,1452,1454,1456,1458,1460,1462,1464,1466,1468,1470,1472,1474,1476,1478,1480,1482,1484,1486,1488,1490,1492,1494,1496,1498,1500],"tree_info":[0,1,0,1,0,1,0,1,0,1,0,1,0,1,0,1,0,1,0,1,0,1,0,1,0,1,0,1,0,1,0,1,0,1,0,1,0,1,0,1,0,1,0,1,0,1,0,1,0,1,0,1,0,1,0,1,0,1,0,1,0,1,0,1,0,1,0,1,0,1,0,1,0,1,0,1,0,1,0,1,0,1,0,1,0,1,0,1,0,1,0,1,0,1,0,1,0,1,0,1,0,1,0,1,0,1,0,1,0,1,0,1,0,1,0,1,0,1,0,1,0,1,0,1,0,1,0,1,0,1,0,1,0,1,0,1,0,1,0,1,0,1,0,1,0,1,0,1,0,1,0,1,0,1,0,1,0,1,0,1,0,1,0,1,0,1,0,1,0,1,0,1,0,1,0,1,0,1,0,1,0,1,0,1,0,1,0,1,0,1,0,1,0,1,0,1,0,1,0,1,0,1,0,1,0,1,0,1,0,1,0,1,0,1,0,1,0,1,0,1,0,1,0,1,0,1,0,1,0,1,0,1,0,1,0,1,0,1,0,1,0,1,0,1,0,1,0,1,0,1,0,1,0,1,0,1,0,1,0,1,0,1,0,1,0,1,0,1,0,1,0,1,0,1,0,1,0,1,0,1,0,1,0,1,0,1,0,1,0,1,0,1,0,1,0,1,0,1,0,1,0,1,0,1,0,1,0,1,0,1,0,1,0,1,0,1,0,1,0,1,0,1,0,1,0,1,0,1,0,1,0,1,0,1,0,1,0,1,0,1,0,1,0,1,0,1,0,1,0,1,0,1,0,1,0,1,0,1,0,1,0,1,0,1,0,1,0,1,0,1,0,1,0,1,0,1,0,1,0,1,0,1,0,1,0,1,0,1,0,1,0,1,0,1,0,1,0,1,0,1,0,1,0,1,0,1,0,1,0,1,0,1,0,1,0,1,0,1,0,1,0,1,0,1,0,1,0,1,0,1,0,1,0,1,0,1,0,1,0,1,0,1,0,1,0,1,0,1,0,1,0,1,0,1,0,1,0,1,0,1,0,1,0,1,0,1,0,1,0,1,0,1,0,1,0,1,0,1,0,1,0,1,0,1,0,1,0,1,0,1,0,1,0,1,0,1,0,1,0,1,0,1,0,1,0,1,0,1,0,1,0,1,0,1,0,1,0,1,0,1,0,1,0,1,0,1,0,1,0,1,0,1,0,1,0,1,0,1,0,1,0,1,0,1,0,1,0,1,0,1,0,1,0,1,0,1,0,1,0,1,0,1,0,1,0,1,0,1,0,1,0,1,0,1,0,1,0,1,0,1,0,1,0,1,0,1,0,1,0,1,0,1,0,1,0,1,0,1,0,1,0,1,0,1,0,1,0,1,0,1,0,1,0,1,0,1,0,1,0,1,0,1,0,1,0,1,0,1,0,1,0,1,0,1,0,1,0,1,0,1,0,1,0,1,0,1,0,1,0,1,0,1,0,1,0,1,0,1,0,1,0,1,0,1,0,1,0,1,0,1,0,1,0,1,0,1,0,1,0,1,0,1,0,1,0,1,0,1,0,1,0,1,0,1,0,1,0,1,0,1,0,1,0,1,0,1,0,1,0,1,0,1,0,1,0,1,0,1,0,1,0,1,0,1,0,1,0,1,0,1,0,1,0,1,0,1,0,1,0,1,0,1,0,1,0,1,0,1,0,1,0,1,0,1,0,1,0,1,0,1,0,1,0,1,0,1,0,1,0,1,0,1,0,1,0,1,0,1,0,1,0,1,0,1,0,1,0,1,0,1,0,1,0,1,0,1,0,1,0,1,0,1,0,1,0,1,0,1,0,1,0,1,0,1,0,1,0,1,0,1,0,1,0,1,0,1,0,1,0,1,0,1,0,1,0,1,0,1,0,1,0,1,0,1,0,1,0,1,0,1,0,1,0,1,0,1,0,1,0,1,0,1,0,1,0,1,0,1,0,1,0,1,0,1,0,1,0,1,0,1,0,1,0,1,0,1,0,1,0,1,0,1,0,1,0,1,0,1,0,1,0,1,0,1,0,1,0,1,0,1,0,1,0,1,0,1,0,1,0,1,0,1,0,1,0,1,0,1,0,1,0,1,0,1,0,1,0,1,0,1,0,1,0,1,0,1,0,1,0,1,0,1,0,1,0,1,0,1,0,1,0,1,0,1,0,1,0,1,0,1,0,1,0,1,0,1,0,1,0,1,0,1,0,1,0,1,0,1,0,1,0,1,0,1,0,1,0,1,0,1,0,1,0,1,0,1,0,1,0,1,0,1,0,1,0,1,0,1,0,1,0,1,0,1,0,1,0,1,0,1,0,1,0,1,0,1,0,1,0,1,0,1,0,1,0,1,0,1,0,1,0,1,0,1,0,1,0,1,0,1,0,1,0,1,0,1,0,1,0,1,0,1,0,1,0,1,0,1,0,1,0,1,0,1,0,1,0,1,0,1,0,1,0,1,0,1,0,1,0,1,0,1,0,1,0,1,0,1,0,1,0,1,0,1,0,1,0,1,0,1,0,1,0,1,0,1,0,1,0,1,0,1,0,1,0,1,0,1,0,1,0,1,0,1,0,1,0,1,0,1,0,1,0,1,0,1,0,1,0,1,0,1,0,1,0,1,0,1,0,1,0,1,0,1,0,1,0,1,0,1,0,1,0,1,0,1,0,1,0,1,0,1,0,1,0,1,0,1,0,1,0,1,0,1,0,1,0,1,0,1,0,1,0,1,0,1,0,1,0,1,0,1,0,1,0,1,0,1,0,1,0,1,0,1,0,1,0,1,0,1,0,1,0,1,0,1,0,1,0,1,0,1,0,1,0,1,0,1,0,1,0,1,0,1,0,1,0,1,0,1,0,1,0,1,0,1,0,1,0,1,0,1,0,1,0,1,0,1,0,1,0,1,0,1,0,1,0,1,0,1,0,1,0,1,0,1,0,1,0,1,0,1,0,1,0,1,0,1,0,1,0,1,0,1,0,1,0,1,0,1,0,1,0,1,0,1,0,1,0,1,0,1,0,1,0,1,0,1,0,1,0,1,0,1,0,1,0,1,0,1,0,1,0,1,0,1,0,1,0,1,0,1,0,1,0,1,0,1,0,1,0,1,0,1,0,1,0,1,0,1,0,1,0,1,0,1,0,1,0,1,0,1,0,1,0,1,0,1,0,1,0,1,0,1,0,1,0,1,0,1,0,1,0,1,0,1,0,1,0,1,0,1,0,1,0,1,0,1,0,1,0,1,0,1,0,1,0,1,0,1,0,1,0,1,0,1,0,1,0,1,0,1,0,1,0,1,0,1,0,1,0,1,0,1,0,1,0,1,0,1,0,1,0,1,0,1,0,1,0,1,0,1,0,1,0,1,0,1,0,1],"trees":[{"base_weights":[-1.475957E-1,-2.9038173E-1,1.8568616E-1,-1.0915988E-1,-4.8818657E-1,-9.983543E-2,3.15331E-1,-2.039487E-3,1.0179097E-3,-3.9968276E-3,-6.1030886E-3,9.142452E-4,-2.2093023E-3,4.9867374E-3,2.0493926E-3],"categories":[],"categories_nodes":[],"categories_segments":[],"categories_sizes":[],"default_left":[0,0,0,0,0,0,0,0,0,0,0,0,0,0,0],"id":0,"left_children":[1,3,5,7,9,11,13,-1,-1,-1,-1,-1,-1,-1,-1],"loss_changes":[1.8537585E2,9.769211E1,4.3263557E1,2.8478292E1,1.3964294E1,8.459321E0,1.6183899E1,0E0,0E0,0E0,0E0,0E0,0E0,0E0,0E0],"parents":[2147483647,0,0,1,1,2,2,3,3,4,4,5,5,6,6],"right_children":[2,4,6,8,10,12,14,-1,-1,-1,-1,-1,-1,-1,-1],"split_conditions":[2E1,1.4E1,-2E0,1.5E1,2.3E1,-6.2E0,-6.6E0,-2.039487E-3,1.0179097E-3,-3.9968276E-3,-6.1030886E-3,9.142452E-4,-2.2093023E-3,4.9867374E-3,2.0493926E-3],"split_indices":[28,80,77,51,80,25,25,0,0,0,0,0,0,0,0],"split_type":[0,0,0,0,0,0,0,0,0,0,0,0,0,0,0],"sum_hessian":[3.895E3,2.727E3,1.168E3,1.4235E3,1.3035E3,3.645E2,8.035E2,9.825E2,4.41E2,7.565E2,5.47E2,1.41E2,2.235E2,3.015E2,5.02E2],"tree_param":{"num_deleted":"0","num_feature":"106","num_nodes":"15","size_leaf_vector":"1"}},{"base_weights":[1.4108099E-1,-1.3575087E-1,3.1506503E-1,1.4656456E-1,-2.667719E-1,1.488608E-1,4.9941918E-1,-6.5175095E-4,3.1141345E-3,-9.542245E-4,-3.9749388E-3,3.0209142E-4,3.451668E-3,4.043993E-3,6.3078236E-3],"categories":[],"categories_nodes":[],"categories_segments":[],"categories_sizes":[],"default_left":[0,0,0,0,0,0,0,0,0,0,0,0,0,0,0],"id":1,"left_children":[1,3,5,7,9,11,13,-1,-1,-1,-1,-1,-1,-1,-1],"loss_changes":[1.8519473E2,5.489319E1,7.22729E1,1.6435516E1,2.2650696E1,2.8892452E1,1.3839691E1,0E0,0E0,0E0,0E0,0E0,0E0,0E0,0E0],"parents":[2147483647,0,0,1,1,2,2,3,3,4,4,5,5,6,6],"right_children":[2,4,6,8,10,12,14,-1,-1,-1,-1,-1,-1,-1,-1],"split_conditions":[4.69E-1,-2E0,1.4E1,-4.8E0,2.4E1,6.39E-1,2.3E1,-6.5175095E-4,3.1141345E-3,-9.542245E-4,-3.9749388E-3,3.0209142E-4,3.451668E-3,4.043993E-3,6.3078236E-3],"split_indices":[3,77,80,25,51,3,80,0,0,0,0,0,0,0,0],"split_type":[0,0,0,0,0,0,0,0,0,0,0,0,0,0,0],"sum_hessian":[3.8445E3,1.4835E3,2.361E3,4.7E2,1.0135E3,1.242E3,1.119E3,2.055E2,2.645E2,4.39E2,5.745E2,7.745E2,4.675E2,6.5E2,4.69E2],"tree_param":{"num_deleted":"0","num_feature":"106","num_nodes":"15","size_leaf_vector":"1"}},{"base_weights":[-1.4499247E-1,-2.85402E-1,1.8054028E-1,-1.0760098E-1,-4.603183E-1,-1.0669586E-1,3.0021173E-1,-1.9818556E-3,9.725975E-4,-2.5813505E-3,-5.278467E-3,8.579102E-4,-3.1242897E-3,4.6381545E-3,2.0251342E-3],"categories":[],"categories_nodes":[],"categories_segments":[],"categories_sizes":[],"default_left":[0,0,0,0,0,0,0,0,0,0,0,0,0,0,0],"id":2,"left_children":[1,3,5,7,9,11,13,-1,-1,-1,-1,-1,-1,-1,-1],"loss_changes":[1.7759335E2,8.4362045E1,4.026037E1,2.5001097E1,1.8586212E1,1.3651955E1,1.3136063E1,0E0,0E0,0E0,0E0,0E0,0E0,0E0,0E0],"parents":[2147483647,0,0,1,1,2,2,3,3,4,4,5,5,6,6],"right_children":[2,4,6,8,10,12,14,-1,-1,-1,-1,-1,-1,-1,-1],"split_conditions":[2E1,1.3E1,4.14E-1,1.5E1,-1E-1,-4.8E0,-6.6E0,-1.9818556E-3,9.725975E-4,-2.5813505E-3,-5.278467E-3,8.579102E-4,-3.1242897E-3,4.6381545E-3,2.0251342E-3],"split_indices":[28,80,55,51,25,25,25,0,0,0,0,0,0,0,0],"split_type":[0,0,0,0,0,0,0,0,0,0,0,0,0,0,0],"sum_hessian":[3.8849546E3,2.7144648E3,1.1704899E3,1.3464957E3,1.3679691E3,3.439983E2,8.264915E2,9.3399603E2,4.1249963E2,3.4299365E2,1.0249755E3,1.7749947E2,1.6649883E2,3.0849442E2,5.1799713E2],"tree_param":{"num_deleted":"0","num_feature":"106","num_nodes":"15","size_leaf_vector":"1"}},{"base_weights":[1.4540763E-1,2.7952543E-1,-2.1569711E-1,1.5100613E-1,4.9298292E-1,1.08022824E-1,-3.4255496E-1,3.5502256E-3,4.5159025E-4,3.861285E-3,5.938525E-3,-6.325396E-4,3.3526628E-3,-4.978945E-3,-2.2434364E-3],"categories":[],"categories_nodes":[],"categories_segments":[],"categories_sizes":[],"default_left":[0,0,0,0,0,0,0,0,0,0,0,0,0,0,0],"id":3,"left_children":[1,3,5,7,9,11,13,-1,-1,-1,-1,-1,-1,-1,-1],"loss_changes":[1.8979025E2,7.832089E1,4.3602333E1,3.8485016E1,1.1450409E1,1.1651235E1,1.3919991E1,0E0,0E0,0E0,0E0,0E0,0E0,0E0,0E0],"parents":[2147483647,0,0,1,1,2,2,3,3,4,4,5,5,6,6],"right_children":[2,4,6,8,10,12,14,-1,-1,-1,-1,-1,-1,-1,-1],"split_conditions":[2.2E1,1.7E1,4.14E-1,7E0,1.8E0,-4.8E0,1E1,3.5502256E-3,4.5159025E-4,3.861285E-3,5.938525E-3,-6.325396E-4,3.3526628E-3,-4.978945E-3,-2.2434364E-3],"split_indices":[29,80,55,27,25,25,103,0,0,0,0,0,0,0,0],"split_type":[0,0,0,0,0,0,0,0,0,0,0,0,0,0,0],"sum_hessian":[3.918454E3,2.8574639E3,1.0609902E3,1.7839911E3,1.0734729E3,2.984986E2,7.624917E2,6.0899506E2,1.174996E3,5.2198816E2,5.5148474E2,1.6999953E2,1.2849907E2,3.289962E2,4.334955E2],"tree_param":{"num_deleted":"0","num_feature":"106","num_nodes":"15","size_leaf_vector":"1"}},{"base_weights":[-1.4280473E-1,-2.751013E-1,2.1036103E-1,-1.01246595E-1,-4.3722183E-1,-1.081179E-2,3.436393E-1,-1.03624676E-4,-3.001635E-3,-3.4747624E-3,-5.7715946E-3,-9.800633E-4,2.0484657E-3,2.0376053E-3,4.4462685E-3],"categories":[],"categories_nodes":[],"categories_segments":[],"categories_sizes":[],"default_left":[0,0,0,0,0,0,0,0,0,0,0,0,0,0,0],"id":4,"left_children":[1,3,5,7,9,11,13,-1,-1,-1,-1,-1,-1,-1,-1],"loss_changes":[1.8049844E2,7.91559E1,3.1060627E1,2.4493458E1,1.8147736E1,7.4301376E0,9.207901E0,0E0,0E0,0E0,0E0,0E0,0E0,0E0,0E0],"parents":[2147483647,0,0,1,1,2,2,3,3,4,4,5,5,6,6],"right_children":[2,4,6,8,10,12,14,-1,-1,-1,-1,-1,-1,-1,-1],"split_conditions":[2.1E1,1.4E1,4.5E-1,6.39E-1,2.4E1,3.37E1,2.6E1,-1.03624676E-4,-3.001635E-3,-3.4747624E-3,-5.7715946E-3,-9.800633E-4,2.0484657E-3,2.0376053E-3,4.4462685E-3],"split_indices":[28,81,55,3,81,67,2,0,0,0,0,0,0,0,0],"split_type":[0,0,0,0,0,0,0,0,0,0,0,0,0,0,0],"sum_hessian":[3.8628296E3,2.8103662E3,1.0524635E3,1.356482E3,1.4538842E3,3.9549255E2,6.569709E2,9.3149475E2,4.249873E2,8.864464E2,5.6743774E2,2.8199512E2,1.1349743E2,2.759886E2,3.809823E2],"tree_param":{"num_deleted":"0","num_feature":"106","num_nodes":"15","size_leaf_vector":"1"}},{"base_weights":[1.4446193E-1,2.721468E-1,-2.0106813E-1,6.1864857E-2,4.3573475E-1,-3.0048364E-1,1.7272602E-1,-2.609013E-4,2.9198143E-3,3.5400507E-3,5.842874E-3,-1.7147679E-3,-3.959399E-3,2.0625673E-3,-6.309713E-3],"categories":[],"categories_nodes":[],"categories_segments":[],"categories_sizes":[],"default_left":[0,0,0,0,0,0,0,0,0,0,0,0,0,0,0],"id":5,"left_children":[1,3,5,7,9,11,13,-1,-1,-1,-1,-1,-1,-1,-1],"loss_changes":[1.6911754E2,9.6230896E1,3.844476E1,2.4822872E1,1.8995514E1,9.9982605E0,5.820971E0,0E0,0E0,0E0,0E0,0E0,0E0,0E0,0E0],"parents":[2147483647,0,0,1,1,2,2,3,3,4,4,5,5,6,6],"right_children":[2,4,6,8,10,12,14,-1,-1,-1,-1,-1,-1,-1,-1],"split_conditions":[2.2E1,1.3E1,2.4E1,6.54E-1,2.3E1,2.6E1,4.32E1,-2.609013E-4,2.9198143E-3,3.5400507E-3,5.842874E-3,-1.7147679E-3,-3.959399E-3,2.0625673E-3,-6.309713E-3],"split_indices":[29,103,81,3,80,51,5,0,0,0,0,0,0,0,0],"split_type":[0,0,0,0,0,0,0,0,0,0,0,0,0,0,0],"sum_hessian":[3.832832E3,2.7988677E3,1.0339642E3,1.2249812E3,1.5738865E3,8.1696796E2,2.1699629E2,8.8599207E2,3.389891E2,1.01594977E3,5.5793677E2,3.4799225E2,4.689757E2,2.0849646E2,8.49983E0],"tree_param":{"num_deleted":"0","num_feature":"106","num_nodes":"15","size_leaf_vector":"1"}},{"base_weights":[-1.380357E-1,-2.7779764E-1,1.8980409E-1,-1.4229375E-1,-5.104089E-1,3.1403583E-1,-1.1554425E-1,-4.112771E-4,-3.4718402E-3,-5.8523854E-3,-3.5885903E-3,2.1567934E-3,5.2352324E-3,7.15231E-4,-2.206508E-3],"categories":[],"categories_nodes":[],"categories_segments":[],"categories_sizes":[],"default_left":[0,0,0,0,0,0,0,0,0,0,0,0,0,0,0],"id":6,"left_children":[1,3,5,7,9,11,13,-1,-1,-1,-1,-1,-1,-1,-1],"loss_changes":[1.7748407E2,8.552933E1,4.3932865E1,3.5539883E1,1.1218079E1,1.6872948E1,6.595164E0,0E0,0E0,0E0,0E0,0E0,0E0,0E0,0E0],"parents":[2147483647,0,0,1,1,2,2,3,3,4,4,5,5,6,6],"right_children":[2,4,6,8,10,12,14,-1,-1,-1,-1,-1,-1,-1,-1],"split_conditions":[2E1,1.7E1,2.2E1,6.39E-1,-2.3E0,2.8E1,-6.5E0,-4.112771E-4,-3.4718402E-3,-5.8523854E-3,-3.5885903E-3,2.1567934E-3,5.2352324E-3,7.15231E-4,-2.206508E-3],"split_indices":[28,80,103,3,77,51,25,0,0,0,0,0,0,0,0],"split_type":[0,0,0,0,0,0,0,0,0,0,0,0,0,0,0],"sum_hessian":[3.8731401E3,2.715718E3,1.1574221E3,1.7164305E3,9.992875E2,8.22934E2,3.3448807E2,1.1494764E3,5.669541E2,6.6834E2,3.3094745E2,5.604686E2,2.6246536E2,1.1999787E2,2.144902E2],"tree_param":{"num_deleted":"0","num_feature":"106","num_nodes":"15","size_leaf_vector":"1"}},{"base_weights":[1.4010282E-1,2.8344822E-1,-1.9933814E-1,1.4418161E-1,5.242008E-1,1.8822074E-1,-2.96718E-1,-1.3184699E-3,2.0633554E-3,6.228186E-3,4.110158E-3,9.781934E-4,4.443611E-3,-4.759024E-3,-2.2371297E-3],"categories":[],"categories_nodes":[],"categories_segments":[],"categories_sizes":[],"default_left":[0,0,0,0,0,0,0,0,0,0,0,0,0,0,0],"id":7,"left_children":[1,3,5,7,9,11,13,-1,-1,-1,-1,-1,-1,-1,-1],"loss_changes":[1.8915645E2,9.157028E1,4.3569683E1,2.9725342E1,1.1048523E1,5.304059E0,1.1987328E1,0E0,0E0,0E0,0E0,0E0,0E0,0E0,0E0],"parents":[2147483647,0,0,1,1,2,2,3,3,4,4,5,5,6,6],"right_children":[2,4,6,8,10,12,14,-1,-1,-1,-1,-1,-1,-1,-1],"split_conditions":[2E1,1.7E1,3.57E-1,4E0,3.71E-1,2.5E1,7E0,-1.3184699E-3,2.0633554E-3,6.228186E-3,4.110158E-3,9.781934E-4,4.443611E-3,-4.759024E-3,-2.2371297E-3],"split_indices":[28,80,55,103,55,48,79,0,0,0,0,0,0,0,0],"split_type":[0,0,0,0,0,0,0,0,0,0,0,0,0,0,0],"sum_hessian":[3.8871345E3,2.7332136E3,1.153921E3,1.73193E3,1.0012835E3,2.3149231E2,9.2242865E2,3.179919E2,1.4139381E3,5.343616E2,4.6692197E2,1.7149426E2,5.9998055E1,2.664729E2,6.5595575E2],"tree_param":{"num_deleted":"0","num_feature":"106","num_nodes":"15","size_leaf_vector":"1"}},{"base_weights":[-1.3598114E-1,1.4112589E-1,-3.117024E-1,-1.335105E-1,2.6819682E-1,-1.1842721E-1,-4.6082354E-1,6.362668E-4,-2.782156E-3,4.6575796E-3,1.7426116E-3,-2.3949947E-4,-2.9867722E-3,-5.4106554E-3,-3.4330508E-3],"categories":[],"categories_nodes":[],"categories_segments":[],"categories_sizes":[],"default_left":[0,0,0,0,0,0,0,0,0,0,0,0,0,0,0],"id":8,"left_children":[1,3,5,7,9,11,13,-1,-1,-1,-1,-1,-1,-1,-1],"loss_changes":[1.8875587E2,5.2501465E1,6.830487E1,1.3589129E1,1.9014359E1,1.756778E1,1.2516724E1,0E0,0E0,0E0,0E0,0E0,0E0,0E0,0E0],"parents":[2147483647,0,0,1,1,2,2,3,3,4,4,5,5,6,6],"right_children":[2,4,6,8,10,12,14,-1,-1,-1,-1,-1,-1,-1,-1],"split_conditions":[4.69E-1,-2E0,1.3E1,-4.8E0,-6.5E0,6.51E-1,1.079E2,6.362668E-4,-2.782156E-3,4.6575796E-3,1.7426116E-3,-2.3949947E-4,-2.9867722E-3,-5.4106554E-3,-3.4330508E-3],"split_indices":[3,77,103,25,25,3,76,0,0,0,0,0,0,0,0],"split_type":[0,0,0,0,0,0,0,0,0,0,0,0,0,0,0],"sum_hessian":[3.8758594E3,1.5038246E3,2.372035E3,4.7545E2,1.0283746E3,1.0334436E3,1.3385912E3,2.0099373E2,2.7445627E2,3.30926E2,6.974486E2,6.7848615E2,3.549575E2,7.947332E2,5.4385803E2],"tree_param":{"num_deleted":"0","num_feature":"106","num_nodes":"15","size_leaf_vector":"1"}},{"base_weights":[1.4081956E-1,2.6839706E-1,-2.0698455E-1,4.1699412E-1,5.1400654E-2,5.1228933E-2,-3.5527825E-1,3.3841436E-3,5.6901406E-3,1.0086811E-3,-2.3948783E-3,-8.662355E-4,2.4646928E-3,-2.6722627E-3,-5.5192485E-3],"categories":[],"categories_nodes":[],"categories_segments":[],"categories_sizes":[],"default_left":[0,0,0,0,0,0,0,0,0,0,0,0,0,0,0],"id":9,"left_children":[1,3,5,7,9,11,13,-1,-1,-1,-1,-1,-1,-1,-1],"loss_changes":[1.712414E2,9.099779E1,3.9681854E1,1.9906677E1,1.650841E1,1.018046E1,1.1296501E1,0E0,0E0,0E0,0E0,0E0,0E0,0E0,0E0],"parents":[2147483647,0,0,1,1,2,2,3,3,4,4,5,5,6,6],"right_children":[2,4,6,8,10,12,14,-1,-1,-1,-1,-1,-1,-1,-1],"split_conditions":[2.2E1,1.7E0,4.5E-1,3.9E0,8.8E0,-4.8E0,3.8E1,3.3841436E-3,5.6901406E-3,1.0086811E-3,-2.3948783E-3,-8.662355E-4,2.4646928E-3,-2.6722627E-3,-5.5192485E-3],"split_indices":[29,77,55,25,77,25,2,0,0,0,0,0,0,0,0],"split_type":[0,0,0,0,0,0,0,0,0,0,0,0,0,0,0],"sum_hessian":[3.8588599E3,2.82349E3,1.0353698E3,1.675542E3,1.147948E3,3.774805E2,6.5788934E2,1.1052262E3,5.703158E2,9.814544E2,1.6649356E2,2.209903E2,1.564902E2,4.5493054E2,2.0295877E2],"tree_param":{"num_deleted":"0","num_feature":"106","num_nodes":"15","size_leaf_vector":"1"}},{"base_weights":[-1.338562E-1,1.240613E-1,-2.9898313E-1,-1.4359805E-1,2.3226589E-1,-8.924408E-2,-4.6041334E-1,7.6244824E-4,-2.7330858E-3,9.645793E-4,3.4793941E-3,1.0137168E-4,-2.916399E-3,-5.453965E-3,-3.3181359E-3],"categories":[],"categories_nodes":[],"categories_segments":[],"categories_sizes":[],"default_left":[0,0,0,0,0,0,0,0,0,0,0,0,0,0,0],"id":10,"left_children":[1,3,5,7,9,11,13,-1,-1,-1,-1,-1,-1,-1,-1],"loss_changes":[1.6537848E2,4.3899338E1,8.009622E1,1.2455716E1,1.6908943E1,2.0746693E1,1.4511017E1,0E0,0E0,0E0,0E0,0E0,0E0,0E0,0E0],"parents":[2147483647,0,0,1,1,2,2,3,3,4,4,5,5,6,6],"right_children":[2,4,6,8,10,12,14,-1,-1,-1,-1,-1,-1,-1,-1],"split_conditions":[4.69E-1,-2.4E0,1.3E1,3.2E-1,2.1E1,6.54E-1,1.079E2,7.6244824E-4,-2.7330858E-3,9.645793E-4,3.4793941E-3,1.0137168E-4,-2.916399E-3,-5.453965E-3,-3.3181359E-3],"split_indices":[3,77,103,3,53,3,76,0,0,0,0,0,0,0,0],"split_type":[0,0,0,0,0,0,0,0,0,0,0,0,0,0,0],"sum_hessian":[3.8825178E3,1.5152363E3,2.3672815E3,4.3593433E2,1.079302E3,1.0299232E3,1.3373583E3,1.6149353E2,2.744408E2,4.969268E2,5.8237524E2,6.9048114E2,3.3944205E2,8.0456915E2,5.3278906E2],"tree_param":{"num_deleted":"0","num_feature":"106","num_nodes":"15","size_leaf_vector":"1"}},{"base_weights":[1.4150353E-1,2.8008258E-1,-1.7822805E-1,9.9953234E-2,4.581882E-1,7.705463E-2,-2.9504457E-1,2.9737076E-3,3.2411292E-4,3.6091607E-3,5.5334973E-3,-9.7321003E-4,2.2256346E-3,-4.438821E-3,-2.0138845E-3],"categories":[],"categories_nodes":[],"categories_segments":[],"categories_sizes":[],"default_left":[0,0,0,0,0,0,0,0,0,0,0,0,0,0,0],"id":11,"left_children":[1,3,5,7,9,11,13,-1,-1,-1,-1,-1,-1,-1,-1],"loss_changes":[1.7029716E2,8.596269E1,3.467303E1,1.7746983E1,1.2365906E1,9.265071E0,1.1042152E1,0E0,0E0,0E0,0E0,0E0,0E0,0E0,0E0],"parents":[2147483647,0,0,1,1,2,2,3,3,4,4,5,5,6,6],"right_children":[2,4,6,8,10,12,14,-1,-1,-1,-1,-1,-1,-1,-1],"split_conditions":[2E1,1.3E1,-2E0,5E0,2.1E1,3.2E-1,-6.4E0,2.9737076E-3,3.2411292E-4,3.6091607E-3,5.5334973E-3,-9.7321003E-4,2.2256346E-3,-4.438821E-3,-2.0138845E-3],"split_indices":[28,80,77,28,80,3,25,0,0,0,0,0,0,0,0],"split_type":[0,0,0,0,0,0,0,0,0,0,0,0,0,0,0],"sum_hessian":[3.8430347E3,2.6812458E3,1.1617888E3,1.3334064E3,1.3478396E3,3.64473E2,7.973158E2,3.3944012E2,9.939663E2,6.67285E2,6.8055457E2,1.6549368E2,1.9897931E2,3.0738318E2,4.8993262E2],"tree_param":{"num_deleted":"0","num_feature":"106","num_nodes":"15","size_leaf_vector":"1"}},{"base_weights":[-1.3382863E-1,-2.6478752E-1,1.7211246E-1,-6.3489795E-2,-4.2060164E-1,1.0830964E-2,3.339163E-1,2.7729291E-4,-2.909518E-3,-3.0506577E-3,-5.182961E-3,2.119069E-3,-9.128929E-4,5.200078E-3,2.0779863E-3],"categories":[],"categories_nodes":[],"categories_segments":[],"categories_sizes":[],"default_left":[0,0,0,0,0,0,0,0,0,0,0,0,0,0,0],"id":12,"left_children":[1,3,5,7,9,11,13,-1,-1,-1,-1,-1,-1,-1,-1],"loss_changes":[1.5579735E2,8.535582E1,3.0374882E1,2.4686949E1,1.7223297E1,1.2005945E1,1.356147E1,0E0,0E0,0E0,0E0,0E0,0E0,0E0,0E0],"parents":[2147483647,0,0,1,1,2,2,3,3,4,4,5,5,6,6],"right_children":[2,4,6,8,10,12,14,-1,-1,-1,-1,-1,-1,-1,-1],"split_conditions":[2E1,1.3E1,5.09E-1,6.54E-1,2.1E1,-6.9E0,-6.2E0,2.7729291E-4,-2.909518E-3,-3.0506577E-3,-5.182961E-3,2.119069E-3,-9.128929E-4,5.200078E-3,2.0779863E-3],"split_indices":[28,103,55,3,103,25,25,0,0,0,0,0,0,0,0],"split_type":[0,0,0,0,0,0,0,0,0,0,0,0,0,0,0],"sum_hessian":[3.8881013E3,2.722898E3,1.1652034E3,1.1883892E3,1.5345088E3,5.8390656E2,5.8129675E2,8.479743E2,3.4041492E2,7.0371484E2,8.3079395E2,1.9696062E2,3.8694595E2,2.3436984E2,3.4692694E2],"tree_param":{"num_deleted":"0","num_feature":"106","num_nodes":"15","size_leaf_vector":"1"}},{"base_weights":[1.3466695E-1,2.6008335E-1,-2.007021E-1,4.2563033E-1,8.989716E-2,4.2020332E-2,-3.5222796E-1,2.4146005E-3,5.113265E-3,3.3533955E-3,1.7054426E-4,-1.4028677E-3,1.729991E-3,-4.7598844E-3,-2.6299679E-3],"categories":[],"categories_nodes":[],"categories_segments":[],"categories_sizes":[],"default_left":[0,0,0,0,0,0,0,0,0,0,0,0,0,0,0],"id":13,"left_children":[1,3,5,7,9,11,13,-1,-1,-1,-1,-1,-1,-1,-1],"loss_changes":[1.6296361E2,7.939456E1,3.88091E1,2.2468262E1,2.4832333E1,9.677745E0,7.0847397E0,0E0,0E0,0E0,0E0,0E0,0E0,0E0,0E0],"parents":[2147483647,0,0,1,1,2,2,3,3,4,4,5,5,6,6],"right_children":[2,4,6,8,10,12,14,-1,-1,-1,-1,-1,-1,-1,-1],"split_conditions":[2.2E1,6E-1,4.62E-1,3E-1,5E0,-6.5E0,-6.5E0,2.4146005E-3,5.113265E-3,3.3533955E-3,1.7054426E-4,-1.4028677E-3,1.729991E-3,-4.7598844E-3,-2.6299679E-3],"split_indices":[29,77,55,25,29,25,25,0,0,0,0,0,0,0,0],"split_type":[0,0,0,0,0,0,0,0,0,0,0,0,0,0,0],"sum_hessian":[3.8741138E3,2.8198923E3,1.0542214E3,1.4290549E3,1.3908374E3,4.0495483E2,6.4926654E2,4.5428845E2,9.7476654E2,3.1791043E2,1.072927E3,1.6898164E2,2.359732E2,2.7135403E2,3.7791254E2],"tree_param":{"num_deleted":"0","num_feature":"106","num_nodes":"15","size_leaf_vector":"1"}},{"base_weights":[-1.4165916E-1,-2.8242475E-1,1.8764782E-1,-1.2121503E-1,-4.64408E-1,2.9781848E-1,-8.273582E-2,-2.1266306E-4,-3.2081546E-3,-3.7230563E-3,-5.622157E-3,1.0841253E-3,3.8884988E-3,8.4213866E-4,-1.8426628E-3],"categories":[],"categories_nodes":[],"categories_segments":[],"categories_sizes":[],"default_left":[0,0,0,0,0,0,0,0,0,0,0,0,0,0,0],"id":14,"left_children":[1,3,5,7,9,11,13,-1,-1,-1,-1,-1,-1,-1,-1],"loss_changes":[1.795596E2,7.9547104E1,3.4569855E1,2.8680353E1,1.13654785E1,1.4157845E1,5.6993327E0,0E0,0E0,0E0,0E0,0E0,0E0,0E0,0E0],"parents":[2147483647,0,0,1,1,2,2,3,3,4,4,5,5,6,6],"right_children":[2,4,6,8,10,12,14,-1,-1,-1,-1,-1,-1,-1,-1],"split_conditions":[2E1,1.4E1,2.2E1,6.39E-1,2.2E1,2.4E1,-6.2E0,-2.1266306E-4,-3.2081546E-3,-3.7230563E-3,-5.622157E-3,1.0841253E-3,3.8884988E-3,8.4213866E-4,-1.8426628E-3],"split_indices":[28,80,103,3,80,51,25,0,0,0,0,0,0,0,0],"split_type":[0,0,0,0,0,0,0,0,0,0,0,0,0,0,0],"sum_hessian":[3.87315E3,2.7135383E3,1.1596116E3,1.4392744E3,1.2742639E3,8.24159E2,3.354525E2,9.594481E2,4.7982623E2,6.5704675E2,6.1721716E2,2.6795395E2,5.56205E2,1.2649122E2,2.0896132E2],"tree_param":{"num_deleted":"0","num_feature":"106","num_nodes":"15","size_leaf_vector":"1"}},{"base_weights":[1.4359999E-1,-1.5791903E-1,2.9209447E-1,1.0299428E-1,-2.7948907E-1,4.0599218E-1,5.5212867E-2,-2.2743999E-3,1.8117009E-3,-2.131108E-3,-5.8391243E-3,5.690831E-3,3.1457117E-3,-4.0759364E-4,2.572818E-3],"categories":[],"categories_nodes":[],"categories_segments":[],"categories_sizes":[],"default_left":[0,0,0,0,0,0,0,0,0,0,0,0,0,0,0],"id":15,"left_children":[1,3,5,7,9,11,13,-1,-1,-1,-1,-1,-1,-1,-1],"loss_changes":[1.7258698E2,4.0356396E1,6.9632996E1,1.0435581E1,1.744265E1,2.5893463E1,1.6293314E1,0E0,0E0,0E0,0E0,0E0,0E0,0E0,0E0],"parents":[2147483647,0,0,1,1,2,2,3,3,4,4,5,5,6,6],"right_children":[2,4,6,8,10,12,14,-1,-1,-1,-1,-1,-1,-1,-1],"split_conditions":[-1.6E0,-2E0,2.7E0,-8.5E0,3.7E1,-3E0,6.54E-1,-2.2743999E-3,1.8117009E-3,-2.131108E-3,-5.8391243E-3,5.690831E-3,3.1457117E-3,-4.0759364E-4,2.572818E-3],"split_indices":[25,77,77,25,53,77,3,0,0,0,0,0,0,0,0],"split_type":[0,0,0,0,0,0,0,0,0,0,0,0,0,0,0],"sum_hessian":[3.8541304E3,1.2715532E3,2.5825771E3,4.0389896E2,8.676543E2,1.7436833E3,8.3889374E2,7.699322E1,3.2690573E2,7.1274225E2,1.5491205E2,6.257527E2,1.1179308E3,5.684802E2,2.7041357E2],"tree_param":{"num_deleted":"0","num_feature":"106","num_nodes":"15","size_leaf_vector":"1"}},{"base_weights":[-1.3112801E-1,-2.660261E-1,1.83867E-1,-1.0919849E-1,-4.401611E-1,1.0522852E-2,3.705787E-1,-3.499517E-3,-3.6985372E-4,-3.1233048E-3,-5.223724E-3,1.6897934E-3,-1.6218123E-3,5.069901E-3,2.7168728E-3],"categories":[],"categories_nodes":[],"categories_segments":[],"categories_sizes":[],"default_left":[0,0,0,0,0,0,0,0,0,0,0,0,0,0,0],"id":16,"left_children":[1,3,5,7,9,11,13,-1,-1,-1,-1,-1,-1,-1,-1],"loss_changes":[1.642956E2,7.387132E1,3.7475887E1,2.473117E1,1.3377899E1,1.6462536E1,7.4323273E0,0E0,0E0,0E0,0E0,0E0,0E0,0E0,0E0],"parents":[2147483647,0,0,1,1,2,2,3,3,4,4,5,5,6,6],"right_children":[2,4,6,8,10,12,14,-1,-1,-1,-1,-1,-1,-1,-1],"split_conditions":[2E1,1.4E1,5.14E-1,5E0,2.1E1,-4.8E0,-6.1E0,-3.499517E-3,-3.6985372E-4,-3.1233048E-3,-5.223724E-3,1.6897934E-3,-1.6218123E-3,5.069901E-3,2.7168728E-3],"split_indices":[28,80,55,29,103,25,25,0,0,0,0,0,0,0,0],"split_type":[0,0,0,0,0,0,0,0,0,0,0,0,0,0,0],"sum_hessian":[3.8660776E3,2.7070876E3,1.15899E3,1.4247139E3,1.2823738E3,6.013421E2,5.5764795E2,3.2832684E2,1.096387E3,5.025905E2,7.797832E2,3.1390997E2,2.874321E2,2.3376598E2,3.2388196E2],"tree_param":{"num_deleted":"0","num_feature":"106","num_nodes":"15","size_leaf_vector":"1"}},{"base_weights":[1.3014837E-1,2.656699E-1,-1.8397625E-1,1.2088484E-1,4.5110372E-1,1.0406203E-1,-2.996282E-1,2.2413957E-4,3.1972292E-3,3.5879584E-3,5.6295358E-3,1.5280731E-3,-5.0575775E-3,-1.2793086E-3,-3.7911772E-3],"categories":[],"categories_nodes":[],"categories_segments":[],"categories_sizes":[],"default_left":[0,0,0,0,0,0,0,0,0,0,0,0,0,0,0],"id":17,"left_children":[1,3,5,7,9,11,13,-1,-1,-1,-1,-1,-1,-1,-1],"loss_changes":[1.6481143E2,7.2552734E1,3.888442E1,2.9711584E1,1.2127777E1,9.902053E0,1.1308609E1,0E0,0E0,0E0,0E0,0E0,0E0,0E0,0E0],"parents":[2147483647,0,0,1,1,2,2,3,3,4,4,5,5,6,6],"right_children":[2,4,6,8,10,12,14,-1,-1,-1,-1,-1,-1,-1,-1],"split_conditions":[2E1,1.5E1,-2.4E0,6.39E-1,2.6E1,3.53E1,2.4E1,2.2413957E-4,3.1972292E-3,3.5879584E-3,5.6295358E-3,1.5280731E-3,-5.0575775E-3,-1.2793086E-3,-3.7911772E-3],"split_indices":[28,80,77,3,1,67,51,0,0,0,0,0,0,0,0],"split_type":[0,0,0,0,0,0,0,0,0,0,0,0,0,0,0],"sum_hessian":[3.8710732E3,2.7045806E3,1.1664927E3,1.5191481E3,1.1854326E3,3.3393997E2,8.325527E2,1.01640594E3,5.027421E2,6.501716E2,5.3526105E2,3.0944385E2,2.4496134E1,2.6394678E2,5.686059E2],"tree_param":{"num_deleted":"0","num_feature":"106","num_nodes":"15","size_leaf_vector":"1"}},{"base_weights":[-1.2932628E-1,-2.5650448E-1,2.147353E-1,-3.602566E-1,1.2714806E-3,-1.1425135E-1,3.041349E-1,-2.77475E-3,-5.1055276E-3,-2.8202278E-3,7.389739E-4,-1.8049921E-3,3.4964697E-3,2.2354242E-3,4.4826847E-3],"categories":[],"categories_nodes":[],"categories_segments":[],"categories_sizes":[],"default_left":[0,0,0,0,0,0,0,0,0,0,0,0,0,0,0],"id":18,"left_children":[1,3,5,7,9,11,13,-1,-1,-1,-1,-1,-1,-1,-1],"loss_changes":[1.686544E2,7.530173E1,3.0609863E1,2.4875977E1,1.6594242E1,6.813669E0,9.425148E0,0E0,0E0,0E0,0E0,0E0,0E0,0E0,0E0],"parents":[2147483647,0,0,1,1,2,2,3,3,4,4,5,5,6,6],"right_children":[2,4,6,8,10,12,14,-1,-1,-1,-1,-1,-1,-1,-1],"split_conditions":[2.2E1,3.5E0,3.71E-1,2.1E1,5E0,2.56E1,3.1E0,-2.77475E-3,-5.1055276E-3,-2.8202278E-3,7.389739E-4,-1.8049921E-3,3.4964697E-3,2.2354242E-3,4.4826847E-3],"split_indices":[29,77,55,80,29,17,77,0,0,0,0,0,0,0,0],"split_type":[0,0,0,0,0,0,0,0,0,0,0,0,0,0,0],"sum_hessian":[3.8540085E3,2.8141196E3,1.0398889E3,2.0067655E3,8.073541E2,2.2195564E2,8.179333E2,1.2946405E3,7.1212494E2,1.6440173E2,6.429524E2,1.944618E2,2.7493822E1,5.2521014E2,2.9272314E2],"tree_param":{"num_deleted":"0","num_feature":"106","num_nodes":"15","size_leaf_vector":"1"}},{"base_weights":[1.3164131E-1,2.6632503E-1,-1.843174E-1,9.977801E-2,4.3214348E-1,8.3519705E-2,-2.910428E-1,3.2292972E-3,3.1693367E-4,3.144474E-3,5.1810807E-3,-9.790686E-4,2.390815E-3,-1.2560483E-3,-3.6863196E-3],"categories":[],"categories_nodes":[],"categories_segments":[],"categories_sizes":[],"default_left":[0,0,0,0,0,0,0,0,0,0,0,0,0,0,0],"id":19,"left_children":[1,3,5,7,9,11,13,-1,-1,-1,-1,-1,-1,-1,-1],"loss_changes":[1.6555133E2,7.527156E1,3.325189E1,2.0645718E1,1.3726227E1,9.359193E0,1.0619499E1,0E0,0E0,0E0,0E0,0E0,0E0,0E0,0E0],"parents":[2147483647,0,0,1,1,2,2,3,3,4,4,5,5,6,6],"right_children":[2,4,6,8,10,12,14,-1,-1,-1,-1,-1,-1,-1,-1],"split_conditions":[2E1,1.3E1,-2.4E0,5E0,2.1E1,3.2E-1,2.4E1,3.2292972E-3,3.1693367E-4,3.144474E-3,5.1810807E-3,-9.790686E-4,2.390815E-3,-1.2560483E-3,-3.6863196E-3],"split_indices":[28,80,77,29,103,3,51,0,0,0,0,0,0,0,0],"split_type":[0,0,0,0,0,0,0,0,0,0,0,0,0,0,0],"sum_hessian":[3.8899287E3,2.7275767E3,1.1623519E3,1.3611797E3,1.3663971E3,3.309322E2,8.3141974E2,3.1778293E2,1.0433967E3,5.7743976E2,7.889573E2,1.5248648E2,1.7844571E2,2.6593527E2,5.654845E2],"tree_param":{"num_deleted":"0","num_feature":"106","num_nodes":"15","size_leaf_vector":"1"}},{"base_weights":[-1.3474582E-1,-2.6402643E-1,1.6755281E-1,-1.368603E-1,-4.815088E-1,2.5314426E-1,-1.45521E-1,-3.8228466E-4,-3.2916719E-3,-4.078127E-3,-5.986927E-3,1.9019438E-3,4.80127E-3,5.1599275E-4,-2.5299483E-3],"categories":[],"categories_nodes":[],"categories_segments":[],"categories_sizes":[],"default_left":[0,0,0,0,0,0,0,0,0,0,0,0,0,0,0],"id":20,"left_children":[1,3,5,7,9,11,13,-1,-1,-1,-1,-1,-1,-1,-1],"loss_changes":[1.505712E2,7.456723E1,3.0932884E1,3.2270756E1,8.471298E0,1.2874863E1,5.265509E0,0E0,0E0,0E0,0E0,0E0,0E0,0E0,0E0],"parents":[2147483647,0,0,1,1,2,2,3,3,4,4,5,5,6,6],"right_children":[2,4,6,8,10,12,14,-1,-1,-1,-1,-1,-1,-1,-1],"split_conditions":[2E1,1.7E1,2.4E1,6.39E-1,2.6E1,3.5E1,-6.5E0,-3.8228466E-4,-3.2916719E-3,-4.078127E-3,-5.986927E-3,1.9019438E-3,4.80127E-3,5.1599275E-4,-2.5299483E-3],"split_indices":[28,80,81,3,103,53,25,0,0,0,0,0,0,0,0],"split_type":[0,0,0,0,0,0,0,0,0,0,0,0,0,0,0],"sum_hessian":[3.8523035E3,2.6985771E3,1.1537262E3,1.703267E3,9.9531024E2,9.0629285E2,2.4743344E2,1.1262614E3,5.770056E2,6.118338E2,3.8347647E2,7.1000824E2,1.9628459E2,8.699515E1,1.604383E2],"tree_param":{"num_deleted":"0","num_feature":"106","num_nodes":"15","size_leaf_vector":"1"}},{"base_weights":[1.3355921E-1,-1.14759706E-1,2.931996E-1,4.6725933E-2,-2.8708327E-1,4.3180886E-1,9.5535465E-2,-1.8526765E-3,1.5374604E-3,-1.2466434E-3,-3.8536787E-3,3.518525E-3,5.860846E-3,1.5111571E-3,-2.5765526E-3],"categories":[],"categories_nodes":[],"categories_segments":[],"categories_sizes":[],"default_left":[0,0,0,0,0,0,0,0,0,0,0,0,0,0,0],"id":21,"left_children":[1,3,5,7,9,11,13,-1,-1,-1,-1,-1,-1,-1,-1],"loss_changes":[1.5190527E2,4.174246E1,6.384645E1,1.9208628E1,1.1526119E1,1.679335E1,1.887425E1,0E0,0E0,0E0,0E0,0E0,0E0,0E0,0E0],"parents":[2147483647,0,0,1,1,2,2,3,3,4,4,5,5,6,6],"right_children":[2,4,6,8,10,12,14,-1,-1,-1,-1,-1,-1,-1,-1],"split_conditions":[4.69E-1,5.12E-1,1.6E0,-6.4E0,2.2E1,2.3E1,8.6E0,-1.8526765E-3,1.5374604E-3,-1.2466434E-3,-3.8536787E-3,3.518525E-3,5.860846E-3,1.5111571E-3,-2.5765526E-3],"split_indices":[3,55,77,25,28,80,77,0,0,0,0,0,0,0,0],"split_type":[0,0,0,0,0,0,0,0,0,0,0,0,0,0,0],"sum_hessian":[3.8313184E3,1.4990164E3,2.332302E3,7.735808E2,7.2543555E2,1.3705784E3,9.617237E2,2.4388654E2,5.296943E2,2.7395654E2,4.5147897E2,9.033672E2,4.6721124E2,8.31253E2,1.304707E2],"tree_param":{"num_deleted":"0","num_feature":"106","num_nodes":"15","size_leaf_vector":"1"}},{"base_weights":[-1.2802914E-1,1.23237155E-1,-2.8912318E-1,2.276388E-1,-1.42045E-1,-1.2199401E-1,-4.5661733E-1,3.899568E-3,1.4469658E-3,5.7396124E-4,-2.5339243E-3,-2.7295423E-4,-3.0098706E-3,-3.717569E-3,-5.8072037E-3],"categories":[],"categories_nodes":[],"categories_segments":[],"categories_sizes":[],"default_left":[0,0,0,0,0,0,0,0,0,0,0,0,0,0,0],"id":22,"left_children":[1,3,5,7,9,11,13,-1,-1,-1,-1,-1,-1,-1,-1],"loss_changes":[1.5762439E2,4.213514E1,6.6358765E1,1.4638622E1,9.554896E0,2.0105612E1,1.2360535E1,0E0,0E0,0E0,0E0,0E0,0E0,0E0,0E0],"parents":[2147483647,0,0,1,1,2,2,3,3,4,4,5,5,6,6],"right_children":[2,4,6,8,10,12,14,-1,-1,-1,-1,-1,-1,-1,-1],"split_conditions":[4.69E-1,2.2E1,1.3E1,8E0,3.2E-1,6.54E-1,2.3E1,3.899568E-3,1.4469658E-3,5.7396124E-4,-2.5339243E-3,-2.7295423E-4,-3.0098706E-3,-3.717569E-3,-5.8072037E-3],"split_indices":[3,103,80,103,3,3,80,0,0,0,0,0,0,0,0],"split_type":[0,0,0,0,0,0,0,0,0,0,0,0,0,0,0],"sum_hessian":[3.8935256E3,1.5208241E3,2.3727014E3,1.091612E3,4.2921213E2,1.18803E3,1.1846714E3,3.6862888E2,7.2298315E2,1.5347108E2,2.7574103E2,7.774068E2,4.1062323E2,7.042902E2,4.803812E2],"tree_param":{"num_deleted":"0","num_feature":"106","num_nodes":"15","size_leaf_vector":"1"}},{"base_weights":[1.3299504E-1,2.6580915E-1,-1.7427976E-1,9.768619E-2,4.2942056E-1,9.437126E-2,-2.879746E-1,2.777432E-3,-1.5851763E-5,3.3730967E-3,5.3647417E-3,-4.3800485E-4,2.831729E-3,-4.5090267E-3,-1.9163223E-3],"categories":[],"categories_nodes":[],"categories_segments":[],"categories_sizes":[],"default_left":[0,0,0,0,0,0,0,0,0,0,0,0,0,0,0],"id":23,"left_children":[1,3,5,7,9,11,13,-1,-1,-1,-1,-1,-1,-1,-1],"loss_changes":[1.5746619E2,7.404822E1,3.5581028E1,2.378543E1,1.3354736E1,9.051179E0,1.2771606E1,0E0,0E0,0E0,0E0,0E0,0E0,0E0,0E0],"parents":[2147483647,0,0,1,1,2,2,3,3,4,4,5,5,6,6],"right_children":[2,4,6,8,10,12,14,-1,-1,-1,-1,-1,-1,-1,-1],"split_conditions":[2E1,1.3E1,4.14E-1,7E0,2.2E1,-4.1E0,-6.6E0,2.777432E-3,-1.5851763E-5,3.3730967E-3,5.3647417E-3,-4.3800485E-4,2.831729E-3,-4.5090267E-3,-1.9163223E-3],"split_indices":[28,80,55,27,80,25,25,0,0,0,0,0,0,0,0],"split_type":[0,0,0,0,0,0,0,0,0,0,0,0,0,0,0],"sum_hessian":[3.8580415E3,2.6939624E3,1.1640789E3,1.3290426E3,1.3649199E3,3.4589545E2,8.181834E2,4.726266E2,8.56416E2,7.343883E2,6.305316E2,1.9946617E2,1.4642928E2,3.0350653E2,5.146769E2],"tree_param":{"num_deleted":"0","num_feature":"106","num_nodes":"15","size_leaf_vector":"1"}},{"base_weights":[-1.301712E-1,-2.6333067E-1,1.8265006E-1,-1.3857254E-1,-4.719515E-1,1.600104E-2,3.6066273E-1,-4.0410494E-4,-3.4001044E-3,-5.3146654E-3,-3.0663898E-3,9.4694475E-4,-1.9967693E-3,2.7033174E-3,5.480172E-3],"categories":[],"categories_nodes":[],"categories_segments":[],"categories_sizes":[],"default_left":[0,0,0,0,0,0,0,0,0,0,0,0,0,0,0],"id":24,"left_children":[1,3,5,7,9,11,13,-1,-1,-1,-1,-1,-1,-1,-1],"loss_changes":[1.5992014E2,7.00213E1,3.3959244E1,3.3291016E1,9.811401E0,1.00441475E1,9.2762375E0,0E0,0E0,0E0,0E0,0E0,0E0,0E0,0E0],"parents":[2147483647,0,0,1,1,2,2,3,3,4,4,5,5,6,6],"right_children":[2,4,6,8,10,12,14,-1,-1,-1,-1,-1,-1,-1,-1],"split_conditions":[2E1,1.7E1,5.14E-1,6.39E-1,4.03E1,2.6E1,2.8E1,-4.0410494E-4,-3.4001044E-3,-5.3146654E-3,-3.0663898E-3,9.4694475E-4,-1.9967693E-3,2.7033174E-3,5.480172E-3],"split_indices":[28,80,55,3,57,80,51,0,0,0,0,0,0,0,0],"split_type":[0,0,0,0,0,0,0,0,0,0,0,0,0,0,0],"sum_hessian":[3.8387393E3,2.6928164E3,1.1459229E3,1.6855063E3,1.00731E3,5.921986E2,5.537242E2,1.1336753E3,5.518311E2,7.400532E2,2.672568E2,4.3426874E2,1.579299E2,3.741228E2,1.796014E2],"tree_param":{"num_deleted":"0","num_feature":"106","num_nodes":"15","size_leaf_vector":"1"}},{"base_weights":[1.3253985E-1,2.525238E-1,-1.9269821E-1,3.5431197E-1,1.3151075E-2,2.4642492E-2,-3.2168305E-1,2.9042833E-3,5.758784E-3,1.0227992E-3,-1.6294975E-3,-9.956807E-4,1.8182818E-3,-4.7997585E-3,-2.24576E-3],"categories":[],"categories_nodes":[],"categories_segments":[],"categories_sizes":[],"default_left":[0,0,0,0,0,0,0,0,0,0,0,0,0,0,0],"id":25,"left_children":[1,3,5,7,9,11,13,-1,-1,-1,-1,-1,-1,-1,-1],"loss_changes":[1.5172574E2,6.916841E1,2.9397549E1,2.810083E1,1.33029175E1,7.623605E0,1.002861E1,0E0,0E0,0E0,0E0,0E0,0E0,0E0,0E0],"parents":[2147483647,0,0,1,1,2,2,3,3,4,4,5,5,6,6],"right_children":[2,4,6,8,10,12,14,-1,-1,-1,-1,-1,-1,-1,-1],"split_conditions":[2.2E1,3.3E0,4.55E-1,2.6E1,1.5E1,3.33E-1,-7E0,2.9042833E-3,5.758784E-3,1.0227992E-3,-1.6294975E-3,-9.956807E-4,1.8182818E-3,-4.7997585E-3,-2.24576E-3],"split_indices":[29,77,55,103,51,3,25,0,0,0,0,0,0,0,0],"split_type":[0,0,0,0,0,0,0,0,0,0,0,0,0,0,0],"sum_hessian":[3.887698E3,2.8402341E3,1.0474641E3,1.9925E3,8.477341E2,3.8985696E2,6.576071E2,1.5471088E3,4.4539114E2,5.6326294E2,2.844711E2,2.1743608E2,1.7242088E2,2.4949113E2,4.0811597E2],"tree_param":{"num_deleted":"0","num_feature":"106","num_nodes":"15","size_leaf_vector":"1"}},{"base_weights":[-1.2707473E-1,1.5894209E-1,-2.6228788E-1,-9.016738E-2,2.773163E-1,-3.9415723E-1,-7.112942E-2,-2.1068444E-3,5.465258E-4,-8.859207E-4,3.2073238E-3,-3.0907753E-3,-5.3884685E-3,-1.4975049E-3,1.3992888E-3],"categories":[],"categories_nodes":[],"categories_segments":[],"categories_sizes":[],"default_left":[0,0,0,0,0,0,0,0,0,0,0,0,0,0,0],"id":26,"left_children":[1,3,5,7,9,11,13,-1,-1,-1,-1,-1,-1,-1,-1],"loss_changes":[1.4944852E2,3.6591187E1,6.6095276E1,6.985579E0,1.338604E1,1.9009415E1,1.7784939E1,0E0,0E0,0E0,0E0,0E0,0E0,0E0,0E0],"parents":[2147483647,0,0,1,1,2,2,3,3,4,4,5,5,6,6],"right_children":[2,4,6,8,10,12,14,-1,-1,-1,-1,-1,-1,-1,-1],"split_conditions":[-1.8E0,-2E0,1.7E0,2.6E1,5E0,3.8E0,1.5E1,-2.1068444E-3,5.465258E-4,-8.859207E-4,3.2073238E-3,-3.0907753E-3,-5.3884685E-3,-1.4975049E-3,1.3992888E-3],"split_indices":[25,77,77,51,53,25,51,0,0,0,0,0,0,0,0],"split_type":[0,0,0,0,0,0,0,0,0,0,0,0,0,0,0],"sum_hessian":[3.863917E3,1.2400588E3,2.623858E3,3.9918457E2,8.4087427E2,1.5523503E3,1.0715077E3,2.1822551E2,1.8095906E2,8.8934235E1,7.5194006E2,9.781739E2,5.741765E2,7.8105914E2,2.9044855E2],"tree_param":{"num_deleted":"0","num_feature":"106","num_nodes":"15","size_leaf_vector":"1"}},{"base_weights":[1.2553525E-1,-7.29769E-2,3.0638775E-1,8.753539E-2,-2.3670492E-1,1.2300021E-1,4.6599033E-1,-1.0850637E-3,2.0527744E-3,-9.2177186E-4,-3.8231425E-3,3.068513E-3,3.7591404E-4,3.8664578E-3,6.0326573E-3],"categories":[],"categories_nodes":[],"categories_segments":[],"categories_sizes":[],"default_left":[0,0,0,0,0,0,0,0,0,0,0,0,0,0,0],"id":27,"left_children":[1,3,5,7,9,11,13,-1,-1,-1,-1,-1,-1,-1,-1],"loss_changes":[1.3942935E2,4.865984E1,5.9414352E1,2.158014E1,1.9238853E1,1.4819547E1,1.1708664E1,0E0,0E0,0E0,0E0,0E0,0E0,0E0,0E0],"parents":[2147483647,0,0,1,1,2,2,3,3,4,4,5,5,6,6],"right_children":[2,4,6,8,10,12,14,-1,-1,-1,-1,-1,-1,-1,-1],"split_conditions":[2E-1,5.09E-1,1.2E1,-4.8E0,2.2E1,5E0,2.3E1,-1.0850637E-3,2.0527744E-3,-9.2177186E-4,-3.8231425E-3,3.068513E-3,3.7591404E-4,3.8664578E-3,6.0326573E-3],"split_indices":[25,55,80,25,28,29,80,0,0,0,0,0,0,0,0],"split_type":[0,0,0,0,0,0,0,0,0,0,0,0,0,0,0],"sum_hessian":[3.8828604E3,1.8508202E3,2.03204E3,9.3430316E2,9.165171E2,9.4593713E2,1.0861029E3,3.5026572E2,5.840375E2,4.603935E2,4.5612357E2,2.9959613E2,6.46341E2,6.889838E2,3.9711908E2],"tree_param":{"num_deleted":"0","num_feature":"106","num_nodes":"15","size_leaf_vector":"1"}},{"base_weights":[-1.3520284E-1,-2.6205397E-1,1.630594E-1,-9.928934E-2,-4.260507E-1,-4.86488E-3,3.3487222E-1,-2.111989E-4,-2.8335813E-3,-5.103206E-3,-3.0503264E-3,1.0073065E-3,-1.6374977E-3,2.587585E-3,4.715286E-3],"categories":[],"categories_nodes":[],"categories_segments":[],"categories_sizes":[],"default_left":[0,0,0,0,0,0,0,0,0,0,0,0,0,0,0],"id":28,"left_children":[1,3,5,7,9,11,13,-1,-1,-1,-1,-1,-1,-1,-1],"loss_changes":[1.4643983E2,7.24297E1,3.3346478E1,1.9585503E1,1.3694214E1,9.801588E0,5.854103E0,0E0,0E0,0E0,0E0,0E0,0E0,0E0,0E0],"parents":[2147483647,0,0,1,1,2,2,3,3,4,4,5,5,6,6],"right_children":[2,4,6,8,10,12,14,-1,-1,-1,-1,-1,-1,-1,-1],"split_conditions":[2E1,1.3E1,5.09E-1,6.54E-1,-1.7E0,2.4E1,5.3E1,-2.111989E-4,-2.8335813E-3,-5.103206E-3,-3.0503264E-3,1.0073065E-3,-1.6374977E-3,2.587585E-3,4.715286E-3],"split_indices":[28,80,55,3,77,81,52,0,0,0,0,0,0,0,0],"split_type":[0,0,0,0,0,0,0,0,0,0,0,0,0,0,0],"sum_hessian":[3.8700215E3,2.7154753E3,1.154546E3,1.3632439E3,1.3522316E3,5.8363513E2,5.709109E2,9.5734E2,4.0590384E2,7.9646893E2,5.557626E2,3.5025888E2,2.3337625E2,3.673363E2,2.0357462E2],"tree_param":{"num_deleted":"0","num_feature":"106","num_nodes":"15","size_leaf_vector":"1"}},{"base_weights":[1.1977025E-1,-1.2131717E-1,2.7412042E-1,1.2708396E-1,-2.3458675E-1,4.2186058E-1,8.568528E-2,-3.7248485E-4,2.6075393E-3,-8.9275464E-4,-3.4389636E-3,3.319683E-3,5.476382E-3,-1.5711574E-3,1.3635571E-3],"categories":[],"categories_nodes":[],"categories_segments":[],"categories_sizes":[],"default_left":[0,0,0,0,0,0,0,0,0,0,0,0,0,0,0],"id":29,"left_children":[1,3,5,7,9,11,13,-1,-1,-1,-1,-1,-1,-1,-1],"loss_changes":[1.4382745E2,4.245098E1,6.554709E1,1.0394851E1,1.6412819E1,1.4824158E1,1.2745899E1,0E0,0E0,0E0,0E0,0E0,0E0,0E0,0E0],"parents":[2147483647,0,0,1,1,2,2,3,3,4,4,5,5,6,6],"right_children":[2,4,6,8,10,12,14,-1,-1,-1,-1,-1,-1,-1,-1],"split_conditions":[4.67E-1,-2E0,1.3E0,-4.5E0,2.4E1,2.2E1,1E-1,-3.7248485E-4,2.6075393E-3,-8.9275464E-4,-3.4389636E-3,3.319683E-3,5.476382E-3,-1.5711574E-3,1.3635571E-3],"split_indices":[3,77,77,25,51,80,25,0,0,0,0,0,0,0,0],"split_type":[0,0,0,0,0,0,0,0,0,0,0,0,0,0,0],"sum_hessian":[3.8644954E3,1.5081743E3,2.356321E3,4.7205618E2,1.0361182E3,1.3204133E3,1.0359078E3,2.1143913E2,2.6061703E2,4.4527975E2,5.908384E2,7.707347E2,5.4967865E2,1.7848161E2,8.5742615E2],"tree_param":{"num_deleted":"0","num_feature":"106","num_nodes":"15","size_leaf_vector":"1"}},{"base_weights":[-1.2939498E-1,1.4481978E-1,-2.6576048E-1,2.4497013E-1,-1.1932114E-1,-1.1983857E-2,-3.5666677E-1,1.0223258E-3,3.864904E-3,-2.017304E-3,1.29046E-3,8.516889E-4,-2.4972274E-3,-2.8754063E-3,-5.3835213E-3],"categories":[],"categories_nodes":[],"categories_segments":[],"categories_sizes":[],"default_left":[0,0,0,0,0,0,0,0,0,0,0,0,0,0,0],"id":30,"left_children":[1,3,5,7,9,11,13,-1,-1,-1,-1,-1,-1,-1,-1],"loss_changes":[1.4517928E2,3.411875E1,5.978273E1,1.883554E1,7.2597E0,1.5823067E1,2.3875244E1,0E0,0E0,0E0,0E0,0E0,0E0,0E0,0E0],"parents":[2147483647,0,0,1,1,2,2,3,3,4,4,5,5,6,6],"right_children":[2,4,6,8,10,12,14,-1,-1,-1,-1,-1,-1,-1,-1],"split_conditions":[-1.6E0,2.2E1,8E0,2.1E1,1.18E1,6.54E-1,2.3E1,1.0223258E-3,3.864904E-3,-2.017304E-3,1.29046E-3,8.516889E-4,-2.4972274E-3,-2.8754063E-3,-5.3835213E-3],"split_indices":[25,103,103,53,8,3,80,0,0,0,0,0,0,0,0],"split_type":[0,0,0,0,0,0,0,0,0,0,0,0,0,0,0],"sum_hessian":[3.8819539E3,1.2890629E3,2.592891E3,9.349556E2,3.5410727E2,6.8416614E2,1.9087249E3,4.6591348E2,4.6904214E2,2.662018E2,8.790548E1,4.854351E2,1.9873103E2,1.3832472E3,5.2547766E2],"tree_param":{"num_deleted":"0","num_feature":"106","num_nodes":"15","size_leaf_vector":"1"}},{"base_weights":[1.2127808E-1,2.4966098E-1,-1.6962153E-1,9.693375E-2,4.1790545E-1,7.287244E-2,-2.6671508E-1,1.08650886E-4,2.7371086E-3,3.2175337E-3,5.2141235E-3,-9.890348E-4,2.4787213E-3,-4.2396644E-3,-1.9093917E-3],"categories":[],"categories_nodes":[],"categories_segments":[],"categories_sizes":[],"default_left":[0,0,0,0,0,0,0,0,0,0,0,0,0,0,0],"id":31,"left_children":[1,3,5,7,9,11,13,-1,-1,-1,-1,-1,-1,-1,-1],"loss_changes":[1.4492096E2,6.912483E1,2.798991E1,2.1449877E1,1.2645279E1,1.0220662E1,1.0041916E1,0E0,0E0,0E0,0E0,0E0,0E0,0E0,0E0],"parents":[2147483647,0,0,1,1,2,2,3,3,4,4,5,5,6,6],"right_children":[2,4,6,8,10,12,14,-1,-1,-1,-1,-1,-1,-1,-1],"split_conditions":[2E1,1.4E1,-2.4E0,6.39E-1,2.2E1,-4.9E0,7E0,1.08650886E-4,2.7371086E-3,3.2175337E-3,5.2141235E-3,-9.890348E-4,2.4787213E-3,-4.2396644E-3,-1.9093917E-3],"split_indices":[28,80,77,3,80,25,79,0,0,0,0,0,0,0,0],"split_type":[0,0,0,0,0,0,0,0,0,0,0,0,0,0,0],"sum_hessian":[3.880011E3,2.692213E3,1.1877981E3,1.4115776E3,1.2806354E3,3.393233E2,8.484748E2,9.498094E2,4.6176825E2,6.64619E2,6.1601636E2,1.7097247E2,1.6835085E2,2.753288E2,5.73146E2],"tree_param":{"num_deleted":"0","num_feature":"106","num_nodes":"15","size_leaf_vector":"1"}},{"base_weights":[-1.275414E-1,1.1453595E-1,-2.8217033E-1,-1.3093525E-1,2.3094295E-1,-4.1636938E-1,-9.175868E-2,4.8149802E-4,-2.660417E-3,8.165629E-4,3.4744558E-3,-4.843036E-3,-2.8698544E-3,-1.4172698E-3,2.261918E-3],"categories":[],"categories_nodes":[],"categories_segments":[],"categories_sizes":[],"default_left":[0,0,0,0,0,0,0,0,0,0,0,0,0,0,0],"id":32,"left_children":[1,3,5,7,9,11,13,-1,-1,-1,-1,-1,-1,-1,-1],"loss_changes":[1.4608092E2,4.3467926E1,6.0796448E1,1.18540945E1,1.7900982E1,1.2183945E1,1.5642745E1,0E0,0E0,0E0,0E0,0E0,0E0,0E0,0E0],"parents":[2147483647,0,0,1,1,2,2,3,3,4,4,5,5,6,6],"right_children":[2,4,6,8,10,12,14,-1,-1,-1,-1,-1,-1,-1,-1],"split_conditions":[4.69E-1,-2E0,1.6E0,-4.8E0,2.4E1,4.59E-1,8.8E0,4.8149802E-4,-2.660417E-3,8.165629E-4,3.4744558E-3,-4.843036E-3,-2.8698544E-3,-1.4172698E-3,2.261918E-3],"split_indices":[3,77,77,25,51,59,77,0,0,0,0,0,0,0,0],"split_type":[0,0,0,0,0,0,0,0,0,0,0,0,0,0,0],"sum_hessian":[3.901916E3,1.5206543E3,2.3812617E3,4.888754E2,1.0317789E3,1.396434E3,9.8482776E2,2.0993219E2,2.789432E2,4.5270743E2,5.7907153E2,9.149719E2,4.8146204E2,8.5139465E2,1.334331E2],"tree_param":{"num_deleted":"0","num_feature":"106","num_nodes":"15","size_leaf_vector":"1"}},{"base_weights":[1.2037449E-1,-1.0466831E-1,2.6535684E-1,3.5220914E-2,-3.0829665E-1,4.1805106E-1,4.669294E-2,-1.4259944E-3,1.7306412E-3,-2.5255429E-3,-5.795811E-3,3.566406E-3,6.0028643E-3,2.4087832E-3,-2.4412166E-4],"categories":[],"categories_nodes":[],"categories_segments":[],"categories_sizes":[],"default_left":[0,0,0,0,0,0,0,0,0,0,0,0,0,0,0],"id":33,"left_children":[1,3,5,7,9,11,13,-1,-1,-1,-1,-1,-1,-1,-1],"loss_changes":[1.2663176E2,4.333433E1,7.876248E1,2.2089836E1,9.268749E0,1.5433868E1,1.3428394E1,0E0,0E0,0E0,0E0,0E0,0E0,0E0,0E0],"parents":[2147483647,0,0,1,1,2,2,3,3,4,4,5,5,6,6],"right_children":[2,4,6,8,10,12,14,-1,-1,-1,-1,-1,-1,-1,-1],"split_conditions":[4.69E-1,5.49E-1,1.6E0,-4.8E0,2.9E1,2.6E1,5E0,-1.4259944E-3,1.7306412E-3,-2.5255429E-3,-5.795811E-3,3.566406E-3,6.0028643E-3,2.4087832E-3,-2.4412166E-4],"split_indices":[3,55,77,25,51,103,29,0,0,0,0,0,0,0,0],"split_type":[0,0,0,0,0,0,0,0,0,0,0,0,0,0,0],"sum_hessian":[3.88049E3,1.5201847E3,2.3603052E3,9.0088416E2,6.1930054E2,1.3894772E3,9.708282E2,3.9307764E2,5.0780652E2,5.142055E2,1.05095055E2,1.0398936E3,3.4958353E2,2.6052145E2,7.103067E2],"tree_param":{"num_deleted":"0","num_feature":"106","num_nodes":"15","size_leaf_vector":"1"}},{"base_weights":[-1.2548304E-1,-2.4128532E-1,1.9220643E-1,-3.4542266E-1,-6.827145E-3,-7.316499E-2,2.9864183E-1,-2.6125836E-3,-4.8583196E-3,7.610191E-4,-2.1565827E-3,7.864903E-4,-2.9073723E-3,4.239283E-3,2.0763227E-3],"categories":[],"categories_nodes":[],"categories_segments":[],"categories_sizes":[],"default_left":[0,0,0,0,0,0,0,0,0,0,0,0,0,0,0],"id":34,"left_children":[1,3,5,7,9,11,13,-1,-1,-1,-1,-1,-1,-1,-1],"loss_changes":[1.4080486E2,6.845096E1,2.8896301E1,2.2862152E1,1.4962799E1,9.682542E0,8.250084E0,0E0,0E0,0E0,0E0,0E0,0E0,0E0,0E0],"parents":[2147483647,0,0,1,1,2,2,3,3,4,4,5,5,6,6],"right_children":[2,4,6,8,10,12,14,-1,-1,-1,-1,-1,-1,-1,-1],"split_conditions":[2.2E1,3.2E0,4.14E-1,2.1E1,6.54E-1,-4.8E0,-6.6E0,-2.6125836E-3,-4.8583196E-3,7.610191E-4,-2.1565827E-3,7.864903E-4,-2.9073723E-3,4.239283E-3,2.0763227E-3],"split_indices":[29,77,55,80,3,25,25,0,0,0,0,0,0,0,0],"split_type":[0,0,0,0,0,0,0,0,0,0,0,0,0,0,0],"sum_hessian":[3.8269858E3,2.8048994E3,1.02208655E3,1.9419056E3,8.629938E2,2.923279E2,7.297586E2,1.2147546E3,7.27151E2,6.174017E2,2.4559209E2,1.7195099E2,1.2037693E2,3.064398E2,4.2331882E2],"tree_param":{"num_deleted":"0","num_feature":"106","num_nodes":"15","size_leaf_vector":"1"}},{"base_weights":[1.1902467E-1,-1.0561289E-1,2.6213416E-1,1.1957745E-1,-2.0936011E-1,1.6013438E-1,5.107159E-1,-9.572475E-4,2.441125E-3,-7.189512E-4,-3.2117963E-3,6.086981E-4,3.1901975E-3,5.5067274E-3,3.0256032E-3],"categories":[],"categories_nodes":[],"categories_segments":[],"categories_sizes":[],"default_left":[0,0,0,0,0,0,0,0,0,0,0,0,0,0,0],"id":35,"left_children":[1,3,5,7,9,11,13,-1,-1,-1,-1,-1,-1,-1,-1],"loss_changes":[1.2358141E2,3.4951637E1,5.9462814E1,1.2658144E1,1.5701431E1,2.6226254E1,5.577484E0,0E0,0E0,0E0,0E0,0E0,0E0,0E0,0E0],"parents":[2147483647,0,0,1,1,2,2,3,3,4,4,5,5,6,6],"right_children":[2,4,6,8,10,12,14,-1,-1,-1,-1,-1,-1,-1,-1],"split_conditions":[4.69E-1,-2E0,2E1,3.2E-1,2.1E1,6.39E-1,-1.8E0,-9.572475E-4,2.441125E-3,-7.189512E-4,-3.2117963E-3,6.086981E-4,3.1901975E-3,5.5067274E-3,3.0256032E-3],"split_indices":[3,77,80,3,53,3,77,0,0,0,0,0,0,0,0],"split_type":[0,0,0,0,0,0,0,0,0,0,0,0,0,0,0],"sum_hessian":[3.8434944E3,1.4954418E3,2.3480527E3,4.7135492E2,1.0240868E3,1.6653013E3,6.8275134E2,1.7244458E2,2.9891037E2,4.5984113E2,5.6424567E2,1.0254274E3,6.398739E2,5.722577E2,1.1049365E2],"tree_param":{"num_deleted":"0","num_feature":"106","num_nodes":"15","size_leaf_vector":"1"}},{"base_weights":[-1.2196553E-1,-2.3719709E-1,1.8791331E-1,-3.5635325E-1,-5.821536E-2,-3.1312678E-2,3.1365994E-1,-2.4198827E-3,-4.5357477E-3,-1.5259284E-3,1.0193072E-3,9.3953754E-4,-2.1622614E-3,1.6735699E-3,4.299353E-3],"categories":[],"categories_nodes":[],"categories_segments":[],"categories_sizes":[],"default_left":[0,0,0,0,0,0,0,0,0,0,0,0,0,0,0],"id":36,"left_children":[1,3,5,7,9,11,13,-1,-1,-1,-1,-1,-1,-1,-1],"loss_changes":[1.3755432E2,5.9844482E1,2.8807487E1,1.8659485E1,1.6976341E1,8.82402E0,1.12237625E1,0E0,0E0,0E0,0E0,0E0,0E0,0E0,0E0],"parents":[2147483647,0,0,1,1,2,2,3,3,4,4,5,5,6,6],"right_children":[2,4,6,8,10,12,14,-1,-1,-1,-1,-1,-1,-1,-1],"split_conditions":[2.2E1,1.7E0,4.48E-1,1.6E0,1.4E1,-4.8E0,2.6E1,-2.4198827E-3,-4.5357477E-3,-1.5259284E-3,1.0193072E-3,9.3953754E-4,-2.1622614E-3,1.6735699E-3,4.299353E-3],"split_indices":[29,77,55,25,51,25,2,0,0,0,0,0,0,0,0],"split_type":[0,0,0,0,0,0,0,0,0,0,0,0,0,0,0],"sum_hessian":[3.8518555E3,2.8080134E3,1.0438418E3,1.6853456E3,1.122668E3,3.8023026E2,6.636116E2,7.750295E2,9.103161E2,7.067779E2,4.1589008E2,2.2638084E2,1.5384941E2,2.943505E2,3.692611E2],"tree_param":{"num_deleted":"0","num_feature":"106","num_nodes":"15","size_leaf_vector":"1"}},{"base_weights":[1.2115099E-1,-1.4493953E-1,2.5586414E-1,1.1852854E-2,-3.1386727E-1,9.597561E-2,4.1523317E-1,-7.27889E-4,2.0696085E-3,-3.2574898E-3,9.747646E-3,5.7928457E-5,2.9759402E-3,3.5111164E-3,5.6350855E-3],"categories":[],"categories_nodes":[],"categories_segments":[],"categories_sizes":[],"default_left":[0,0,0,0,0,0,0,0,0,0,0,0,0,0,0],"id":37,"left_children":[1,3,5,7,9,11,13,-1,-1,-1,-1,-1,-1,-1,-1],"loss_changes":[1.3698526E2,3.4042316E1,6.459294E1,1.1009582E1,9.435963E0,2.3005249E1,1.1965942E1,0E0,0E0,0E0,0E0,0E0,0E0,0E0,0E0],"parents":[2147483647,0,0,1,1,2,2,3,3,4,4,5,5,6,6],"right_children":[2,4,6,8,10,12,14,-1,-1,-1,-1,-1,-1,-1,-1],"split_conditions":[4.4E-1,5.14E-1,1.3E1,2.6E1,1.03E1,6.54E-1,2.6E1,-7.27889E-4,2.0696085E-3,-3.2574898E-3,9.747646E-3,5.7928457E-5,2.9759402E-3,3.5111164E-3,5.6350855E-3],"split_indices":[3,55,80,103,19,3,103,0,0,0,0,0,0,0,0],"split_type":[0,0,0,0,0,0,0,0,0,0,0,0,0,0,0],"sum_hessian":[3.8209917E3,1.2840122E3,2.5369795E3,6.6566656E2,6.183457E2,1.2668188E3,1.2701608E3,4.6394714E2,2.0171939E2,6.128473E2,5.498381E0,8.7571533E2,3.9110352E2,8.8741174E2,3.8274896E2],"tree_param":{"num_deleted":"0","num_feature":"106","num_nodes":"15","size_leaf_vector":"1"}},{"base_weights":[-1.23411275E-1,-2.2253242E-1,2.2996655E-1,-3.1105146E-1,2.061482E-2,2.4145285E-2,3.558405E-1,-3.971919E-3,-1.6929457E-3,-8.4296823E-4,2.1492012E-3,5.1692536E-4,-8.206219E-3,-2.337618E-3,3.8241376E-3],"categories":[],"categories_nodes":[],"categories_segments":[],"categories_sizes":[],"default_left":[0,0,0,0,0,0,0,0,0,0,0,0,0,0,0],"id":38,"left_children":[1,3,5,7,9,11,13,-1,-1,-1,-1,-1,-1,-1,-1],"loss_changes":[1.3546771E2,6.5040115E1,2.1904495E1,2.6979736E1,1.644379E1,7.416642E0,8.253365E0,0E0,0E0,0E0,0E0,0E0,0E0,0E0,0E0],"parents":[2147483647,0,0,1,1,2,2,3,3,4,4,5,5,6,6],"right_children":[2,4,6,8,10,12,14,-1,-1,-1,-1,-1,-1,-1,-1],"split_conditions":[2.4E1,3.7E0,4.59E-1,1.5E1,1.5E1,4.4E-1,1.46E1,-3.971919E-3,-1.6929457E-3,-8.4296823E-4,2.1492012E-3,5.1692536E-4,-8.206219E-3,-2.337618E-3,3.8241376E-3],"split_indices":[51,77,55,51,51,3,63,0,0,0,0,0,0,0,0],"split_type":[0,0,0,0,0,0,0,0,0,0,0,0,0,0,0],"sum_hessian":[3.8672744E3,3.0203872E3,8.4688715E2,2.2145513E3,8.058359E2,3.217292E2,5.2515796E2,1.3769464E3,8.376049E2,5.229957E2,2.8284012E2,3.117747E2,9.954493E0,2.245211E1,5.0270584E2],"tree_param":{"num_deleted":"0","num_feature":"106","num_nodes":"15","size_leaf_vector":"1"}},{"base_weights":[1.2571773E-1,-1.0547766E-1,2.701266E-1,1.2361961E-1,-1.973503E-1,3.9949065E-1,8.704696E-2,-6.13468E-4,2.6985006E-3,-4.0589905E-4,-3.1611403E-3,3.3052324E-3,5.358092E-3,1.2785234E-3,-2.4828333E-3],"categories":[],"categories_nodes":[],"categories_segments":[],"categories_sizes":[],"default_left":[0,0,0,0,0,0,0,0,0,0,0,0,0,0,0],"id":39,"left_children":[1,3,5,7,9,11,13,-1,-1,-1,-1,-1,-1,-1,-1],"loss_changes":[1.2946686E2,3.1381186E1,5.6477554E1,1.1555058E1,1.9775856E1,1.3041306E1,1.35197E1,0E0,0E0,0E0,0E0,0E0,0E0,0E0,0E0],"parents":[2147483647,0,0,1,1,2,2,3,3,4,4,5,5,6,6],"right_children":[2,4,6,8,10,12,14,-1,-1,-1,-1,-1,-1,-1,-1],"split_conditions":[4.69E-1,-2.4E0,1.6E0,-4.5E0,2.4E1,2.3E1,9.1E0,-6.13468E-4,2.6985006E-3,-4.0589905E-4,-3.1611403E-3,3.3052324E-3,5.358092E-3,1.2785234E-3,-2.4828333E-3],"split_indices":[3,77,77,25,51,80,77,0,0,0,0,0,0,0,0],"split_type":[0,0,0,0,0,0,0,0,0,0,0,0,0,0,0],"sum_hessian":[3.8771226E3,1.4903845E3,2.386738E3,4.2627792E2,1.0641066E3,1.3981447E3,9.885934E2,1.8793446E2,2.3834346E2,4.591003E2,6.050063E2,9.291416E2,4.69003E2,8.81666E2,1.0692733E2],"tree_param":{"num_deleted":"0","num_feature":"106","num_nodes":"15","size_leaf_vector":"1"}},{"base_weights":[-1.16664365E-1,-2.3010506E-1,1.9247371E-1,-7.135633E-2,-3.8286242E-1,-2.1566043E-3,3.1478855E-1,-1.5831426E-3,1.0891844E-3,-2.5066312E-3,-4.461544E-3,1.3661606E-3,-1.48283E-3,2.5029543E-3,5.4179756E-3],"categories":[],"categories_nodes":[],"categories_segments":[],"categories_sizes":[],"default_left":[0,0,0,0,0,0,0,0,0,0,0,0,0,0,0],"id":40,"left_children":[1,3,5,7,9,11,13,-1,-1,-1,-1,-1,-1,-1,-1],"loss_changes":[1.3491226E2,6.820213E1,2.4611107E1,2.1649363E1,1.1917145E1,8.078894E0,9.194489E0,0E0,0E0,0E0,0E0,0E0,0E0,0E0,0E0],"parents":[2147483647,0,0,1,1,2,2,3,3,4,4,5,5,6,6],"right_children":[2,4,6,8,10,12,14,-1,-1,-1,-1,-1,-1,-1,-1],"split_conditions":[2.2E1,1.4E1,4.62E-1,1.5E1,3E-1,3.2E-1,3.7E1,-1.5831426E-3,1.0891844E-3,-2.5066312E-3,-4.461544E-3,1.3661606E-3,-1.48283E-3,2.5029543E-3,5.4179756E-3],"split_indices":[29,81,55,51,25,3,53,0,0,0,0,0,0,0,0],"split_type":[0,0,0,0,0,0,0,0,0,0,0,0,0,0,0],"sum_hessian":[3.8467358E3,2.81434E3,1.0323958E3,1.380498E3,1.4338422E3,3.981425E2,6.342532E2,9.316643E2,4.4883377E2,4.648911E2,9.6895105E2,2.0386195E2,1.9428055E2,4.944352E2,1.39818E2],"tree_param":{"num_deleted":"0","num_feature":"106","num_nodes":"15","size_leaf_vector":"1"}},{"base_weights":[1.121121E-1,2.3150149E-1,-1.639284E-1,7.508297E-2,3.8895953E-1,-2.4831209E-1,1.4571978E-1,2.830238E-3,1.4307321E-4,3.3044973E-3,5.2895956E-3,-3.8424772E-3,-1.4709028E-3,6.196021E-4,3.8771858E-3],"categories":[],"categories_nodes":[],"categories_segments":[],"categories_sizes":[],"default_left":[0,0,0,0,0,0,0,0,0,0,0,0,0,0,0],"id":41,"left_children":[1,3,5,7,9,11,13,-1,-1,-1,-1,-1,-1,-1,-1],"loss_changes":[1.2772218E2,6.658461E1,3.0580187E1,1.7127575E1,1.093782E1,1.2594341E1,5.0267406E0,0E0,0E0,0E0,0E0,0E0,0E0,0E0,0E0],"parents":[2147483647,0,0,1,1,2,2,3,3,4,4,5,5,6,6],"right_children":[2,4,6,8,10,12,14,-1,-1,-1,-1,-1,-1,-1,-1],"split_conditions":[2E1,1.3E1,2.4E1,5E0,2.6E1,-6.1E0,2.5E1,2.830238E-3,1.4307321E-4,3.3044973E-3,5.2895956E-3,-3.8424772E-3,-1.4709028E-3,6.196021E-4,3.8771858E-3],"split_indices":[28,80,81,29,103,25,48,0,0,0,0,0,0,0,0],"split_type":[0,0,0,0,0,0,0,0,0,0,0,0,0,0,0],"sum_hessian":[3.87508E3,2.7053684E3,1.1697117E3,1.3575568E3,1.3478115E3,9.1948206E2,2.5022961E2,3.0658398E2,1.0509728E3,9.512913E2,3.9652017E2,3.9190564E2,5.275764E2,1.862904E2,6.3939205E1],"tree_param":{"num_deleted":"0","num_feature":"106","num_nodes":"15","size_leaf_vector":"1"}},{"base_weights":[-1.1980962E-1,-2.3627946E-1,1.5207838E-1,-8.4971845E-2,-4.054229E-1,2.2378105E-1,-2.1447115E-1,-2.5033301E-3,6.0841416E-5,-3.2307666E-3,-5.213994E-3,4.4681747E-3,1.7821308E-3,-1.6166754E-4,-3.8570235E-3],"categories":[],"categories_nodes":[],"categories_segments":[],"categories_sizes":[],"default_left":[0,0,0,0,0,0,0,0,0,0,0,0,0,0,0],"id":42,"left_children":[1,3,5,7,9,11,13,-1,-1,-1,-1,-1,-1,-1,-1],"loss_changes":[1.23002594E2,6.954439E1,3.0614407E1,2.164389E1,1.2158203E1,9.832012E0,6.4231577E0,0E0,0E0,0E0,0E0,0E0,0E0,0E0,0E0],"parents":[2147483647,0,0,1,1,2,2,3,3,4,4,5,5,6,6],"right_children":[2,4,6,8,10,12,14,-1,-1,-1,-1,-1,-1,-1,-1],"split_conditions":[2E1,1.4E1,2.6E1,7E0,2.3E1,5E0,-4.5E0,-2.5033301E-3,6.0841416E-5,-3.2307666E-3,-5.213994E-3,4.4681747E-3,1.7821308E-3,-1.6166754E-4,-3.8570235E-3],"split_indices":[28,80,103,27,80,103,25,0,0,0,0,0,0,0,0],"split_type":[0,0,0,0,0,0,0,0,0,0,0,0,0,0,0],"sum_hessian":[3.883803E3,2.719304E3,1.1644991E3,1.4357196E3,1.2835844E3,9.7423553E2,1.9026358E2,5.101645E2,9.2555505E2,7.513487E2,5.3223566E2,1.6475458E2,8.0948096E2,8.84835E1,1.01780075E2],"tree_param":{"num_deleted":"0","num_feature":"106","num_nodes":"15","size_leaf_vector":"1"}},{"base_weights":[1.1602768E-1,2.3014833E-1,-1.914144E-1,3.2998946E-1,2.1962352E-2,6.137465E-2,-2.9070428E-1,4.269752E-3,2.24325E-3,9.682637E-4,-1.3411024E-3,4.520677E-3,1.3376646E-4,-2.3709424E-3,-4.9085743E-3],"categories":[],"categories_nodes":[],"categories_segments":[],"categories_sizes":[],"default_left":[0,0,0,0,0,0,0,0,0,0,0,0,0,0,0],"id":43,"left_children":[1,3,5,7,9,11,13,-1,-1,-1,-1,-1,-1,-1,-1],"loss_changes":[1.3563043E2,5.8565582E1,2.6284592E1,1.9449432E1,1.068008E1,5.481978E0,7.9791985E0,0E0,0E0,0E0,0E0,0E0,0E0,0E0,0E0],"parents":[2147483647,0,0,1,1,2,2,3,3,4,4,5,5,6,6],"right_children":[2,4,6,8,10,12,14,-1,-1,-1,-1,-1,-1,-1,-1],"split_conditions":[2.2E1,2.9E0,4.14E-1,1.2E1,1.5E1,2.1E1,3.6E1,4.269752E-3,2.24325E-3,9.682637E-4,-1.3411024E-3,4.520677E-3,1.3376646E-4,-2.3709424E-3,-4.9085743E-3],"split_indices":[29,77,55,51,51,51,53,0,0,0,0,0,0,0,0],"split_type":[0,0,0,0,0,0,0,0,0,0,0,0,0,0,0],"sum_hessian":[3.8653772E3,2.8192422E3,1.0461353E3,1.9050741E3,9.14168E2,2.9474765E2,7.513875E2,9.926784E2,9.123957E2,6.182757E2,2.958923E2,3.1928827E1,2.6281882E2,5.932157E2,1.5817184E2],"tree_param":{"num_deleted":"0","num_feature":"106","num_nodes":"15","size_leaf_vector":"1"}},{"base_weights":[-1.18890345E-1,-2.2970334E-1,1.7930081E-1,-7.1155824E-2,-3.6595204E-1,-9.242737E-2,2.8418654E-1,-1.1365482E-3,2.4124712E-3,-2.5612223E-3,-4.5742984E-3,9.702658E-3,-1.1169531E-3,5.050879E-3,2.2924265E-3],"categories":[],"categories_nodes":[],"categories_segments":[],"categories_sizes":[],"default_left":[0,0,0,0,0,0,0,0,0,0,0,0,0,0,0],"id":44,"left_children":[1,3,5,7,9,11,13,-1,-1,-1,-1,-1,-1,-1,-1],"loss_changes":[1.2747775E2,6.071414E1,2.980378E1,1.7255848E1,1.5111847E1,5.8799815E0,9.06929E0,0E0,0E0,0E0,0E0,0E0,0E0,0E0,0E0],"parents":[2147483647,0,0,1,1,2,2,3,3,4,4,5,5,6,6],"right_children":[2,4,6,8,10,12,14,-1,-1,-1,-1,-1,-1,-1,-1],"split_conditions":[2.2E1,1.2E1,4.14E-1,8.8E0,2.1E1,-1.23E1,5E0,-1.1365482E-3,2.4124712E-3,-2.5612223E-3,-4.5742984E-3,9.702658E-3,-1.1169531E-3,5.050879E-3,2.2924265E-3],"split_indices":[29,80,55,77,103,77,103,0,0,0,0,0,0,0,0],"split_type":[0,0,0,0,0,0,0,0,0,0,0,0,0,0,0],"sum_hessian":[3.8575046E3,2.8126382E3,1.0448666E3,1.3003525E3,1.5122855E3,2.9072968E2,7.5413696E2,1.144975E3,1.5537761E2,6.8787915E2,8.244064E2,4.9970937E0,2.8573257E2,1.4968608E2,6.0445087E2],"tree_param":{"num_deleted":"0","num_feature":"106","num_nodes":"15","size_leaf_vector":"1"}},{"base_weights":[1.1898446E-1,2.423015E-1,-1.6931103E-1,8.590642E-2,4.0031213E-1,1.2461194E-1,-2.6254466E-1,1.3226079E-3,-2.208444E-3,2.580271E-3,4.584238E-3,-3.713072E-4,3.0210363E-3,-4.087876E-3,-1.6944185E-3],"categories":[],"categories_nodes":[],"categories_segments":[],"categories_sizes":[],"default_left":[0,0,0,0,0,0,0,0,0,0,0,0,0,0,0],"id":45,"left_children":[1,3,5,7,9,11,13,-1,-1,-1,-1,-1,-1,-1,-1],"loss_changes":[1.3552899E2,6.59321E1,3.1307049E1,1.9081459E1,1.0895767E1,7.915982E0,1.1741978E1,0E0,0E0,0E0,0E0,0E0,0E0,0E0,0E0],"parents":[2147483647,0,0,1,1,2,2,3,3,4,4,5,5,6,6],"right_children":[2,4,6,8,10,12,14,-1,-1,-1,-1,-1,-1,-1,-1],"split_conditions":[2E1,1.3E1,3.9E-1,8.4E0,3E-1,-4.8E0,-6.4E0,1.3226079E-3,-2.208444E-3,2.580271E-3,4.584238E-3,-3.713072E-4,3.0210363E-3,-4.087876E-3,-1.6944185E-3],"split_indices":[28,80,55,77,25,25,25,0,0,0,0,0,0,0,0],"split_type":[0,0,0,0,0,0,0,0,0,0,0,0,0,0,0],"sum_hessian":[3.811741E3,2.6700168E3,1.1417241E3,1.3422639E3,1.3277528E3,2.7467944E2,8.6704474E2,1.166389E3,1.7587491E2,3.8568286E2,9.4206995E2,1.4346234E2,1.312171E2,3.3672095E2,5.303237E2],"tree_param":{"num_deleted":"0","num_feature":"106","num_nodes":"15","size_leaf_vector":"1"}},{"base_weights":[-1.15663536E-1,-2.2142647E-1,1.6872051E-1,-2.9060045E-1,6.0146652E-2,2.131322E-2,3.209935E-1,-2.194038E-3,-4.71526E-3,-1.443818E-4,2.804366E-3,1.30817E-3,-1.2632455E-3,3.3118017E-3,-8.001521E-3],"categories":[],"categories_nodes":[],"categories_segments":[],"categories_sizes":[],"default_left":[0,0,0,0,0,0,0,0,0,0,0,0,0,0,0],"id":46,"left_children":[1,3,5,7,9,11,13,-1,-1,-1,-1,-1,-1,-1,-1],"loss_changes":[1.16385925E2,5.4964386E1,2.350434E1,2.909253E1,9.163662E0,8.623966E0,5.866928E0,0E0,0E0,0E0,0E0,0E0,0E0,0E0,0E0],"parents":[2147483647,0,0,1,1,2,2,3,3,4,4,5,5,6,6],"right_children":[2,4,6,8,10,12,14,-1,-1,-1,-1,-1,-1,-1,-1],"split_conditions":[2.1E1,4.9E0,5.09E-1,2.2E1,9.1E0,-4.8E0,1E1,-2.194038E-3,-4.71526E-3,-1.443818E-4,2.804366E-3,1.30817E-3,-1.2632455E-3,3.3118017E-3,-8.001521E-3],"split_indices":[28,77,55,80,77,25,19,0,0,0,0,0,0,0,0],"split_type":[0,0,0,0,0,0,0,0,0,0,0,0,0,0,0],"sum_hessian":[3.8691624E3,2.8205635E3,1.0485988E3,2.2645774E3,5.559862E2,5.332037E2,5.153951E2,1.6256399E3,6.3893744E2,4.1508722E2,1.4089897E2,3.065342E2,2.2666948E2,5.1091263E2,4.482461E0],"tree_param":{"num_deleted":"0","num_feature":"106","num_nodes":"15","size_leaf_vector":"1"}},{"base_weights":[1.16558395E-1,-1.4901981E-1,2.3470017E-1,1.163157E-1,-2.7128962E-1,3.597095E-1,5.1485416E-2,-1.6458338E-4,2.982508E-3,-1.9527868E-3,-4.243048E-3,2.771619E-3,4.689361E-3,2.7440009E-3,-1.5327902E-4],"categories":[],"categories_nodes":[],"categories_segments":[],"categories_sizes":[],"default_left":[0,0,0,0,0,0,0,0,0,0,0,0,0,0,0],"id":47,"left_children":[1,3,5,7,9,11,13,-1,-1,-1,-1,-1,-1,-1,-1],"loss_changes":[1.20868004E2,3.848693E1,6.1023346E1,9.059526E0,9.37381E0,1.4199097E1,1.6138475E1,0E0,0E0,0E0,0E0,0E0,0E0,0E0,0E0],"parents":[2147483647,0,0,1,1,2,2,3,3,4,4,5,5,6,6],"right_children":[2,4,6,8,10,12,14,-1,-1,-1,-1,-1,-1,-1,-1],"split_conditions":[-2E0,-2E0,1.7E0,-4.5E0,2.8E1,2.1E1,5E0,-1.6458338E-4,2.982508E-3,-1.9527868E-3,-4.243048E-3,2.771619E-3,4.689361E-3,2.7440009E-3,-1.5327902E-4],"split_indices":[25,77,77,25,51,80,29,0,0,0,0,0,0,0,0],"split_type":[0,0,0,0,0,0,0,0,0,0,0,0,0,0,0],"sum_hessian":[3.851774E3,1.1856364E3,2.6661375E3,3.7375162E2,8.1188464E2,1.5844255E3,1.081712E3,2.1580272E2,1.5794891E2,5.430189E2,2.6886572E2,9.031458E2,6.812798E2,2.4972394E2,8.319881E2],"tree_param":{"num_deleted":"0","num_feature":"106","num_nodes":"15","size_leaf_vector":"1"}},{"base_weights":[-1.13888234E-1,-2.309378E-1,1.5303409E-1,-3.7585726E-1,-7.94145E-2,5.911734E-3,3.1095785E-1,-3.1176002E-3,-5.290593E-3,7.147482E-5,-2.6354634E-3,1.3192191E-3,-1.3395911E-3,2.319903E-3,4.8748977E-3],"categories":[],"categories_nodes":[],"categories_segments":[],"categories_sizes":[],"default_left":[0,0,0,0,0,0,0,0,0,0,0,0,0,0,0],"id":48,"left_children":[1,3,5,7,9,11,13,-1,-1,-1,-1,-1,-1,-1,-1],"loss_changes":[1.2022093E2,5.8690247E1,2.7214378E1,1.3322311E1,2.0876244E1,1.0709427E1,7.7964973E0,0E0,0E0,0E0,0E0,0E0,0E0,0E0,0E0],"parents":[2147483647,0,0,1,1,2,2,3,3,4,4,5,5,6,6],"right_children":[2,4,6,8,10,12,14,-1,-1,-1,-1,-1,-1,-1,-1],"split_conditions":[2E1,5.25E-1,5.14E-1,2.6E1,6.39E-1,-4.8E0,2.8E1,-3.1176002E-3,-5.290593E-3,7.147482E-5,-2.6354634E-3,1.3192191E-3,-1.3395911E-3,2.319903E-3,4.8748977E-3],"split_indices":[28,55,55,103,3,25,51,0,0,0,0,0,0,0,0],"split_type":[0,0,0,0,0,0,0,0,0,0,0,0,0,0,0],"sum_hessian":[3.847452E3,2.6748687E3,1.1725831E3,1.3668153E3,1.3080533E3,6.074331E2,5.6515E2,9.643171E2,4.0249823E2,8.8946234E2,4.1859097E2,3.1992874E2,2.8750436E2,3.9102972E2,1.7412032E2],"tree_param":{"num_deleted":"0","num_feature":"106","num_nodes":"15","size_leaf_vector":"1"}},{"base_weights":[1.21035226E-1,2.3498139E-1,-1.910745E-1,1.01259224E-1,3.8143992E-1,7.118242E-2,-2.75892E-1,1.7264017E-4,2.855349E-3,2.9273226E-3,4.9862736E-3,-8.1126275E-4,2.7262617E-3,-4.880969E-3,-2.2441957E-3],"categories":[],"categories_nodes":[],"categories_segments":[],"categories_sizes":[],"default_left":[0,0,0,0,0,0,0,0,0,0,0,0,0,0,0],"id":49,"left_children":[1,3,5,7,9,11,13,-1,-1,-1,-1,-1,-1,-1,-1],"loss_changes":[1.379883E2,5.5616272E1,2.3099342E1,2.2974842E1,1.40047455E1,7.7936516E0,8.483646E0,0E0,0E0,0E0,0E0,0E0,0E0,0E0,0E0],"parents":[2147483647,0,0,1,1,2,2,3,3,4,4,5,5,6,6],"right_children":[2,4,6,8,10,12,14,-1,-1,-1,-1,-1,-1,-1,-1],"split_conditions":[2.2E1,1.4E1,3.96E-1,6.39E-1,2.7E1,-4.7E0,5E0,1.7264017E-4,2.855349E-3,2.9273226E-3,4.9862736E-3,-8.1126275E-4,2.7262617E-3,-4.880969E-3,-2.2441957E-3],"split_indices":[29,80,55,3,1,25,103,0,0,0,0,0,0,0,0],"split_type":[0,0,0,0,0,0,0,0,0,0,0,0,0,0,0],"sum_hessian":[3.8796816E3,2.8423362E3,1.0373453E3,1.4862166E3,1.3561198E3,2.5322058E2,7.841248E2,1.0213323E3,4.6488422E2,7.7253516E2,5.835846E2,1.4394737E2,1.0927321E2,1.525241E2,6.316007E2],"tree_param":{"num_deleted":"0","num_feature":"106","num_nodes":"15","size_leaf_vector":"1"}},{"base_weights":[-1.1165541E-1,-2.0618117E-1,2.2580291E-1,-3.445012E-1,-6.04167E-2,3.132136E-1,-8.612323E-2,-2.6637847E-3,-5.002005E-3,2.7914258E-4,-2.7055573E-3,-1.6567395E-3,3.4987426E-3,1.4313802E-4,-4.068453E-3],"categories":[],"categories_nodes":[],"categories_segments":[],"categories_sizes":[],"default_left":[0,0,0,0,0,0,0,0,0,0,0,0,0,0,0],"id":50,"left_children":[1,3,5,7,9,11,13,-1,-1,-1,-1,-1,-1,-1,-1],"loss_changes":[1.2227579E2,6.033715E1,2.2890041E1,1.8596024E1,2.7099014E1,1.1528885E1,5.94713E0,0E0,0E0,0E0,0E0,0E0,0E0,0E0,0E0],"parents":[2147483647,0,0,1,1,2,2,3,3,4,4,5,5,6,6],"right_children":[2,4,6,8,10,12,14,-1,-1,-1,-1,-1,-1,-1,-1],"split_conditions":[2.4E1,5.25E-1,2.3E1,3.7E0,6.39E-1,7E0,-4.5E0,-2.6637847E-3,-5.002005E-3,2.7914258E-4,-2.7055573E-3,-1.6567395E-3,3.4987426E-3,1.4313802E-4,-4.068453E-3],"split_indices":[51,55,79,25,3,52,25,0,0,0,0,0,0,0,0],"split_type":[0,0,0,0,0,0,0,0,0,0,0,0,0,0,0],"sum_hessian":[3.833092E3,2.9946057E3,8.384865E2,1.5361176E3,1.458488E3,6.552006E2,1.8328587E2,1.0234905E3,5.126271E2,1.0265806E3,4.3190747E2,4.637236E1,6.0882825E2,1.394116E2,4.387427E1],"tree_param":{"num_deleted":"0","num_feature":"106","num_nodes":"15","size_leaf_vector":"1"}},{"base_weights":[1.1905125E-1,-1.02646165E-1,2.5734475E-1,1.4728257E-1,-2.037498E-1,3.8495997E-1,7.9624854E-2,-4.4839186E-4,2.9597944E-3,-3.4083568E-3,-1.1893255E-3,4.7475835E-3,2.480554E-3,1.1986751E-3,-2.4556506E-3],"categories":[],"categories_nodes":[],"categories_segments":[],"categories_sizes":[],"default_left":[0,0,0,0,0,0,0,0,0,0,0,0,0,0,0],"id":51,"left_children":[1,3,5,7,9,11,13,-1,-1,-1,-1,-1,-1,-1,-1],"loss_changes":[1.1866581E2,3.756901E1,5.400853E1,1.225048E1,1.225909E1,1.6967209E1,1.3033115E1,0E0,0E0,0E0,0E0,0E0,0E0,0E0,0E0],"parents":[2147483647,0,0,1,1,2,2,3,3,4,4,5,5,6,6],"right_children":[2,4,6,8,10,12,14,-1,-1,-1,-1,-1,-1,-1,-1],"split_conditions":[4.67E-1,-2.4E0,1.6E0,-4.8E0,9E0,1.081E2,9.1E0,-4.4839186E-4,2.9597944E-3,-3.4083568E-3,-1.1893255E-3,4.7475835E-3,2.480554E-3,1.1986751E-3,-2.4556506E-3],"split_indices":[3,77,77,25,103,76,77,0,0,0,0,0,0,0,0],"split_type":[0,0,0,0,0,0,0,0,0,0,0,0,0,0,0],"sum_hessian":[3.8697747E3,1.4863383E3,2.3834363E3,4.2779413E2,1.0585442E3,1.3868806E3,9.965557E2,1.8638077E2,2.4141336E2,4.0403754E2,6.545066E2,8.369388E2,5.4994183E2,8.8714154E2,1.0941422E2],"tree_param":{"num_deleted":"0","num_feature":"106","num_nodes":"15","size_leaf_vector":"1"}},{"base_weights":[-1.14009365E-1,-2.273205E-1,1.5054405E-1,2.7961997E-2,-3.1952187E-1,-1.5250075E-1,2.3624067E-1,1.287278E-3,-2.2676426E-3,-2.474099E-3,-4.7631604E-3,-2.9450635E-4,-3.4093878E-3,3.751072E-3,1.497368E-3],"categories":[],"categories_nodes":[],"categories_segments":[],"categories_sizes":[],"default_left":[0,0,0,0,0,0,0,0,0,0,0,0,0,0,0],"id":52,"left_children":[1,3,5,7,9,11,13,-1,-1,-1,-1,-1,-1,-1,-1],"loss_changes":[1.1400824E2,6.270488E1,2.9621883E1,1.8123377E1,2.2037842E1,5.7854066E0,1.06223755E1,0E0,0E0,0E0,0E0,0E0,0E0,0E0,0E0],"parents":[2147483647,0,0,1,1,2,2,3,3,4,4,5,5,6,6],"right_children":[2,4,6,8,10,12,14,-1,-1,-1,-1,-1,-1,-1,-1],"split_conditions":[2E1,8E0,-3.6E0,6.54E-1,2.2E1,1.74E1,-6.5E0,1.287278E-3,-2.2676426E-3,-2.474099E-3,-4.7631604E-3,-2.9450635E-4,-3.4093878E-3,3.751072E-3,1.497368E-3],"split_indices":[28,103,77,3,80,11,25,0,0,0,0,0,0,0,0],"split_type":[0,0,0,0,0,0,0,0,0,0,0,0,0,0,0],"sum_hessian":[3.8027388E3,2.662677E3,1.1400619E3,7.0624536E2,1.9564315E3,2.51048E2,8.890138E2,5.0637375E2,1.9987166E2,1.3407131E3,6.157184E2,1.5226512E2,9.878289E1,3.406581E2,5.483557E2],"tree_param":{"num_deleted":"0","num_feature":"106","num_nodes":"15","size_leaf_vector":"1"}},{"base_weights":[1.1217025E-1,2.2361244E-1,-1.4424893E-1,7.923519E-2,3.8341603E-1,1.4530946E-1,-2.3270072E-1,2.950168E-3,1.3274161E-4,2.613069E-3,4.6275696E-3,2.245268E-3,-1.0264105E-3,-1.2293456E-3,-3.3027297E-3],"categories":[],"categories_nodes":[],"categories_segments":[],"categories_sizes":[],"default_left":[0,0,0,0,0,0,0,0,0,0,0,0,0,0,0],"id":53,"left_children":[1,3,5,7,9,11,13,-1,-1,-1,-1,-1,-1,-1,-1],"loss_changes":[1.09605194E2,6.163701E1,2.9764112E1,1.9967434E1,1.2206726E1,5.3495293E0,9.484039E0,0E0,0E0,0E0,0E0,0E0,0E0,0E0,0E0],"parents":[2147483647,0,0,1,1,2,2,3,3,4,4,5,5,6,6],"right_children":[2,4,6,8,10,12,14,-1,-1,-1,-1,-1,-1,-1,-1],"split_conditions":[2E1,1.4E1,-3.6E0,5E0,2.1E1,1.58E1,2.6E1,2.950168E-3,1.3274161E-4,2.613069E-3,4.6275696E-3,2.245268E-3,-1.0264105E-3,-1.2293456E-3,-3.3027297E-3],"split_indices":[28,80,77,29,103,18,51,0,0,0,0,0,0,0,0],"split_type":[0,0,0,0,0,0,0,0,0,0,0,0,0,0,0],"sum_hessian":[3.835089E3,2.6735444E3,1.1615447E3,1.404973E3,1.2685713E3,2.7151392E2,8.9003076E2,3.284933E2,1.0764797E3,5.0029135E2,7.682799E2,2.060849E2,6.542902E1,4.1943195E2,4.7059882E2],"tree_param":{"num_deleted":"0","num_feature":"106","num_nodes":"15","size_leaf_vector":"1"}},{"base_weights":[-1.17159024E-1,-2.2324672E-1,1.6855022E-1,-4.3002188E-1,-1.2899292E-1,2.575086E-1,-1.0238418E-1,-3.2308602E-3,-5.5988287E-3,-4.3624046E-4,-2.912582E-3,1.6365956E-3,3.8860827E-3,3.445125E-4,-2.6436844E-3],"categories":[],"categories_nodes":[],"categories_segments":[],"categories_sizes":[],"default_left":[0,0,0,0,0,0,0,0,0,0,0,0,0,0,0],"id":54,"left_children":[1,3,5,7,9,11,13,-1,-1,-1,-1,-1,-1,-1,-1],"loss_changes":[1.17733215E2,5.5143997E1,2.5360603E1,1.220462E1,2.6924362E1,9.681313E0,5.7801304E0,0E0,0E0,0E0,0E0,0E0,0E0,0E0,0E0],"parents":[2147483647,0,0,1,1,2,2,3,3,4,4,5,5,6,6],"right_children":[2,4,6,8,10,12,14,-1,-1,-1,-1,-1,-1,-1,-1],"split_conditions":[2.1E1,-1.7E0,2.3E1,2.3E1,6.25E-1,2.7E1,-4.8E0,-3.2308602E-3,-5.5988287E-3,-4.3624046E-4,-2.912582E-3,1.6365956E-3,3.8860827E-3,3.445125E-4,-2.6436844E-3],"split_indices":[28,77,81,1,3,53,25,0,0,0,0,0,0,0,0],"split_type":[0,0,0,0,0,0,0,0,0,0,0,0,0,0,0],"sum_hessian":[3.8838677E3,2.8324956E3,1.051372E3,8.86426E2,1.9460696E3,7.9177527E2,2.5959677E2,4.8673566E2,3.996904E2,1.2756726E3,6.70397E2,4.620207E2,3.2975458E2,1.4043031E2,1.1916644E2],"tree_param":{"num_deleted":"0","num_feature":"106","num_nodes":"15","size_leaf_vector":"1"}},{"base_weights":[1.1672315E-1,-1.2838669E-1,2.4272595E-1,1.0570686E-1,-2.3689896E-1,3.679055E-1,6.709848E-2,-6.151574E-4,2.3187166E-3,-1.0709898E-3,-3.4614794E-3,4.4086347E-3,2.224166E-3,-7.670902E-5,2.3969356E-3],"categories":[],"categories_nodes":[],"categories_segments":[],"categories_sizes":[],"default_left":[0,0,0,0,0,0,0,0,0,0,0,0,0,0,0],"id":55,"left_children":[1,3,5,7,9,11,13,-1,-1,-1,-1,-1,-1,-1,-1],"loss_changes":[1.1944743E2,3.3362732E1,5.6112534E1,8.785934E0,1.267524E1,1.5750671E1,1.3747141E1,0E0,0E0,0E0,0E0,0E0,0E0,0E0,0E0],"parents":[2147483647,0,0,1,1,2,2,3,3,4,4,5,5,6,6],"right_children":[2,4,6,8,10,12,14,-1,-1,-1,-1,-1,-1,-1,-1],"split_conditions":[4.4E-1,-2E0,1.6E0,3.2E-1,2.1E1,4.59E-1,6.54E-1,-6.151574E-4,2.3187166E-3,-1.0709898E-3,-3.4614794E-3,4.4086347E-3,2.224166E-3,-7.670902E-5,2.3969356E-3],"split_indices":[3,77,77,3,53,59,3,0,0,0,0,0,0,0,0],"split_type":[0,0,0,0,0,0,0,0,0,0,0,0,0,0,0],"sum_hessian":[3.866978E3,1.3126737E3,2.5543042E3,4.1546716E2,8.972066E2,1.4909452E3,1.0633591E3,1.783437E2,2.3712347E2,4.105458E2,4.8666077E2,9.9239886E2,4.9854626E2,7.4160626E2,3.217528E2],"tree_param":{"num_deleted":"0","num_feature":"106","num_nodes":"15","size_leaf_vector":"1"}},{"base_weights":[-1.115025E-1,-2.2506417E-1,1.4774428E-1,-4.2764258E-1,-1.3192095E-1,-1.1924698E-1,2.4169208E-1,-3.1472556E-3,-5.685787E-3,-2.5867748E-3,-3.2667693E-4,-2.0157834E-4,-2.6419833E-3,3.7744074E-5,2.7989182E-3],"categories":[],"categories_nodes":[],"categories_segments":[],"categories_sizes":[],"default_left":[0,0,0,0,0,0,0,0,0,0,0,0,0,0,0],"id":56,"left_children":[1,3,5,7,9,11,13,-1,-1,-1,-1,-1,-1,-1,-1],"loss_changes":[1.128189E2,5.022084E1,2.928673E1,1.3245071E1,2.294272E1,4.3308E0,7.81971E0,0E0,0E0,0E0,0E0,0E0,0E0,0E0,0E0],"parents":[2147483647,0,0,1,1,2,2,3,3,4,4,5,5,6,6],"right_children":[2,4,6,8,10,12,14,-1,-1,-1,-1,-1,-1,-1,-1],"split_conditions":[2E1,-1.7E0,3.96E-1,2.3E1,9E0,1.73E1,2.2E1,-3.1472556E-3,-5.685787E-3,-2.5867748E-3,-3.2667693E-4,-2.0157834E-4,-2.6419833E-3,3.7744074E-5,2.7989182E-3],"split_indices":[28,77,55,1,29,11,29,0,0,0,0,0,0,0,0],"split_type":[0,0,0,0,0,0,0,0,0,0,0,0,0,0,0],"sum_hessian":[3.8316233E3,2.6647449E3,1.1668784E3,8.388615E2,1.8258834E3,3.034394E2,8.634391E2,4.6629904E2,3.725625E2,8.013323E2,1.0245511E3,1.807096E2,1.2272979E2,1.198307E2,7.436084E2],"tree_param":{"num_deleted":"0","num_feature":"106","num_nodes":"15","size_leaf_vector":"1"}},{"base_weights":[1.09469555E-1,-1.4444077E-1,2.3087585E-1,6.822081E-2,-2.4346617E-1,3.5244453E-1,5.2615017E-2,2.1087758E-3,-9.7022374E-4,-1.8988721E-3,-4.8433645E-3,2.850837E-3,4.830062E-3,1.3887405E-3,-1.0853525E-3],"categories":[],"categories_nodes":[],"categories_segments":[],"categories_sizes":[],"default_left":[0,0,0,0,0,0,0,0,0,0,0,0,0,0,0],"id":57,"left_children":[1,3,5,7,9,11,13,-1,-1,-1,-1,-1,-1,-1,-1],"loss_changes":[1.1871002E2,2.6245033E1,5.6416626E1,9.334621E0,1.0893642E1,1.3528931E1,1.4694609E1,0E0,0E0,0E0,0E0,0E0,0E0,0E0,0E0],"parents":[2147483647,0,0,1,1,2,2,3,3,4,4,5,5,6,6],"right_children":[2,4,6,8,10,12,14,-1,-1,-1,-1,-1,-1,-1,-1],"split_conditions":[-1.8E0,-2E0,1.7E0,2.6E1,3.7E1,2.3E1,6E0,2.1087758E-3,-9.7022374E-4,-1.8988721E-3,-4.8433645E-3,2.850837E-3,4.830062E-3,1.3887405E-3,-1.0853525E-3],"split_indices":[25,77,77,51,53,80,77,0,0,0,0,0,0,0,0],"split_type":[0,0,0,0,0,0,0,0,0,0,0,0,0,0,0],"sum_hessian":[3.8504434E3,1.2452573E3,2.605186E3,3.9531705E2,8.4994025E2,1.5484974E3,1.0566886E3,2.1246799E2,1.8284906E2,6.957682E2,1.5417204E2,1.0221982E3,5.2629926E2,6.8868823E2,3.6800037E2],"tree_param":{"num_deleted":"0","num_feature":"106","num_nodes":"15","size_leaf_vector":"1"}},{"base_weights":[-1.0831126E-1,1.065898E-1,-2.4813989E-1,-1.7457336E-1,1.8637054E-1,-3.6093852E-1,-8.316549E-2,2.346759E-4,-3.2468473E-3,6.9624E-4,2.7456577E-3,-4.3645464E-3,-2.487369E-3,-1.3932441E-3,1.9629514E-3],"categories":[],"categories_nodes":[],"categories_segments":[],"categories_sizes":[],"default_left":[0,0,0,0,0,0,0,0,0,0,0,0,0,0,0],"id":58,"left_children":[1,3,5,7,9,11,13,-1,-1,-1,-1,-1,-1,-1,-1],"loss_changes":[1.1505409E2,3.3849705E1,4.3116806E1,9.938629E0,1.2068813E1,1.1589951E1,1.4787525E1,0E0,0E0,0E0,0E0,0E0,0E0,0E0,0E0],"parents":[2147483647,0,0,1,1,2,2,3,3,4,4,5,5,6,6],"right_children":[2,4,6,8,10,12,14,-1,-1,-1,-1,-1,-1,-1,-1],"split_conditions":[4.69E-1,3.71E-1,1.6E0,-4.8E0,2.4E1,1.079E2,8E0,2.346759E-4,-3.2468473E-3,6.9624E-4,2.7456577E-3,-4.3645464E-3,-2.487369E-3,-1.3932441E-3,1.9629514E-3],"split_indices":[3,55,77,25,51,76,77,0,0,0,0,0,0,0,0],"split_type":[0,0,0,0,0,0,0,0,0,0,0,0,0,0,0],"sum_hessian":[3.8281826E3,1.5087344E3,2.3194482E3,3.331777E2,1.1755566E3,1.3771315E3,9.4231683E2,1.4340396E2,1.8977373E2,5.064575E2,6.690992E2,8.224259E2,5.5470557E2,7.849795E2,1.5733733E2],"tree_param":{"num_deleted":"0","num_feature":"106","num_nodes":"15","size_leaf_vector":"1"}},{"base_weights":[1.0618382E-1,2.2807595E-1,-1.1946741E-1,3.2055938E-1,1.953148E-2,1.0279299E-1,-2.1845841E-1,2.690378E-3,5.0974516E-3,6.570736E-4,-2.3437275E-3,-9.5046265E-4,2.5218308E-3,-8.0072327E-4,-3.278776E-3],"categories":[],"categories_nodes":[],"categories_segments":[],"categories_sizes":[],"default_left":[0,0,0,0,0,0,0,0,0,0,0,0,0,0,0],"id":59,"left_children":[1,3,5,7,9,11,13,-1,-1,-1,-1,-1,-1,-1,-1],"loss_changes":[1.0547927E2,4.7987946E1,2.9597382E1,1.6718369E1,8.958425E0,1.2256454E1,1.4048042E1,0E0,0E0,0E0,0E0,0E0,0E0,0E0,0E0],"parents":[2147483647,0,0,1,1,2,2,3,3,4,4,5,5,6,6],"right_children":[2,4,6,8,10,12,14,-1,-1,-1,-1,-1,-1,-1,-1],"split_conditions":[2E1,3.2E0,-2E0,2.6E1,9.1E0,3.2E-1,2.1E1,2.690378E-3,5.0974516E-3,6.570736E-4,-2.3437275E-3,-9.5046265E-4,2.5218308E-3,-8.0072327E-4,-3.278776E-3],"split_indices":[51,77,77,103,77,3,53,0,0,0,0,0,0,0,0],"split_type":[0,0,0,0,0,0,0,0,0,0,0,0,0,0,0],"sum_hessian":[3.8343037E3,2.489805E3,1.3444989E3,1.7245039E3,7.6530084E2,4.1398392E2,9.30515E2,1.3559929E3,3.6851108E2,6.479335E2,1.17367386E2,1.7783788E2,2.3614604E2,4.1135184E2,5.191632E2],"tree_param":{"num_deleted":"0","num_feature":"106","num_nodes":"15","size_leaf_vector":"1"}},{"base_weights":[-1.10352725E-1,1.4997686E-1,-2.3893495E-1,3.297477E-1,3.7277862E-3,-8.911346E-3,-3.209443E-1,1.7829692E-3,4.426159E-3,1.2695345E-3,-1.219956E-3,-2.5994866E-3,6.57252E-4,-4.726217E-3,-2.6374727E-3],"categories":[],"categories_nodes":[],"categories_segments":[],"categories_sizes":[],"default_left":[0,0,0,0,0,0,0,0,0,0,0,0,0,0,0],"id":60,"left_children":[1,3,5,7,9,11,13,-1,-1,-1,-1,-1,-1,-1,-1],"loss_changes":[1.2827122E2,3.3267555E1,4.8355087E1,9.637402E0,1.082862E1,1.2660647E1,1.6315918E1,0E0,0E0,0E0,0E0,0E0,0E0,0E0,0E0],"parents":[2147483647,0,0,1,1,2,2,3,3,4,4,5,5,6,6],"right_children":[2,4,6,8,10,12,14,-1,-1,-1,-1,-1,-1,-1,-1],"split_conditions":[-1.6E0,1.4E1,8E0,2.1E1,-5.1E0,5E0,3.71E-1,1.7829692E-3,4.426159E-3,1.2695345E-3,-1.219956E-3,-2.5994866E-3,6.57252E-4,-4.726217E-3,-2.6374727E-3],"split_indices":[25,103,103,2,25,29,55,0,0,0,0,0,0,0,0],"split_type":[0,0,0,0,0,0,0,0,0,0,0,0,0,0,0],"sum_hessian":[3.8315208E3,1.2665167E3,2.5650042E3,5.6778296E2,6.987337E2,6.7449115E2,1.890513E3,2.4294043E2,3.2484256E2,3.532733E2,3.4546045E2,1.5482716E2,5.19664E2,5.1701013E2,1.3735028E3],"tree_param":{"num_deleted":"0","num_feature":"106","num_nodes":"15","size_leaf_vector":"1"}},{"base_weights":[1.0361824E-1,2.1491186E-1,-1.5036882E-1,3.5731396E-1,6.61904E-2,-2.1439096E-1,1.9439164E-1,2.657111E-3,4.700033E-3,-2.460811E-4,2.5994368E-3,-3.5442458E-3,-1.1501391E-3,-2.2844205E-4,3.7544249E-3],"categories":[],"categories_nodes":[],"categories_segments":[],"categories_sizes":[],"default_left":[0,0,0,0,0,0,0,0,0,0,0,0,0,0,0],"id":61,"left_children":[1,3,5,7,9,11,13,-1,-1,-1,-1,-1,-1,-1,-1],"loss_changes":[1.0860102E2,5.6532227E1,2.583619E1,1.3997772E1,2.3021175E1,1.368779E1,7.2370944E0,0E0,0E0,0E0,0E0,0E0,0E0,0E0,0E0],"parents":[2147483647,0,0,1,1,2,2,3,3,4,4,5,5,6,6],"right_children":[2,4,6,8,10,12,14,-1,-1,-1,-1,-1,-1,-1,-1],"split_conditions":[2E1,5.25E-1,2.6E1,2.2E1,6.39E-1,-6.2E0,-4.5E0,2.657111E-3,4.700033E-3,-2.460811E-4,2.5994368E-3,-3.5442458E-3,-1.1501391E-3,-2.2844205E-4,3.7544249E-3],"split_indices":[28,55,103,80,3,25,25,0,0,0,0,0,0,0,0],"split_type":[0,0,0,0,0,0,0,0,0,0,0,0,0,0,0],"sum_hessian":[3.8415105E3,2.6713645E3,1.1701459E3,1.3642606E3,1.307104E3,9.8715814E2,1.8298775E2,7.5321265E2,6.110479E2,8.897242E2,4.1737982E2,4.092355E2,5.7792267E2,8.297016E1,1.00017586E2],"tree_param":{"num_deleted":"0","num_feature":"106","num_nodes":"15","size_leaf_vector":"1"}},{"base_weights":[-1.10226795E-1,-1.9942482E-1,2.0376362E-1,3.2361485E-2,-2.7991545E-1,2.948017E-1,-4.554262E-2,-6.3777156E-4,2.2139237E-3,-4.3590423E-3,-2.2037616E-3,3.0848864E-3,-6.7196E-3,-3.8744863E-3,9.47796E-5],"categories":[],"categories_nodes":[],"categories_segments":[],"categories_sizes":[],"default_left":[0,0,0,0,0,0,0,0,0,0,0,0,0,0,0],"id":62,"left_children":[1,3,5,7,9,11,13,-1,-1,-1,-1,-1,-1,-1,-1],"loss_changes":[1.0693823E2,5.550505E1,1.9192993E1,1.3942459E1,2.0427338E1,8.173695E0,4.2836714E0,0E0,0E0,0E0,0E0,0E0,0E0,0E0,0E0],"parents":[2147483647,0,0,1,1,2,2,3,3,4,4,5,5,6,6],"right_children":[2,4,6,8,10,12,14,-1,-1,-1,-1,-1,-1,-1,-1],"split_conditions":[2.4E1,8E0,2.2E1,1.5E1,7E0,6.9E0,3E0,-6.3777156E-4,2.2139237E-3,-4.3590423E-3,-2.2037616E-3,3.0848864E-3,-6.7196E-3,-3.8744863E-3,9.47796E-5],"split_indices":[51,103,103,51,51,73,78,0,0,0,0,0,0,0,0],"split_type":[0,0,0,0,0,0,0,0,0,0,0,0,0,0,0],"sum_hessian":[3.817994E3,2.9736096E3,8.4438446E2,7.66155E2,2.2074546E3,6.1880206E2,2.2558238E2,5.0755594E2,2.5859906E2,6.0916724E2,1.5982872E3,6.1033276E2,8.469261E0,3.143763E1,1.9414476E2],"tree_param":{"num_deleted":"0","num_feature":"106","num_nodes":"15","size_leaf_vector":"1"}},{"base_weights":[1.04774155E-1,-1.10827446E-1,2.4102293E-1,3.145779E-2,-2.5439486E-1,3.6941823E-1,6.2490646E-2,1.3054593E-3,-1.2342099E-3,-9.5715566E-4,-3.561446E-3,2.7174815E-3,4.6807495E-3,1.0879738E-3,-2.6749722E-3],"categories":[],"categories_nodes":[],"categories_segments":[],"categories_sizes":[],"default_left":[0,0,0,0,0,0,0,0,0,0,0,0,0,0,0],"id":63,"left_children":[1,3,5,7,9,11,13,-1,-1,-1,-1,-1,-1,-1,-1],"loss_changes":[1.1375064E2,3.0645348E1,5.4345505E1,1.1552755E1,1.2004608E1,1.320929E1,1.5161444E1,0E0,0E0,0E0,0E0,0E0,0E0,0E0,0E0],"parents":[2147483647,0,0,1,1,2,2,3,3,4,4,5,5,6,6],"right_children":[2,4,6,8,10,12,14,-1,-1,-1,-1,-1,-1,-1,-1],"split_conditions":[4.69E-1,5.07E-1,1.6E0,2.6E1,2.2E1,2E1,8.8E0,1.3054593E-3,-1.2342099E-3,-9.5715566E-4,-3.561446E-3,2.7174815E-3,4.6807495E-3,1.0879738E-3,-2.6749722E-3],"split_indices":[3,55,77,51,28,80,77,0,0,0,0,0,0,0,0],"split_type":[0,0,0,0,0,0,0,0,0,0,0,0,0,0,0],"sum_hessian":[3.871668E3,1.4989684E3,2.3726997E3,7.5253534E2,7.46433E2,1.3797534E3,9.9294617E2,4.5932828E2,2.932071E2,2.920915E2,4.5434146E2,6.940415E2,6.8571185E2,8.71079E2,1.2186723E2],"tree_param":{"num_deleted":"0","num_feature":"106","num_nodes":"15","size_leaf_vector":"1"}},{"base_weights":[-1.0746778E-1,1.324573E-1,-2.2665164E-1,2.2676042E-1,-1.0613146E-1,-7.589677E-2,-3.4327814E-1,1.024093E-3,3.4745373E-3,1.0900961E-3,-1.9800037E-3,-2.0977486E-6,-2.4598874E-3,-2.878757E-3,-4.941057E-3],"categories":[],"categories_nodes":[],"categories_segments":[],"categories_sizes":[],"default_left":[0,0,0,0,0,0,0,0,0,0,0,0,0,0,0],"id":64,"left_children":[1,3,5,7,9,11,13,-1,-1,-1,-1,-1,-1,-1,-1],"loss_changes":[1.1007988E2,2.8752697E1,4.5176163E1,1.3695709E1,7.1579905E0,1.4424257E1,1.2021866E1,0E0,0E0,0E0,0E0,0E0,0E0,0E0,0E0],"parents":[2147483647,0,0,1,1,2,2,3,3,4,4,5,5,6,6],"right_children":[2,4,6,8,10,12,14,-1,-1,-1,-1,-1,-1,-1,-1],"split_conditions":[-1.6E0,2.2E1,1.3E1,2.1E1,-7.3E0,6.54E-1,2.6E1,1.024093E-3,3.4745373E-3,1.0900961E-3,-1.9800037E-3,-2.0977486E-6,-2.4598874E-3,-2.878757E-3,-4.941057E-3],"split_indices":[25,103,103,53,25,3,103,0,0,0,0,0,0,0,0],"split_type":[0,0,0,0,0,0,0,0,0,0,0,0,0,0,0],"sum_hessian":[3.849059E3,1.2771733E3,2.5718857E3,9.156739E2,3.614995E2,1.1222521E3,1.4496337E3,4.5150195E2,4.6417194E2,1.07842926E2,2.5365659E2,7.7713367E2,3.4511844E2,1.0608961E3,3.8873755E2],"tree_param":{"num_deleted":"0","num_feature":"106","num_nodes":"15","size_leaf_vector":"1"}},{"base_weights":[1.0307102E-1,2.0898469E-1,-1.42865E-1,1.06099494E-1,3.8293412E-1,-2.0673572E-1,2.1410988E-1,3.062385E-3,4.4694348E-4,3.1855877E-3,5.0658965E-3,-3.3804467E-3,-1.2475719E-3,1.1787335E-3,5.9195017E-3],"categories":[],"categories_nodes":[],"categories_segments":[],"categories_sizes":[],"default_left":[0,0,0,0,0,0,0,0,0,0,0,0,0,0,0],"id":65,"left_children":[1,3,5,7,9,11,13,-1,-1,-1,-1,-1,-1,-1,-1],"loss_changes":[1.0024832E2,4.8092445E1,2.6410225E1,2.0743574E1,7.856903E0,1.052763E1,6.306633E0,0E0,0E0,0E0,0E0,0E0,0E0,0E0,0E0],"parents":[2147483647,0,0,1,1,2,2,3,3,4,4,5,5,6,6],"right_children":[2,4,6,8,10,12,14,-1,-1,-1,-1,-1,-1,-1,-1],"split_conditions":[2E1,1.7E1,2.6E1,5E0,3.9E0,-6.5E0,2.2E1,3.062385E-3,4.4694348E-4,3.1855877E-3,5.0658965E-3,-3.3804467E-3,-1.2475719E-3,1.1787335E-3,5.9195017E-3],"split_indices":[28,80,103,29,25,25,1,0,0,0,0,0,0,0,0],"split_type":[0,0,0,0,0,0,0,0,0,0,0,0,0,0,0],"sum_hessian":[3.8481338E3,2.6900647E3,1.1580691E3,1.6907684E3,9.9929626E2,9.825851E2,1.7548405E2,3.964814E2,1.294287E3,6.579384E2,3.4135785E2,3.770745E2,6.055106E2,1.4017668E2,3.5307365E1],"tree_param":{"num_deleted":"0","num_feature":"106","num_nodes":"15","size_leaf_vector":"1"}},{"base_weights":[-9.700398E-2,1.4429758E-1,-2.0971785E-1,-6.3155785E-2,2.4165665E-1,-4.9179435E-2,-3.364056E-1,6.789672E-4,-2.2655567E-3,-1.0818178E-3,2.8291952E-3,2.9181526E-4,-2.1106335E-3,-2.8055042E-3,-4.937605E-3],"categories":[],"categories_nodes":[],"categories_segments":[],"categories_sizes":[],"default_left":[0,0,0,0,0,0,0,0,0,0,0,0,0,0,0],"id":66,"left_children":[1,3,5,7,9,11,13,-1,-1,-1,-1,-1,-1,-1,-1],"loss_changes":[1.04690186E2,2.4765186E1,5.3321983E1,8.392107E0,1.2062603E1,1.4704983E1,1.279451E1,0E0,0E0,0E0,0E0,0E0,0E0,0E0,0E0],"parents":[2147483647,0,0,1,1,2,2,3,3,4,4,5,5,6,6],"right_children":[2,4,6,8,10,12,14,-1,-1,-1,-1,-1,-1,-1,-1],"split_conditions":[-1.8E0,-2E0,1.3E1,-4.5E0,5E0,6.39E-1,2.6E1,6.789672E-4,-2.2655567E-3,-1.0818178E-3,2.8291952E-3,2.9181526E-4,-2.1106335E-3,-2.8055042E-3,-4.937605E-3],"split_indices":[25,77,103,25,53,3,103,0,0,0,0,0,0,0,0],"split_type":[0,0,0,0,0,0,0,0,0,0,0,0,0,0,0],"sum_hessian":[3.8487297E3,1.2250936E3,2.6236362E3,3.9098602E2,8.3410767E2,1.1576249E3,1.4660114E3,2.1666193E2,1.743241E2,8.772916E1,7.463785E2,7.7967993E2,3.7794492E2,1.0826311E3,3.8338025E2],"tree_param":{"num_deleted":"0","num_feature":"106","num_nodes":"15","size_leaf_vector":"1"}},{"base_weights":[1.0319573E-1,2.0778733E-1,-1.854341E-1,1.14091225E-1,4.1767618E-1,-3.703466E-2,-3.3589453E-1,3.478534E-4,2.8582662E-3,3.4903598E-3,5.6260303E-3,-1.6428437E-3,1.4453927E-3,-6.0545937E-3,-3.0399421E-3],"categories":[],"categories_nodes":[],"categories_segments":[],"categories_sizes":[],"default_left":[0,0,0,0,0,0,0,0,0,0,0,0,0,0,0],"id":67,"left_children":[1,3,5,7,9,11,13,-1,-1,-1,-1,-1,-1,-1,-1],"loss_changes":[1.1660831E2,5.5702988E1,2.289642E1,2.6672203E1,8.590912E0,1.19630375E1,4.273636E0,0E0,0E0,0E0,0E0,0E0,0E0,0E0,0E0],"parents":[2147483647,0,0,1,1,2,2,3,3,4,4,5,5,6,6],"right_children":[2,4,6,8,10,12,14,-1,-1,-1,-1,-1,-1,-1,-1],"split_conditions":[2.2E1,2.1E1,5.09E-1,6.39E-1,3.9E0,-4.7E0,1.83E1,3.478534E-4,2.8582662E-3,3.4903598E-3,5.6260303E-3,-1.6428437E-3,1.4453927E-3,-6.0545937E-3,-3.0399421E-3],"split_indices":[29,103,55,3,25,25,23,0,0,0,0,0,0,0,0],"split_type":[0,0,0,0,0,0,0,0,0,0,0,0,0,0,0],"sum_hessian":[3.8624028E3,2.8353306E3,1.0270723E3,1.9606923E3,8.746383E2,5.1747485E2,5.0959735E2,1.341775E3,6.1891724E2,5.9423004E2,2.8040823E2,3.0458057E2,2.1289432E2,5.3402397E1,4.5619495E2],"tree_param":{"num_deleted":"0","num_feature":"106","num_nodes":"15","size_leaf_vector":"1"}},{"base_weights":[-9.5794685E-2,-1.9517046E-1,1.6832487E-1,-8.887196E-2,-3.7858027E-1,1.5731016E-2,3.3293304E-1,-8.101582E-5,-2.6596244E-3,-5.2968133E-3,-3.2787563E-3,6.5608125E-4,-2.782674E-3,-4.1934956E-4,3.7154113E-3],"categories":[],"categories_nodes":[],"categories_segments":[],"categories_sizes":[],"default_left":[0,0,0,0,0,0,0,0,0,0,0,0,0,0,0],"id":68,"left_children":[1,3,5,7,9,11,13,-1,-1,-1,-1,-1,-1,-1,-1],"loss_changes":[1.0028433E2,5.4078606E1,2.6194962E1,2.5120447E1,7.698761E0,7.9332514E0,7.3005486E0,0E0,0E0,0E0,0E0,0E0,0E0,0E0,0E0],"parents":[2147483647,0,0,1,1,2,2,3,3,4,4,5,5,6,6],"right_children":[2,4,6,8,10,12,14,-1,-1,-1,-1,-1,-1,-1,-1],"split_conditions":[2.1E1,1.7E1,5.14E-1,6.39E-1,2E0,2.8E1,8E0,-8.101582E-5,-2.6596244E-3,-5.2968133E-3,-3.2787563E-3,6.5608125E-4,-2.782674E-3,-4.1934956E-4,3.7154113E-3],"split_indices":[28,80,55,3,105,80,53,0,0,0,0,0,0,0,0],"split_type":[0,0,0,0,0,0,0,0,0,0,0,0,0,0,0],"sum_hessian":[3.820452E3,2.776275E3,1.044177E3,1.7580554E3,1.0182194E3,5.422352E2,5.0194183E2,1.2078351E3,5.502203E2,2.5509956E2,7.631198E2,4.6394443E2,7.8290794E1,4.6625896E1,4.5531595E2],"tree_param":{"num_deleted":"0","num_feature":"106","num_nodes":"15","size_leaf_vector":"1"}},{"base_weights":[9.7502865E-2,2.0800799E-1,-1.5545616E-1,9.3800865E-2,4.0170756E-1,2.4362467E-2,-2.631867E-1,2.5632344E-3,8.508027E-6,5.7682586E-3,3.5507532E-3,1.3961128E-3,-9.927998E-4,-1.1867728E-3,-3.3249722E-3],"categories":[],"categories_nodes":[],"categories_segments":[],"categories_sizes":[],"default_left":[0,0,0,0,0,0,0,0,0,0,0,0,0,0,0],"id":69,"left_children":[1,3,5,7,9,11,13,-1,-1,-1,-1,-1,-1,-1,-1],"loss_changes":[1.0644515E2,5.857685E1,2.2446362E1,2.5167892E1,7.911133E0,6.180914E0,7.204136E0,0E0,0E0,0E0,0E0,0E0,0E0,0E0,0E0],"parents":[2147483647,0,0,1,1,2,2,3,3,4,4,5,5,6,6],"right_children":[2,4,6,8,10,12,14,-1,-1,-1,-1,-1,-1,-1,-1],"split_conditions":[2E1,1.7E1,4.5E-1,8E0,6E0,2.6E1,2.4E1,2.5632344E-3,8.508027E-6,5.7682586E-3,3.5507532E-3,1.3961128E-3,-9.927998E-4,-1.1867728E-3,-3.3249722E-3],"split_indices":[28,80,55,51,31,51,51,0,0,0,0,0,0,0,0],"split_type":[0,0,0,0,0,0,0,0,0,0,0,0,0,0,0],"sum_hessian":[3.8075642E3,2.6502263E3,1.157338E3,1.6676365E3,9.8258984E2,4.3327884E2,7.240591E2,6.062903E2,1.0613462E3,2.0594006E2,7.766498E2,2.2466313E2,2.0861572E2,2.352621E2,4.88797E2],"tree_param":{"num_deleted":"0","num_feature":"106","num_nodes":"15","size_leaf_vector":"1"}},{"base_weights":[-1.0073475E-1,-2.0551999E-1,1.4098032E-1,-3.229316E-1,-4.2489793E-2,-7.7808457E-3,2.937187E-1,-2.434331E-3,-4.7505787E-3,-8.8731677E-4,2.5274234E-3,1.1467091E-3,-1.3662688E-3,2.0295412E-3,4.8433593E-3],"categories":[],"categories_nodes":[],"categories_segments":[],"categories_sizes":[],"default_left":[0,0,0,0,0,0,0,0,0,0,0,0,0,0,0],"id":70,"left_children":[1,3,5,7,9,11,13,-1,-1,-1,-1,-1,-1,-1,-1],"loss_changes":[9.613351E1,5.0645027E1,2.610093E1,1.8527435E1,1.5126161E1,9.171474E0,9.7225685E0,0E0,0E0,0E0,0E0,0E0,0E0,0E0,0E0],"parents":[2147483647,0,0,1,1,2,2,3,3,4,4,5,5,6,6],"right_children":[2,4,6,8,10,12,14,-1,-1,-1,-1,-1,-1,-1,-1],"split_conditions":[2E1,1.6E0,5.14E-1,3.9E0,8.8E0,-4.9E0,2.8E1,-2.434331E-3,-4.7505787E-3,-8.8731677E-4,2.5274234E-3,1.1467091E-3,-1.3662688E-3,2.0295412E-3,4.8433593E-3],"split_indices":[28,77,55,25,77,25,51,0,0,0,0,0,0,0,0],"split_type":[0,0,0,0,0,0,0,0,0,0,0,0,0,0,0],"sum_hessian":[3.7950476E3,2.6476855E3,1.1473622E3,1.5387745E3,1.108911E3,5.8096515E2,5.663971E2,1.01123737E3,5.275371E2,9.590973E2,1.4981369E2,2.9748163E2,2.8348352E2,3.841912E2,1.8220589E2],"tree_param":{"num_deleted":"0","num_feature":"106","num_nodes":"15","size_leaf_vector":"1"}},{"base_weights":[9.6291706E-2,-1.0763068E-1,2.2448826E-1,-1.8217517E-1,1.8904696E-1,3.3914512E-1,6.4710096E-2,-5.8378285E-4,-2.7990567E-3,4.0964037E-3,8.9024624E-4,4.217041E-3,2.142759E-3,1.0613683E-3,-2.4576772E-3],"categories":[],"categories_nodes":[],"categories_segments":[],"categories_sizes":[],"default_left":[0,0,0,0,0,0,0,0,0,0,0,0,0,0,0],"id":71,"left_children":[1,3,5,7,9,11,13,-1,-1,-1,-1,-1,-1,-1,-1],"loss_changes":[1.0054506E2,3.2825382E1,4.3219612E1,1.4318798E1,6.517359E0,1.4097244E1,1.2684959E1,0E0,0E0,0E0,0E0,0E0,0E0,0E0,0E0],"parents":[2147483647,0,0,1,1,2,2,3,3,4,4,5,5,6,6],"right_children":[2,4,6,8,10,12,14,-1,-1,-1,-1,-1,-1,-1,-1],"split_conditions":[4.69E-1,2.4E1,1.6E0,2.4E1,8.5E1,1.079E2,9.1E0,-5.8378285E-4,-2.7990567E-3,4.0964037E-3,8.9024624E-4,4.217041E-3,2.142759E-3,1.0613683E-3,-2.4576772E-3],"split_indices":[3,81,77,51,58,76,77,0,0,0,0,0,0,0,0],"split_type":[0,0,0,0,0,0,0,0,0,0,0,0,0,0,0],"sum_hessian":[3.8454504E3,1.4840333E3,2.361417E3,1.1863273E3,2.9770602E2,1.3744053E3,9.870118E2,5.238899E2,6.624373E2,9.246674E1,2.0523929E2,8.2674976E2,5.476555E2,8.711615E2,1.1585029E2],"tree_param":{"num_deleted":"0","num_feature":"106","num_nodes":"15","size_leaf_vector":"1"}},{"base_weights":[-1.0468036E-1,9.373774E-2,-2.3003012E-1,-4.8156917E-2,2.4455592E-1,-8.57047E-2,-3.731381E-1,9.013147E-4,-1.6444017E-3,9.309293E-4,3.3922622E-3,-1.2485863E-3,2.3874016E-3,-3.303736E-3,-6.118635E-3],"categories":[],"categories_nodes":[],"categories_segments":[],"categories_sizes":[],"default_left":[0,0,0,0,0,0,0,0,0,0,0,0,0,0,0],"id":72,"left_children":[1,3,5,7,9,11,13,-1,-1,-1,-1,-1,-1,-1,-1],"loss_changes":[9.510022E1,3.1690548E1,4.834826E1,1.2266145E1,1.0245274E1,1.4817989E1,1.1893356E1,0E0,0E0,0E0,0E0,0E0,0E0,0E0,0E0],"parents":[2147483647,0,0,1,1,2,2,3,3,4,4,5,5,6,6],"right_children":[2,4,6,8,10,12,14,-1,-1,-1,-1,-1,-1,-1,-1],"split_conditions":[4.69E-1,5.12E-1,1.3E1,-4.8E0,2.2E1,8.8E0,2.8E1,9.013147E-4,-1.6444017E-3,9.309293E-4,3.3922622E-3,-1.2485863E-3,2.3874016E-3,-3.303736E-3,-6.118635E-3],"split_indices":[3,55,80,25,28,77,81,0,0,0,0,0,0,0,0],"split_type":[0,0,0,0,0,0,0,0,0,0,0,0,0,0,0],"sum_hessian":[3.8229028E3,1.4797736E3,2.3431292E3,7.621361E2,7.1763745E2,1.1670299E3,1.1760994E3,3.4774603E2,4.1439008E2,2.7650763E2,4.4112982E2,1.0416888E3,1.2534106E2,9.979815E2,1.7811781E2],"tree_param":{"num_deleted":"0","num_feature":"106","num_nodes":"15","size_leaf_vector":"1"}},{"base_weights":[1.01191126E-1,2.6069987E-1,-5.101586E-2,3.438134E-1,3.7298143E-2,9.104961E-2,-2.1083397E-1,2.8011985E-3,5.419721E-3,-2.4765203E-4,3.2214003E-3,-9.905082E-4,1.9470557E-3,-1.6961497E-3,-5.0226212E-3],"categories":[],"categories_nodes":[],"categories_segments":[],"categories_sizes":[],"default_left":[0,0,0,0,0,0,0,0,0,0,0,0,0,0,0],"id":73,"left_children":[1,3,5,7,9,11,13,-1,-1,-1,-1,-1,-1,-1,-1],"loss_changes":[9.322542E1,3.477218E1,4.4610245E1,1.7145111E1,9.0254755E0,2.0496658E1,1.10322E1,0E0,0E0,0E0,0E0,0E0,0E0,0E0,0E0],"parents":[2147483647,0,0,1,1,2,2,3,3,4,4,5,5,6,6],"right_children":[2,4,6,8,10,12,14,-1,-1,-1,-1,-1,-1,-1,-1],"split_conditions":[1.5E1,3.8E0,5.24E-1,2.4E1,1.17E1,-4.8E0,2.9E1,2.8011985E-3,5.419721E-3,-2.4765203E-4,3.2214003E-3,-9.905082E-4,1.9470557E-3,-1.6961497E-3,-5.0226212E-3],"split_indices":[51,77,55,79,66,25,51,0,0,0,0,0,0,0,0],"split_type":[0,0,0,0,0,0,0,0,0,0,0,0,0,0,0],"sum_hessian":[3.8388406E3,1.874745E3,1.9640957E3,1.3660308E3,5.0871423E2,1.0394899E3,9.246058E2,1.034319E3,3.317118E2,4.1748904E2,9.1225204E1,3.6645935E2,6.730305E2,8.104752E2,1.1413057E2],"tree_param":{"num_deleted":"0","num_feature":"106","num_nodes":"15","size_leaf_vector":"1"}},{"base_weights":[-9.6251614E-2,-1.9952969E-1,1.4605126E-1,-3.8826364E-1,-1.14422515E-1,2.080903E-1,-1.9256422E-1,-1.5069966E-3,-4.339072E-3,-7.385429E-4,-4.396316E-3,3.3763403E-3,1.280584E-3,1.1304978E-3,-2.876664E-3],"categories":[],"categories_nodes":[],"categories_segments":[],"categories_sizes":[],"default_left":[0,0,0,0,0,0,0,0,0,0,0,0,0,0,0],"id":74,"left_children":[1,3,5,7,9,11,13,-1,-1,-1,-1,-1,-1,-1,-1],"loss_changes":[9.605963E1,4.31783E1,2.4097925E1,9.000992E0,2.4425774E1,1.0001217E1,5.176356E0,0E0,0E0,0E0,0E0,0E0,0E0,0E0,0E0],"parents":[2147483647,0,0,1,1,2,2,3,3,4,4,5,5,6,6],"right_children":[2,4,6,8,10,12,14,-1,-1,-1,-1,-1,-1,-1,-1],"split_conditions":[2E1,-1.7E0,2.6E1,1.1E1,7.5E0,-6.5E0,1.95E1,-1.5069966E-3,-4.339072E-3,-7.385429E-4,-4.396316E-3,3.3763403E-3,1.280584E-3,1.1304978E-3,-2.876664E-3],"split_indices":[28,77,103,52,25,25,22,0,0,0,0,0,0,0,0],"split_type":[0,0,0,0,0,0,0,0,0,0,0,0,0,0,0],"sum_hessian":[3.8381821E3,2.6914297E3,1.1467524E3,8.3599445E2,1.8554353E3,9.694666E2,1.7728584E2,1.3515668E2,7.008378E2,1.6500322E3,2.054031E2,3.69616E2,5.998506E2,4.1821316E1,1.3546452E2],"tree_param":{"num_deleted":"0","num_feature":"106","num_nodes":"15","size_leaf_vector":"1"}},{"base_weights":[1.0463846E-1,-9.3466096E-2,2.3425406E-1,1.2825619E-1,-1.8658207E-1,7.8839384E-2,3.5398966E-1,-8.1140845E-4,2.7306792E-3,-5.058203E-4,-2.7220477E-3,1.8259617E-4,2.6720602E-3,4.2560524E-3,2.4456622E-3],"categories":[],"categories_nodes":[],"categories_segments":[],"categories_sizes":[],"default_left":[0,0,0,0,0,0,0,0,0,0,0,0,0,0,0],"id":75,"left_children":[1,3,5,7,9,11,13,-1,-1,-1,-1,-1,-1,-1,-1],"loss_changes":[9.839883E1,3.1289688E1,4.3059692E1,1.3601851E1,1.2395718E1,1.1479419E1,1.0172714E1,0E0,0E0,0E0,0E0,0E0,0E0,0E0,0E0],"parents":[2147483647,0,0,1,1,2,2,3,3,4,4,5,5,6,6],"right_children":[2,4,6,8,10,12,14,-1,-1,-1,-1,-1,-1,-1,-1],"split_conditions":[4.73E-1,-2.4E0,1.3E1,-4.8E0,1.8E1,5.7E0,1.079E2,-8.1140845E-4,2.7306792E-3,-5.058203E-4,-2.7220477E-3,1.8259617E-4,2.6720602E-3,4.2560524E-3,2.4456622E-3],"split_indices":[3,77,103,25,53,25,76,0,0,0,0,0,0,0,0],"split_type":[0,0,0,0,0,0,0,0,0,0,0,0,0,0,0],"sum_hessian":[3.8313777E3,1.5150425E3,2.3163352E3,4.4775735E2,1.0672852E3,1.0084221E3,1.3079131E3,1.82793E2,2.6496436E2,4.1285233E2,6.5443286E2,7.635127E2,2.4490938E2,7.898006E2,5.181125E2],"tree_param":{"num_deleted":"0","num_feature":"106","num_nodes":"15","size_leaf_vector":"1"}},{"base_weights":[-1.0488176E-1,-2.096073E-1,1.3714737E-1,-2.9988495E-1,-4.7454033E-3,2.1341525E-1,-1.520869E-1,-4.098309E-3,-2.126584E-3,-2.3516717E-3,6.2578067E-4,1.3967332E-3,3.6592095E-3,-2.5307408E-3,3.0257632E-5],"categories":[],"categories_nodes":[],"categories_segments":[],"categories_sizes":[],"default_left":[0,0,0,0,0,0,0,0,0,0,0,0,0,0,0],"id":76,"left_children":[1,3,5,7,9,11,13,-1,-1,-1,-1,-1,-1,-1,-1],"loss_changes":[9.733365E1,4.954149E1,2.558545E1,1.7768372E1,1.2744147E1,1.0266052E1,3.8114347E0,0E0,0E0,0E0,0E0,0E0,0E0,0E0,0E0],"parents":[2147483647,0,0,1,1,2,2,3,3,4,4,5,5,6,6],"right_children":[2,4,6,8,10,12,14,-1,-1,-1,-1,-1,-1,-1,-1],"split_conditions":[2E1,3.1E0,2.4E1,-1.9E0,5E0,2.8E1,2.6E1,-4.098309E-3,-2.126584E-3,-2.3516717E-3,6.2578067E-4,1.3967332E-3,3.6592095E-3,-2.5307408E-3,3.0257632E-5],"split_indices":[28,77,81,77,29,51,28,0,0,0,0,0,0,0,0],"split_type":[0,0,0,0,0,0,0,0,0,0,0,0,0,0,0],"sum_hessian":[3.839602E3,2.6802778E3,1.1593245E3,1.8600602E3,8.202175E2,9.1770715E2,2.4161726E2,8.221954E2,1.0378647E3,1.8573969E2,6.3447784E2,6.191658E2,2.9854138E2,1.4669318E2,9.492408E1],"tree_param":{"num_deleted":"0","num_feature":"106","num_nodes":"15","size_leaf_vector":"1"}},{"base_weights":[1.063272E-1,2.3674992E-1,-8.200095E-2,3.6107546E-1,8.594245E-2,-1.609862E-1,1.6968021E-1,2.6357598E-3,4.4317464E-3,2.644009E-5,2.5077334E-3,-3.0646548E-3,-9.4833126E-4,1.4261522E-4,2.7423974E-3],"categories":[],"categories_nodes":[],"categories_segments":[],"categories_sizes":[],"default_left":[0,0,0,0,0,0,0,0,0,0,0,0,0,0,0],"id":77,"left_children":[1,3,5,7,9,11,13,-1,-1,-1,-1,-1,-1,-1,-1],"loss_changes":[9.5337364E1,4.2948044E1,3.156269E1,9.976044E0,1.4209147E1,1.1589941E1,6.129386E0,